
#include <eml_net.h>
static const float mynet_layer_0_biases[16] = { 0.242611f, -0.042485f, -0.200477f, 0.166249f, -0.423451f, 0.422323f, -0.189842f, -0.542472f, -0.789599f, -0.411627f, 0.320902f, 0.907617f, -0.407710f, -0.417862f, -0.217028f, 0.549656f };
static const float mynet_layer_0_weights[6400] = { -0.048153f, 0.234324f, 0.045395f, -0.007736f, 0.107361f, -0.152208f, -0.112655f, 0.019870f, 0.113769f, 0.038304f, -0.136874f, 0.159422f, 0.037056f, -0.078679f, -0.064861f, -0.129243f, -0.186544f, 0.342120f, 0.057571f, 0.054835f, 0.540459f, -0.385821f, 0.325430f, -0.154621f, 0.410514f, -0.092707f, -0.035354f, 0.191796f, -0.120439f, 0.139640f, 0.108846f, -0.482858f, 0.094185f, 0.254163f, 0.175239f, -0.123719f, -0.151690f, -0.213019f, 0.214971f, -0.077123f, 0.127526f, -0.072228f, 0.237757f, 0.101377f, -0.324766f, 0.034317f, 0.273270f, 0.023479f, 0.252793f, 0.191585f, 0.414643f, 0.303583f, 0.021265f, 0.104280f, -0.004770f, -0.147935f, 0.319009f, -0.182638f, 0.376106f, -0.298398f, -0.623589f, 0.217482f, 0.308014f, -0.240581f, 0.162150f, 0.351897f, 0.163658f, -0.034138f, 0.268265f, -0.165121f, -0.221107f, -0.127416f, 0.129661f, 0.330723f, 0.522628f, 0.364869f, -0.477824f, -0.457475f, 0.543560f, -0.346800f, -0.021130f, 0.039932f, 0.370475f, 0.135747f, 0.413572f, -0.795231f, 0.055902f, 0.343438f, -0.055871f, 0.076174f, 0.231386f, 0.397276f, -0.314276f, -0.454497f, 0.927878f, -0.168944f, 0.218045f, -0.512464f, 0.712792f, 0.285994f, 0.059125f, -0.627499f, -0.054985f, 0.082719f, 0.091999f, -0.261556f, 0.188380f, 0.693649f, -0.689025f, -0.698987f, 0.742023f, -0.523915f, -0.070900f, 0.284260f, 0.777614f, 0.643696f, -0.340390f, -0.488007f, -0.318648f, 0.087648f, -0.128920f, -0.246098f, -0.462993f, 0.121233f, -0.184268f, -0.154752f, 1.008112f, -0.052415f, 0.382011f, -0.209959f, 0.395192f, -0.047007f, -0.368463f, 0.218792f, 0.088369f, -0.459506f, 0.084583f, 0.164546f, -0.112501f, 1.010772f, -0.419498f, 0.080462f, 0.715404f, -0.180740f, -0.014266f, -0.461764f, 0.105577f, -0.172254f, 0.188105f, -0.629682f, 0.269255f, 0.302241f, 0.263856f, -0.088553f, 0.539495f, 0.260131f, -0.110612f, -0.007132f, 0.422549f, 0.015920f, 0.036834f, -0.462314f, -0.259669f, 0.905023f, 0.049243f, 0.071941f, -0.616865f, -0.156135f, 0.231164f, -0.001014f, 0.295985f, 0.258009f, 0.063146f, 0.093165f, 0.625595f, -0.302655f, -0.108262f, -0.775862f, 0.037538f, -0.015349f, -0.037792f, -0.227734f, 0.227287f, -0.330051f, 0.151831f, -0.081048f, 0.519852f, 0.593937f, -0.466620f, 0.302133f, 0.418985f, -0.129280f, -0.273928f, -0.118163f, 0.435246f, -0.032836f, -0.042175f, -0.371555f, -0.309893f, 0.384708f, -0.329942f, -0.148713f, 0.442503f, 0.888497f, 0.277415f, -0.002122f, 0.446609f, -0.240831f, -0.144347f, -0.143166f, -0.372439f, 0.113785f, 0.040454f, -0.178529f, -0.182962f, 0.167413f, -0.287290f, -0.102082f, 0.564195f, 0.021516f, 0.201979f, 0.404505f, 0.256880f, -0.385955f, -0.240742f, 0.184878f, -0.330288f, -0.001119f, 0.121348f, 0.076014f, -0.020409f, -0.116603f, -0.232588f, -0.114268f, 0.329185f, 0.360156f, 0.072956f, 0.311326f, 0.289799f, 0.277768f, -0.106252f, 0.537357f, -0.382893f, 0.565857f, 0.194058f, 0.111827f, 0.051098f, 0.204952f, -0.337837f, 0.014995f, 0.142388f, 0.391899f, 0.151060f, 0.111098f, 0.023785f, 0.016899f, 0.102506f, -0.123755f, -0.269084f, 0.767272f, 0.103640f, 0.262058f, 0.148809f, -0.113018f, 0.138443f, -0.103826f, 0.250732f, 0.172671f, -0.257976f, 0.132389f, -0.047437f, 0.315856f, -0.100699f, -0.301470f, -0.329668f, 0.517554f, 0.740555f, -0.112020f, 0.529839f, 0.087453f, -0.338491f, 0.150250f, -0.252302f, -0.031170f, 0.322079f, 0.048148f, -0.137734f, 0.284922f, -0.113869f, -0.349476f, -0.304573f, -0.295938f, -0.000233f, -0.247693f, -0.353348f, 0.090970f, -0.382927f, -0.317283f, -0.051863f, 0.101770f, 0.143614f, 0.257285f, 0.177499f, 0.339263f, -0.671429f, 0.200955f, -0.192471f, 0.035984f, 0.188739f, -0.041669f, 0.081117f, -0.331769f, -0.413110f, -0.211175f, -0.637712f, -0.142928f, 0.194264f, 0.791609f, -0.553565f, -0.076386f, 0.160465f, 0.191982f, 0.028516f, -0.325145f, 0.124006f, 0.081599f, 0.165346f, -0.034616f, 0.045153f, 0.069263f, 0.050228f, 0.149422f, -0.116797f, -0.334485f, -0.004769f, -0.201605f, 0.063840f, 0.176851f, -0.181087f, 0.098373f, -0.081674f, -0.304713f, 0.308544f, -0.167471f, -0.096610f, 0.044433f, -0.227730f, 0.166475f, -0.394711f, 0.059721f, -0.106908f, 0.268910f, 0.198663f, -0.140322f, -0.005624f, -0.226258f, -0.393014f, -0.159796f, 0.076461f, 0.131418f, -0.465427f, -0.041892f, 0.031222f, 0.279813f, -0.410058f, -0.132215f, 0.380938f, 0.310939f, -0.044600f, 0.206821f, -0.102595f, 0.080895f, 0.189061f, -0.023732f, -0.344499f, -0.299541f, -0.324339f, 0.194656f, 0.051394f, 0.134396f, -0.204517f, 0.001421f, 0.413272f, 0.128941f, -0.028179f, -0.241005f, 0.048141f, 0.322961f, 0.442520f, 0.256304f, -0.043497f, 0.159653f, -0.187736f, 0.236034f, 0.304901f, -0.054404f, -0.026078f, -0.367471f, 0.426348f, -0.156645f, 0.082458f, 0.071096f, 0.438499f, 0.357667f, -0.034179f, -0.186150f, 0.114224f, -0.055207f, 0.079627f, 0.169708f, 0.186573f, 0.427927f, -0.354036f, -0.608956f, -0.408332f, 0.177119f, -0.028696f, -0.160412f, 0.283749f, 0.612414f, -0.004589f, 0.107995f, -0.045354f, -0.176303f, -0.099179f, 0.055899f, -0.220266f, 0.480252f, -0.170441f, -0.385173f, 0.016393f, 0.229013f, 0.122107f, 0.047478f, 0.243223f, 0.234266f, -0.512623f, -0.109647f, 0.069172f, 0.294079f, 0.017716f, -0.266236f, -0.058258f, -0.728842f, 0.302206f, 0.162225f, 0.459547f, -0.117369f, 0.379617f, -0.200745f, 0.251859f, -0.173359f, 0.108332f, -0.234778f, -0.158233f, 0.113236f, -0.101354f, -0.038709f, -0.462903f, -0.095301f, -0.397941f, -0.038227f, 0.423828f, 0.016807f, 0.182128f, -0.392301f, -0.130553f, -0.544676f, 0.167275f, 0.139361f, -0.056696f, -0.217937f, -0.039365f, -0.181486f, 0.042776f, -0.109256f, 0.026135f, 0.124579f, 0.203899f, -0.165181f, -0.197028f, 0.198540f, 0.645759f, 0.080635f, -0.390882f, -0.145794f, 0.134181f, 0.184924f, -0.220537f, 0.010250f, -0.196721f, -0.013718f, 0.056471f, -0.073916f, -0.013716f, 0.274335f, 0.473215f, 0.156152f, -0.401082f, -0.347426f, 0.486729f, 0.070081f, 0.094019f, 0.269172f, -0.085331f, 0.661899f, 0.269547f, 0.067833f, 0.092487f, 0.706142f, -0.071345f, 0.246846f, 0.037573f, -0.015170f, 0.235080f, 0.062183f, 0.435974f, 0.276903f, 0.047029f, 0.258141f, -0.001337f, 0.228839f, 0.638085f, 0.378333f, 0.032246f, 0.146933f, -0.015590f, 0.327786f, -0.099490f, -0.174109f, -0.023404f, 0.119540f, -0.242723f, -0.128451f, 0.123546f, 0.388285f, -0.047320f, 0.057519f, -0.250480f, 0.094366f, 0.307401f, 0.316980f, -0.037288f, -0.067947f, -0.019384f, -0.877745f, -0.492487f, -0.139967f, 0.794330f, -0.126706f, -0.039562f, -0.437977f, 0.236538f, 0.075467f, 0.378513f, -0.059969f, -0.091638f, 0.149198f, -0.044051f, -0.075678f, 0.166606f, -0.490319f, -0.626944f, 0.070667f, -0.163126f, -0.645848f, -0.131444f, 0.087294f, 0.052925f, 0.310485f, 0.231725f, -0.090901f, -0.404241f, 0.299430f, 0.121026f, -0.184194f, 0.018154f, 0.187541f, -0.106085f, -0.470886f, 0.388348f, 0.269143f, -0.108104f, 0.002371f, -0.041821f, 0.414570f, -0.097406f, 0.108834f, -0.028957f, 0.104952f, 0.276679f, -0.524591f, 0.158553f, 0.031351f, -0.187829f, 0.287643f, 0.633219f, -0.209760f, -0.435354f, 0.093622f, -0.373312f, -0.070624f, 0.273056f, 0.130348f, 0.141982f, 0.278197f, -0.273290f, -0.337387f, 0.117330f, -0.241405f, -0.309048f, 0.500626f, -0.247532f, -0.198878f, -0.126025f, 0.058371f, -0.278482f, 0.012288f, 0.146653f, 0.650424f, 0.409286f, -0.051716f, 0.475641f, -0.188436f, 0.351414f, -0.464170f, -0.062331f, -0.011154f, -0.027919f, -0.279150f, 0.576197f, -0.360297f, 0.447230f, -0.088879f, -0.270249f, 0.603460f, 0.277175f, 0.134271f, -0.018737f, -0.230874f, 0.289526f, 0.117184f, -0.198887f, -0.566613f, -0.046382f, 0.128974f, 0.130952f, 0.090819f, -0.109402f, 0.290151f, 0.004540f, -0.164328f, -0.166481f, -0.497246f, -0.019401f, 0.355388f, -0.315856f, 0.174583f, -0.061207f, -0.126738f, 0.262787f, -0.249394f, 0.200187f, 0.075438f, -0.299336f, 0.062290f, -0.241829f, 0.102152f, -0.202058f, -0.430178f, -0.097005f, 0.329315f, 0.051087f, -0.057717f, 0.131757f, -0.107852f, 0.285824f, -0.466976f, -0.153685f, 0.293371f, -0.283885f, 0.120763f, -0.333906f, 0.305413f, -0.054791f, -0.725229f, 0.389967f, 0.380368f, 0.300089f, 0.083179f, 0.140937f, 0.418748f, 0.528436f, -0.603643f, -0.388527f, -0.038680f, -0.404974f, -0.128708f, -0.364401f, -0.171139f, -0.294549f, -0.036453f, -0.011159f, -0.029556f, 0.162664f, -0.217718f, -0.033420f, 0.453548f, -0.028515f, 0.228615f, -0.029133f, 0.200295f, -0.088360f, -0.418148f, -0.067444f, -0.237186f, 0.106082f, 0.125758f, 0.597003f, -0.049998f, 0.075581f, 0.224760f, 0.298323f, 0.496448f, 0.037168f, 0.555940f, 0.112640f, -0.221196f, 0.118537f, 0.301722f, -0.078750f, 0.600361f, -0.319811f, -0.053246f, 0.424657f, 0.218218f, -0.111119f, -0.458122f, -0.013831f, -0.414437f, -0.352047f, 0.282432f, -0.368650f, 0.158382f, 0.214157f, -0.043849f, -0.082345f, 0.116227f, 0.214728f, -0.032583f, 0.496928f, 0.067517f, 0.395981f, -0.246740f, 0.071826f, -0.034677f, 0.466299f, -0.258808f, -0.238229f, -0.469938f, -0.158930f, 0.230131f, 0.010587f, 0.214595f, 0.078129f, 0.465375f, 0.300648f, 0.101111f, -0.110494f, -0.225302f, -0.123744f, 0.045197f, -0.310182f, 0.203194f, 0.029304f, 0.101059f, -0.393271f, 0.038436f, -0.230630f, 0.088574f, 0.388681f, 0.242933f, 0.076504f, 0.385997f, 0.205322f, -0.016472f, 0.437958f, -0.035623f, 0.076653f, -0.262875f, -0.099482f, 0.167310f, -0.131434f, -0.342994f, -0.259470f, -0.268132f, 0.173886f, 0.121825f, 0.665982f, 0.239337f, 0.397820f, 0.192902f, -0.136146f, -0.094405f, 0.385611f, 0.156883f, -0.170311f, 0.022936f, -0.135278f, -0.127530f, 0.424333f, 0.162772f, -0.027995f, 0.204367f, 0.609291f, 0.205982f, -0.151646f, -0.926533f, -0.307052f, -0.320658f, -0.635658f, -0.027342f, 0.011387f, -0.136162f, 0.215225f, 0.263902f, -0.061511f, -0.016958f, 0.458940f, 0.707346f, -0.154687f, 0.474475f, 0.053899f, -0.395693f, 0.593795f, 0.142689f, 0.345552f, -0.179664f, -0.070547f, 0.224207f, -0.070210f, 0.267317f, 0.293911f, 0.145525f, -0.059245f, 0.193516f, 0.361938f, 0.182044f, 0.217106f, -0.037828f, -0.199081f, 0.040483f, -0.030747f, 0.507256f, -0.230702f, -0.279931f, -0.078719f, -0.226374f, -0.104525f, -0.430293f, 0.234605f, 0.160202f, 0.354622f, 0.046590f, -0.303980f, 0.309323f, -0.015010f, -0.062981f, -0.166056f, -0.145130f, -0.127933f, -0.056270f, 0.287903f, -0.094135f, 0.293575f, 0.269360f, -0.208873f, -0.202351f, -0.006622f, -0.074017f, -0.387034f, -0.084061f, -0.613266f, -0.322160f, 0.099050f, 0.407012f, -0.028910f, -0.093632f, -0.183053f, 0.149187f, -0.413313f, 0.087314f, -0.078336f, 0.120856f, 0.104435f, 0.040405f, -0.280427f, 0.012675f, -0.248436f, 0.046276f, -0.422349f, -0.328393f, -0.194136f, -0.076459f, -0.252917f, -0.525792f, 0.096125f, 0.119225f, -0.005743f, -0.018695f, 0.048218f, 0.042319f, -0.117693f, -0.222836f, -0.573634f, -0.260111f, -0.350012f, 0.138784f, -0.074974f, -0.140622f, 0.049928f, -0.297388f, -0.141759f, -0.148228f, 0.304518f, -0.267790f, -0.320110f, 0.477059f, -0.240666f, 0.029097f, -0.222862f, -0.230693f, -0.451474f, -0.376689f, 0.340234f, 0.014379f, -0.201657f, 0.018013f, 0.015650f, -0.028826f, 0.102896f, -0.121109f, 0.349011f, 0.212303f, -0.257056f, 0.217362f, -0.326034f, 0.232016f, -0.528710f, 0.310452f, -0.135648f, 0.341237f, -0.730185f, -0.311467f, -0.869898f, 0.157202f, -0.219691f, 0.326197f, 0.004057f, 0.104340f, 0.287611f, 0.026802f, -0.173449f, -0.444675f, -0.126975f, 0.175559f, 0.005360f, 0.368721f, -0.091542f, 0.397758f, 0.296810f, -0.032014f, -0.081795f, -0.887456f, -0.162011f, 0.321874f, -0.528914f, -0.047013f, 0.194968f, 0.460537f, -0.023740f, -0.270266f, 0.175617f, 0.243940f, -0.154856f, 0.112661f, 0.213579f, 0.128256f, 0.031100f, -0.268923f, 0.092712f, -0.350723f, 0.198791f, -0.103963f, 0.270056f, -0.025276f, -0.400343f, 0.041405f, 0.045611f, 0.323643f, -0.117067f, -0.167141f, 0.150521f, -0.152920f, -0.531513f, -0.100801f, 0.373171f, 0.071996f, -0.193350f, 0.204035f, 0.159614f, 0.148682f, 0.415880f, -0.484805f, -0.314005f, -0.192908f, -0.040188f, 0.188723f, -0.041799f, 0.159047f, 0.363774f, -0.858896f, -0.034832f, 0.045405f, 0.257545f, -0.045261f, 0.688344f, 0.145032f, -0.136561f, 0.216988f, -0.176533f, 0.151147f, 0.011210f, -0.211352f, -0.288948f, 0.248085f, 0.014491f, 0.076476f, 0.765248f, -0.251531f, -0.034854f, -0.359691f, -0.248915f, 0.528433f, -0.270785f, -0.341099f, -0.474653f, -0.251688f, -0.062646f, 0.191149f, 0.102678f, -0.297490f, -0.024188f, 0.289637f, 0.074370f, 0.566435f, -0.209529f, -0.104615f, 0.203584f, 0.212274f, 0.120612f, -0.173011f, -0.124714f, -0.073237f, -0.179103f, 0.089656f, 0.095344f, -0.272328f, -0.009528f, -0.080039f, 0.076437f, -0.244182f, -0.391253f, 0.140978f, -0.045631f, -0.105456f, 0.040668f, 0.081916f, -0.038043f, 0.216000f, -0.092189f, -0.031366f, 0.343122f, -0.389756f, -0.035069f, -0.070766f, 0.263284f, -0.072949f, 0.081506f, 0.333135f, -0.064094f, -0.100438f, -0.263751f, -0.083834f, 0.102012f, -0.129905f, -0.006933f, -0.034064f, -0.135614f, 0.269357f, -0.047381f, 0.083076f, 0.120846f, 0.135478f, 0.138403f, -0.263971f, 0.054088f, -0.919786f, -0.482195f, 0.159671f, -0.194621f, -0.136143f, -0.099165f, -0.099547f, -0.240527f, -0.593200f, 0.527973f, 0.234597f, 0.036099f, 0.488564f, 0.046427f, 0.213666f, 0.227057f, -0.061991f, -0.185205f, -0.083806f, 0.353004f, -0.165095f, 0.083177f, 0.092756f, -0.274244f, 0.338839f, 0.064309f, 0.240133f, 0.378315f, 0.053588f, 0.180465f, 0.198845f, 0.050779f, -0.122289f, -0.250341f, 0.096962f, -0.055713f, 0.248221f, 0.056856f, 0.145431f, 0.090379f, 0.049155f, 0.086855f, 0.555026f, 0.592224f, 0.175360f, 0.232186f, -0.485088f, -0.197038f, 0.222044f, -0.239695f, 0.154514f, -0.466573f, -0.797335f, -0.166491f, -0.382571f, 0.016338f, -0.033348f, 0.202022f, 0.189295f, 0.265057f, 0.139897f, -0.183028f, -0.209389f, -0.176545f, 0.141979f, -0.083242f, -0.429133f, -0.024085f, 0.006174f, 0.155961f, 0.599215f, -0.009814f, 0.003643f, -0.129516f, 0.389605f, -0.366911f, 0.392548f, 0.011646f, -0.610928f, -0.329183f, 0.310800f, -0.353815f, 0.466207f, 0.045743f, -0.076101f, -0.106505f, -0.519046f, 0.265584f, 0.122046f, 0.781738f, 0.741651f, 0.076439f, 0.684959f, 0.218933f, -0.317203f, -0.536798f, 0.255956f, -0.204560f, -0.467007f, -0.210326f, -0.190126f, -0.176054f, 0.234939f, 0.015143f, -0.156893f, 0.251381f, 0.460175f, 0.467566f, 0.335124f, -0.006680f, -0.484004f, -0.524468f, 0.117299f, -0.852523f, 0.100302f, -0.001777f, -0.695137f, -0.205651f, 0.122518f, -0.255348f, 0.092772f, 0.029239f, 0.444444f, 0.172760f, 0.320030f, 0.056270f, -0.448997f, -0.733045f, 0.033211f, -0.263823f, 0.258528f, -0.203384f, -0.187969f, -0.060698f, 0.335464f, -0.099076f, -0.106960f, -0.134167f, 0.343441f, 0.015876f, 0.016275f, -0.045421f, 0.234604f, -0.253567f, 0.085710f, -0.765353f, 0.128517f, -0.141178f, -0.216322f, -0.199780f, 0.061332f, 0.030625f, 0.530180f, -0.045989f, 0.533654f, 0.252140f, -0.227601f, -0.147757f, -0.132900f, 0.215593f, 0.404161f, -0.891006f, -0.539625f, 0.391329f, 0.064046f, -0.223503f, 0.011401f, -0.132529f, -0.498653f, -0.299852f, 0.309130f, 0.121535f, 0.652288f, 0.098726f, 0.005180f, 0.109984f, -0.284373f, -0.011261f, 0.004224f, -0.301309f, 0.412443f, 0.116306f, -0.010930f, 0.037643f, -0.034728f, -0.119859f, -0.053942f, -0.249941f, -0.094421f, -0.287436f, 0.257926f, -0.123063f, 0.268718f, -0.031049f, -0.116048f, -0.053130f, -0.083741f, 0.175573f, 0.299843f, -0.208327f, 0.146854f, 0.318526f, -0.041951f, 0.252565f, 0.053096f, 0.097637f, 0.088279f, -0.077716f, 0.051751f, -0.346696f, 0.647498f, -0.279987f, -0.074419f, 0.230511f, -0.319433f, -0.229286f, 0.134987f, -0.183744f, 0.020926f, 0.210572f, -0.204518f, 0.035652f, -0.280731f, 0.123741f, 0.359278f, -0.104026f, -0.008291f, -0.057808f, -0.294222f, 0.159313f, 0.557359f, -0.123033f, -0.097185f, -0.548256f, 0.115862f, -0.512242f, 0.084369f, 0.070771f, -0.688466f, 0.086144f, -0.096437f, -0.086256f, 0.293431f, 0.047542f, -0.081038f, 0.070456f, 0.056297f, 0.207029f, 0.091191f, 0.071732f, -0.133820f, 0.534203f, 0.105663f, -0.111860f, -0.287966f, 0.053583f, 0.773891f, -0.492451f, 0.241945f, -0.030194f, 0.173786f, -0.274612f, 0.063842f, -0.142614f, -0.185521f, -0.070613f, 0.395206f, -0.072292f, 0.446731f, 0.068768f, -0.371983f, 0.125246f, -0.286540f, 0.000823f, 0.487012f, -0.231391f, -0.220145f, 0.302721f, 0.200561f, -0.343220f, 0.380785f, 0.070804f, -0.184854f, 0.029406f, 0.183357f, -0.113603f, -0.526121f, -0.032011f, 0.227433f, -0.370654f, 0.005687f, -0.341000f, -0.331477f, 0.183639f, 0.051303f, -0.430098f, -0.179053f, 0.247514f, -0.097211f, -0.100057f, -0.035421f, -0.106582f, -0.166203f, 0.443569f, -0.737258f, -0.423657f, -0.594597f, -0.302382f, 0.124187f, -0.436255f, 0.180046f, -0.449443f, -0.374961f, -0.019594f, -0.363336f, 0.014722f, 0.151191f, 0.208860f, -0.303227f, 0.301727f, -0.017422f, -0.658858f, -0.099540f, -0.078675f, -0.069845f, -0.052326f, -0.242990f, -0.597695f, -0.097558f, 0.283410f, 0.125991f, 0.276749f, -0.001799f, 0.550652f, -0.057250f, -0.124266f, -0.086142f, -0.702423f, -0.037483f, 0.014305f, 0.079962f, 0.241081f, 0.158431f, -0.025873f, -0.254050f, 0.633299f, 0.738851f, 0.496924f, 0.542036f, 0.714810f, 0.600806f, 0.447517f, 0.234561f, -0.139912f, 0.095546f, -0.177159f, 0.130366f, -0.258426f, 0.226047f, 0.026700f, 0.019402f, 0.351587f, 0.222342f, 0.103478f, 0.450407f, -0.422709f, 0.524884f, -0.284365f, -0.035453f, -0.647994f, 0.114067f, -0.013161f, 0.437807f, 0.161013f, -0.143485f, 0.584095f, -0.111717f, 0.306034f, -0.058258f, 0.130081f, 0.539942f, -0.263397f, 0.168513f, -0.382470f, -0.082356f, -0.969891f, -0.175550f, -0.123127f, -0.187418f, -0.156864f, 0.155319f, -0.101957f, -0.211350f, 0.165832f, 0.362229f, 0.455085f, -0.056837f, 0.032948f, 0.412123f, -0.001202f, 0.163006f, -0.895072f, 0.211707f, -0.071068f, 0.481666f, 0.444568f, -0.024116f, 0.150004f, -0.228859f, -0.059045f, 0.030599f, 0.218640f, 0.441064f, -0.297710f, 0.011949f, -0.033018f, -0.498822f, -0.455092f, 0.304497f, -0.348064f, 0.018536f, -0.077167f, 0.304446f, 0.162672f, -0.029145f, 0.080372f, 0.074970f, -0.419362f, 0.026758f, -0.163331f, 0.429300f, 0.001051f, -0.039774f, -0.410748f, 0.041959f, -0.055474f, 0.205173f, 0.179161f, -0.002207f, -0.127535f, -0.040072f, 0.182734f, 0.078411f, -0.196754f, -0.001887f, 0.106651f, 0.164606f, -0.661656f, 0.012595f, -0.138188f, -0.315212f, 0.026279f, -0.327541f, 0.022287f, -0.025418f, 0.245928f, -0.016929f, 0.010614f, 0.224767f, -0.339710f, 0.167337f, 0.085578f, 0.137619f, -0.367772f, -0.120107f, -0.165578f, 0.265628f, -0.179200f, 0.357381f, 0.127196f, 0.202751f, 0.089302f, -0.384134f, 0.025219f, -0.015552f, 0.184767f, 0.369641f, -0.642423f, 0.265681f, -0.604130f, 0.246461f, -0.656164f, 0.667969f, 0.155440f, 0.182960f, -0.413951f, -0.006725f, -0.697305f, -0.253115f, 0.534830f, 0.206409f, 0.113245f, 0.413592f, -0.342784f, 0.054419f, -0.087460f, 0.493481f, 0.452719f, -0.201408f, -0.343222f, 0.157293f, 0.089950f, -0.014477f, 0.022601f, -0.143210f, -0.016773f, -0.206976f, -0.224747f, 0.368458f, 0.388543f, 0.036609f, -0.269832f, -0.484931f, -0.153927f, -0.252078f, 0.026453f, 0.159350f, 0.156925f, 0.529933f, 0.210324f, 0.154893f, 0.485760f, -0.303181f, 0.462635f, -0.066535f, -0.085515f, -0.106940f, -0.450161f, 0.334573f, -0.607953f, 0.262945f, -0.408637f, -0.338021f, 0.057003f, 0.429234f, -0.097781f, 0.209488f, -0.241405f, 0.135011f, -0.304227f, 0.415395f, -0.027071f, -0.063618f, -0.202666f, 0.302525f, -0.054062f, -0.302899f, -0.627035f, -0.068079f, -0.052022f, 0.352886f, -0.022696f, 0.008879f, 0.306911f, 0.113894f, -0.062560f, -0.017944f, -0.071200f, 0.487996f, 0.222269f, 0.345924f, 0.247824f, 0.681882f, 0.280558f, -0.167587f, 0.220551f, 0.230584f, 0.262498f, 0.666436f, -0.109141f, 0.152176f, -0.122673f, 0.239013f, -0.100719f, 0.596127f, 0.435040f, 0.253301f, -0.635309f, -0.279042f, -0.649400f, 0.044329f, 0.076028f, 0.028566f, 0.350507f, -0.024114f, 0.136797f, -0.365879f, 0.057501f, 0.144295f, 0.209053f, -0.234251f, 0.368149f, 0.820349f, -0.059469f, 0.085780f, -0.121585f, -0.138682f, -0.287389f, 0.042301f, 0.210381f, -0.321343f, 0.208998f, 0.149713f, -0.459534f, 0.106985f, 0.101707f, -0.336957f, -0.006567f, 0.114755f, 0.145462f, 0.291783f, -0.263503f, -0.322530f, -0.293057f, 0.139982f, -0.116108f, -0.297522f, 0.268407f, 0.557219f, -0.230941f, -0.211632f, -0.388376f, 0.191144f, -0.189428f, -0.435859f, 0.396961f, 0.220806f, 0.234593f, -0.064438f, 0.275768f, 0.065307f, -0.403241f, -0.149325f, -0.105969f, -0.266349f, -0.617744f, 0.205627f, -0.030978f, 0.213308f, -0.082412f, -0.603564f, -0.370789f, 0.109613f, -0.274856f, 0.016516f, -0.028193f, 0.232777f, 0.203512f, 0.000003f, 0.282998f, 0.281363f, -0.651924f, 0.192136f, 0.487322f, 0.122147f, 0.127366f, -0.298697f, 0.530230f, 0.426510f, -0.024300f, 0.122088f, 0.322307f, 0.355978f, -0.583073f, -0.489779f, 0.513992f, -0.034312f, -0.685393f, 0.152806f, 0.330193f, 0.603487f, -0.039152f, 0.330673f, -0.690858f, 0.097928f, 0.317237f, 0.167313f, 0.293811f, -0.188461f, 0.115635f, 0.471131f, 0.056804f, 0.032403f, 0.000758f, 0.606033f, 0.546650f, 0.877307f, -0.097052f, -0.095142f, -0.164152f, 0.332868f, -0.033234f, 0.679214f, 0.194950f, 0.010139f, 0.964133f, 0.555608f, 0.063773f, 0.068571f, -0.383083f, 0.670702f, 0.490998f, 0.715944f, 0.459637f, 0.302212f, 0.002760f, 0.443897f, -0.159923f, 0.309125f, -0.135191f, 0.196337f, -0.026934f, 0.367910f, -0.122697f, -0.322698f, -0.184745f, 0.372424f, -0.113645f, 0.963805f, 0.167400f, -0.022316f, -0.659171f, -0.070431f, 0.266121f, 0.117174f, -0.172431f, -0.460872f, 0.081783f, 0.006349f, -0.205211f, -0.543389f, -0.082028f, 0.292596f, -0.326925f, 0.443281f, -0.174409f, 0.002851f, -0.529129f, 0.125731f, 0.028278f, 0.567107f, 0.754943f, 0.019915f, 0.185585f, -0.015619f, -0.189749f, -0.273945f, 0.037999f, 0.192867f, 0.037158f, 0.348640f, -0.044987f, 0.181529f, -0.254792f, 0.137470f, -0.073121f, 0.800060f, 0.365781f, -0.342423f, 0.382686f, -0.441503f, -0.068739f, -0.462032f, 0.048284f, 0.326067f, -0.477278f, 0.320931f, 0.362593f, -0.200182f, -0.049796f, 0.293107f, 0.123461f, 0.325778f, -0.051476f, -0.711203f, 0.004805f, 0.094967f, -0.399339f, -0.766146f, -0.087671f, -0.067413f, 0.585163f, 0.581926f, -0.846985f, -0.677602f, -0.189018f, 0.069289f, 0.175023f, 0.166668f, 0.514447f, -0.034667f, -0.523310f, 0.558472f, 0.197382f, -0.463042f, -0.024471f, -0.138202f, -0.104794f, 0.116699f, -0.596126f, -0.529603f, -0.297196f, 0.093210f, -0.060344f, 0.507869f, 0.075187f, -0.387776f, 0.046115f, -0.518586f, 0.432268f, 0.101171f, -0.251997f, 0.312045f, 0.185411f, -0.028253f, 0.083909f, 0.158256f, 0.203344f, 0.084011f, -0.309553f, 0.308700f, 0.216172f, -0.129187f, 0.281361f, -0.245017f, -0.008929f, -0.273271f, -0.100493f, 0.181309f, 0.089571f, -0.017635f, 0.069082f, 0.034919f, -0.302154f, 0.315891f, 0.200114f, 0.240567f, 0.032459f, 0.247857f, 0.363656f, 0.098423f, -0.532665f, -0.105730f, -0.469958f, 0.248595f, -0.118792f, 0.322249f, 0.651207f, -0.348668f, -0.114003f, 0.492618f, -0.437899f, -0.195295f, 0.201709f, -0.100755f, -0.315283f, 0.536480f, 0.042699f, -0.175043f, -0.477361f, 0.377978f, 0.286179f, -0.260343f, -0.040324f, 0.268248f, -0.313029f, -0.328588f, -0.469857f, -0.393306f, -0.013112f, 0.242211f, 0.091984f, 0.338016f, -0.059079f, 0.019612f, -0.733846f, -0.049746f, -0.049316f, -0.119438f, 0.202048f, 0.291702f, 0.095273f, 0.409176f, 0.064469f, -0.040835f, -0.126944f, 0.063624f, -0.171092f, 0.238606f, 0.213818f, 0.078618f, -0.754123f, 0.027838f, 0.044800f, 0.058528f, -0.000858f, 0.125801f, -0.005965f, 0.125508f, -0.112990f, 0.119584f, 0.179081f, 0.314778f, -0.092141f, -0.003641f, 0.007534f, 0.143602f, -1.165433f, 0.209212f, 0.100023f, 0.722213f, -0.134247f, 0.664350f, -0.127282f, 0.532689f, 0.072009f, 0.088302f, -0.148345f, 0.158826f, 0.025642f, 0.282062f, 0.377851f, 0.296623f, -0.303914f, 0.327899f, -0.155734f, -0.407539f, -0.378791f, 0.049990f, -0.237326f, 0.173940f, 0.357207f, -0.043517f, 0.151174f, -0.093475f, 0.179677f, 0.098111f, 0.179567f, 0.333361f, -1.116717f, 0.124225f, 0.085732f, -0.226809f, -0.503219f, -0.696726f, 0.131220f, 0.163634f, -0.258493f, 0.354457f, 0.505789f, 0.169353f, -0.176941f, 0.019671f, 0.279916f, 0.097934f, -0.724427f, -0.052203f, 0.130700f, 0.369230f, -0.621819f, -0.571122f, -0.010695f, -0.237990f, 0.213958f, 0.162324f, -0.140588f, -0.644318f, -0.049920f, -0.416923f, 0.503718f, 0.039588f, -0.591861f, 0.461709f, 0.371751f, 0.302869f, 0.262431f, -0.371456f, 0.195337f, -0.216757f, 0.056409f, 0.432618f, -0.378130f, 0.041720f, 0.056546f, 0.126400f, 0.407248f, 0.588421f, -0.517772f, 0.426508f, 0.039642f, 0.712022f, 0.023341f, -0.215192f, 0.172821f, 0.196003f, 0.139728f, 0.316572f, -0.537942f, 0.089156f, 0.157440f, -0.274802f, 0.113758f, 0.022743f, -0.684905f, 0.099785f, -0.246201f, -0.015052f, 0.326509f, 0.258556f, 0.379088f, -0.201479f, -0.342468f, -0.471248f, -0.278792f, -0.105422f, 0.301251f, 0.200813f, 0.140895f, -0.365913f, -0.238849f, 0.474841f, 0.076183f, 0.086019f, 0.107650f, 0.087560f, 0.236046f, -0.092122f, 0.130711f, 0.370981f, 0.295854f, 0.263644f, 0.832659f, 0.402545f, -0.382417f, 0.058383f, -0.013725f, 0.153167f, 0.077629f, 0.275656f, 0.216483f, -0.005141f, 0.215727f, 0.135561f, -0.348194f, 0.369468f, -0.140122f, -0.095605f, 0.493017f, 0.223221f, -0.170488f, -0.315551f, -0.091564f, 0.090434f, -0.104716f, 0.408784f, -0.010439f, 0.191192f, 0.568430f, 0.376591f, -0.027013f, 0.166017f, 0.088150f, 0.125042f, 0.367187f, 0.284982f, -0.465603f, -0.171411f, -0.297463f, 0.224446f, -0.565828f, 0.374266f, -0.027548f, 0.057119f, -0.265444f, 0.320888f, -0.291719f, 0.330231f, 0.339700f, 0.437026f, 0.493138f, 0.516413f, -0.006850f, 0.219118f, 0.112288f, 0.600868f, -0.089065f, 0.461381f, -0.025266f, 0.108177f, 0.293217f, 0.225138f, -0.207225f, 0.127711f, 0.115592f, -0.341023f, -0.162663f, -0.084910f, -0.024891f, -0.389747f, 0.218868f, -0.195999f, 0.324646f, 0.473730f, -0.700552f, -0.271934f, 0.078900f, -0.145969f, -0.208621f, 0.296151f, 0.164409f, -0.041002f, 0.360246f, -0.794133f, -0.162674f, -0.190281f, -0.296256f, 0.017185f, -0.592584f, 0.703745f, -0.359708f, -0.656362f, 0.059980f, -0.322719f, -0.552897f, 0.461218f, -0.287741f, 0.094246f, 0.356167f, -0.398439f, -0.396178f, -0.079142f, -0.311741f, -0.088661f, 0.025527f, -0.114845f, 0.093741f, -0.145035f, 0.568543f, 0.274641f, -0.807076f, 0.028633f, -0.255189f, -0.126559f, -0.078562f, 0.192662f, 0.300387f, -0.352471f, -0.215236f, 0.541503f, -0.189370f, -0.016342f, -0.070666f, 0.336603f, 0.423634f, 0.137061f, -0.218670f, -0.160002f, 0.256009f, -0.056486f, 0.173084f, 0.043593f, 0.137249f, 0.372443f, -0.739621f, 0.402323f, -0.129668f, 0.260276f, 0.107992f, 0.165492f, 0.031595f, 0.319180f, 0.044314f, 0.572756f, -0.268791f, 0.170236f, 0.296630f, -0.661289f, 0.590960f, -0.407812f, -0.311333f, -0.046935f, 0.221491f, -0.108868f, 0.104592f, 0.021375f, -0.792489f, 0.341955f, -0.064117f, -0.104018f, -0.136638f, 0.018650f, -0.343970f, -0.324001f, 0.069717f, -0.085247f, -0.225256f, -0.510354f, -0.181252f, -0.272964f, 0.326688f, 0.043443f, 0.221084f, 0.184929f, -0.242343f, -0.007374f, 0.396241f, 0.325040f, -0.355304f, -0.218027f, -0.549963f, -0.171021f, -0.875075f, 0.311932f, -0.522970f, -0.514377f, 0.225066f, 0.667958f, 0.280591f, 0.451196f, 0.026597f, -0.070083f, 0.055081f, 0.297949f, 0.512303f, 0.127140f, 0.062003f, -0.117594f, -0.828802f, 0.150589f, 0.362562f, -0.065099f, 0.358333f, 0.105952f, 0.177019f, 0.185320f, -0.397551f, -0.034654f, 0.142207f, -0.323553f, -0.396790f, -0.092144f, -0.221504f, -0.304146f, -0.399837f, -0.013196f, -0.066367f, 0.546145f, -0.102082f, 0.242831f, 0.387028f, 0.267513f, -0.080247f, -0.078933f, -0.554448f, -0.482994f, 0.197059f, -0.194136f, 0.243242f, -0.273385f, -0.371191f, 0.462195f, 0.282318f, -0.146537f, 0.065032f, -0.388495f, 0.230474f, 0.510187f, 0.387220f, -0.110797f, -0.373030f, -0.996277f, -0.288483f, 0.230266f, 0.259399f, 0.033939f, 0.103092f, 0.084904f, 0.005710f, -0.179286f, 0.081558f, -0.518783f, 0.579707f, 0.349308f, 0.288345f, -0.214678f, -0.433395f, -0.191618f, -0.034902f, 0.445189f, 0.157896f, 0.247291f, -0.560296f, 0.594533f, 0.673302f, -0.296376f, -0.564244f, 0.115052f, 0.006709f, 0.084626f, -0.022165f, -0.229737f, -0.119369f, 0.740463f, -0.172978f, 0.219838f, -0.188555f, 0.786250f, 0.089936f, 0.303248f, 0.389036f, 0.038797f, -0.159726f, -0.044786f, 0.442813f, 0.285290f, 0.018797f, -0.394982f, -0.477700f, -0.111554f, -0.247568f, 0.625132f, -0.156122f, 0.014744f, -0.128201f, 0.333576f, 0.366495f, -0.026667f, 0.283786f, -0.010250f, 0.036411f, 0.158731f, 0.384383f, -0.065279f, -0.109727f, 0.052826f, -0.568361f, -0.145544f, -0.291408f, 0.010317f, -0.009341f, -0.378421f, 0.614229f, 0.333319f, 0.538100f, -0.122190f, 0.364355f, -0.431764f, 0.375945f, 0.528784f, -0.279732f, -0.160898f, -0.288530f, -0.239764f, -0.162051f, 0.194535f, 0.273108f, 0.764546f, 0.325578f, -0.117343f, 0.088489f, 0.107964f, 0.374130f, 0.277293f, -0.081550f, -0.110126f, 0.164388f, -0.334359f, 0.363950f, 0.312682f, 0.421212f, 0.095809f, 0.069871f, 0.623614f, 0.204391f, 0.539316f, 0.248102f, -0.209068f, 0.300756f, 0.297311f, 0.505140f, 0.441319f, 0.175989f, -0.183470f, 0.132589f, -0.140247f, -0.002796f, -0.205711f, -0.335387f, -0.159644f, 0.308219f, -0.061392f, 0.144848f, 0.119671f, -0.294358f, -0.038001f, -0.282592f, 0.116853f, 0.026341f, -0.309097f, 0.598180f, 0.178509f, -0.256080f, -0.243649f, 0.006348f, 0.545765f, -0.309821f, -0.170426f, 0.565159f, 0.064452f, -0.323972f, -0.180401f, -0.430054f, 0.262837f, 0.520603f, 0.240860f, 0.216018f, -0.382916f, -0.175217f, -0.052199f, -0.312174f, -0.325720f, -0.101251f, 0.291200f, -0.603878f, -0.209849f, 0.223767f, 0.058499f, -0.164402f, 0.262948f, 0.360223f, 0.131524f, -0.273018f, -0.945800f, -0.427690f, -0.427993f, -0.065467f, 0.262516f, -0.303585f, 0.882325f, -0.372816f, 0.167092f, 0.011712f, -0.096300f, -1.018473f, 0.078889f, -0.099231f, -0.170954f, 0.087969f, -0.630660f, -0.424264f, 0.113649f, -0.164207f, -0.216153f, 0.043115f, -0.180993f, -0.003677f, -0.094965f, -0.057077f, 0.214820f, -0.835899f, -0.245798f, -0.179891f, -0.398734f, 0.104379f, 0.167116f, 0.130331f, 0.153436f, -0.774890f, 0.127502f, -0.388557f, -0.399601f, -0.110011f, 0.273197f, -0.167119f, -0.008889f, -0.196039f, 0.461168f, -0.085688f, -0.586706f, -0.176082f, 0.124799f, 0.425301f, 0.212400f, -0.443712f, 0.245019f, 0.413476f, -0.234339f, 0.400360f, -0.089359f, 0.064469f, -0.219915f, -0.256774f, -0.045163f, 0.208668f, -0.599874f, 0.331755f, 0.090698f, 0.360445f, 0.285084f, -0.746048f, 0.021285f, 0.075294f, 0.561021f, 0.140874f, 0.146431f, 0.321841f, 0.055060f, -0.271661f, 0.364156f, -0.036223f, -0.559500f, -0.127195f, -0.347944f, 0.174037f, -0.271015f, -0.109526f, 0.362227f, -0.248247f, -0.105627f, -0.501492f, -0.200275f, 0.270160f, 0.154032f, 0.271495f, -0.520742f, -0.353785f, -0.766221f, 0.295281f, 0.006129f, 0.345383f, -0.181174f, -0.295533f, -0.162010f, 0.291535f, 0.537784f, 0.475745f, 0.163127f, -0.315446f, -0.145211f, 0.144085f, 0.083289f, -0.710483f, -1.247453f, 0.003897f, 0.017176f, 0.113586f, -0.168674f, 0.198336f, -0.375010f, -0.474511f, 0.034273f, -0.270921f, 0.293320f, -0.082111f, 0.076370f, 0.580560f, -0.221269f, -0.012773f, -1.115528f, 0.036009f, 0.498863f, -0.142331f, -0.305735f, 0.327400f, 0.032360f, -0.147351f, -0.399429f, -0.316244f, 0.123770f, -0.214853f, -0.414219f, 0.330359f, -0.265444f, -0.524980f, -0.754658f, -0.068669f, 0.002391f, -0.418682f, 0.298960f, 0.353639f, -0.309427f, -0.100474f, 0.220990f, 0.091478f, -0.377420f, -0.036467f, 0.047407f, 0.427006f, 0.487725f, 0.016436f, -0.298487f, -0.094542f, 0.116309f, -0.101004f, -0.324905f, 0.377560f, -0.114385f, -0.102070f, -0.082553f, -0.385248f, -0.459990f, -0.421129f, -0.451493f, 0.221748f, 0.196227f, -0.170504f, -0.084215f, -0.188584f, -0.232003f, -0.104693f, 0.522232f, 0.075892f, 0.136184f, 0.174015f, 0.165154f, -0.581894f, -0.363085f, 0.703912f, -0.485801f, 0.268559f, -0.089439f, -0.240626f, 0.200375f, 0.181736f, 0.227822f, -0.753701f, 0.471777f, 0.259030f, -0.030847f, 0.030727f, 0.183627f, -0.096375f, 0.135949f, 0.007871f, -0.339542f, 0.038227f, 0.091153f, 0.280350f, 0.116809f, -0.415780f, -0.243325f, -0.216629f, 0.063737f, 0.022652f, 0.212037f, 0.252466f, -0.164618f, -0.155892f, 0.178671f, -0.059086f, -0.279232f, -0.394349f, -0.043966f, 0.140788f, -0.171215f, 0.280820f, -0.185609f, -0.322399f, -0.425455f, 0.012866f, 0.144619f, 0.062787f, 0.117827f, -0.223633f, -0.245296f, 0.099084f, 0.655055f, 0.058204f, -0.035471f, -0.101783f, -0.292723f, 0.128334f, 0.149051f, 0.013073f, 0.262011f, 0.178234f, -0.108704f, 1.089204f, -0.435102f, 0.421285f, 0.371082f, 0.434194f, -0.045580f, 0.342914f, 0.268742f, 0.214564f, 0.542330f, -0.482119f, -0.403916f, 0.235014f, 0.633817f, -0.002301f, 0.507123f, -0.302073f, 0.332126f, 0.258608f, -0.155331f, -0.144917f, 0.468641f, 0.267862f, 0.375616f, 0.043569f, 0.191939f, 0.078194f, -0.052833f, -0.246104f, -0.048616f, 0.050415f, 0.333455f, -0.389188f, -0.277541f, 0.033327f, 0.268658f, 0.315287f, 0.152377f, -0.157501f, -0.058822f, 0.117157f, -0.132734f, 0.043205f, -0.148353f, -0.031570f, 0.325410f, 0.334808f, 0.049590f, -0.236184f, -0.494909f, -0.232203f, 0.316927f, -0.017412f, 0.407560f, 0.060030f, 0.102866f, 0.181407f, 0.168074f, 0.239721f, -0.026367f, -0.084082f, 0.172068f, -0.022075f, -0.095119f, -0.828804f, -0.010300f, -0.273449f, 0.199827f, 0.163823f, 0.120777f, 0.297596f, -0.215029f, 0.345303f, -0.433038f, -0.131441f, -0.204822f, 0.221335f, -0.049444f, -0.386615f, -0.011150f, -0.044780f, 0.018488f, 0.006031f, 0.457888f, 0.477225f, 0.062841f, -1.404753f, 0.274578f, 0.325602f, -0.222107f, 0.666290f, -0.419899f, 0.031242f, 0.298089f, -0.210988f, -0.047762f, -0.062029f, -0.060369f, -0.226062f, 0.222782f, 0.107426f, 0.018853f, -0.243594f, -0.432367f, 0.245381f, -0.644689f, 0.493784f, -0.381868f, -0.289524f, 0.311457f, -0.429158f, 0.856996f, -0.431760f, -0.041938f, -0.230011f, 0.138985f, 0.217761f, 0.308491f, 0.020261f, -0.162908f, -0.015194f, -1.007984f, -0.068096f, 0.108103f, 0.077385f, -0.183564f, 0.255895f, -0.097230f, -0.151434f, -0.097807f, -0.225400f, 0.265510f, 0.083218f, 0.146959f, 0.030124f, -0.060669f, -0.298620f, -1.061404f, 0.656755f, -0.126582f, 0.278626f, -0.101596f, 0.043107f, 0.193136f, -0.235038f, -0.286303f, 0.188131f, 0.675630f, 0.056712f, -0.065075f, 0.451423f, 0.038001f, -0.360432f, -1.296977f, -0.282356f, -0.033368f, -0.131717f, 0.332888f, 0.613250f, -0.185687f, -0.139591f, -0.079064f, -0.662079f, -0.231388f, 0.296709f, 0.204204f, -0.007402f, -0.059206f, 0.078793f, -1.149513f, -0.154385f, 0.023990f, -0.286536f, -0.132451f, -0.077978f, -0.026879f, -0.012513f, 0.065643f, 0.087540f, 0.353860f, -0.026078f, -0.174969f, 0.043468f, 0.192847f, -0.266969f, -0.404279f, 0.149356f, -0.224884f, -0.231861f, 0.047485f, 0.849546f, -0.454378f, -0.140270f, -0.281489f, 0.272549f, 0.447669f, 0.042031f, 0.199383f, 0.530613f, 0.133657f, -0.118857f, -0.020231f, -0.169767f, -0.279853f, -0.085958f, 0.140975f, 0.406315f, 0.355950f, 0.239681f, 0.487192f, -0.176352f, -0.095900f, -0.145591f, 0.023909f, 0.167542f, 0.233613f, 0.110754f, -0.126575f, -0.270315f, 0.088332f, 0.191268f, 0.021538f, 0.234467f, -0.050424f, 0.055133f, 0.220408f, -0.092758f, 0.122105f, 0.517030f, -0.089991f, 0.695591f, 0.213676f, -0.223890f, -0.431869f, -0.076234f, 0.351524f, -0.060840f, 0.131056f, 0.376935f, -0.060118f, -0.056538f, -0.706670f, 0.396305f, -0.272971f, -0.525286f, 0.203705f, 0.224349f, -0.315777f, -0.310889f, 1.154151f, -0.187575f, 0.602886f, -0.617328f, 0.846270f, 0.261986f, -0.230886f, 0.301921f, 0.151538f, -0.005811f, -0.509383f, -0.215099f, 0.119120f, -0.043822f, 0.116602f, 0.292156f, -0.130962f, -0.199874f, 0.126927f, 0.230472f, -0.002246f, 0.028695f, 0.209959f, 0.546676f, -0.212672f, 0.000555f, 0.298889f, 0.272602f, -0.166196f, -0.184912f, -0.286936f, 0.251264f, -0.076542f, -0.479296f, 0.199718f, -0.442126f, -0.081679f, -0.046826f, -0.212662f, 0.304646f, 0.039452f, 0.395775f, -0.301729f, 0.208165f, 0.279260f, 0.281691f, -0.236829f, -0.034509f, 0.430402f, -0.597379f, 0.321797f, -0.337748f, -0.147198f, -0.215182f, -0.019402f, 0.429711f, 0.300871f, 0.002671f, 0.068035f, -0.234263f, -0.174137f, 0.089061f, 0.056937f, 0.194515f, -0.366163f, -0.194996f, 0.068203f, 0.273194f, -0.252129f, -0.064703f, 0.274280f, 0.422345f, -0.331423f, 0.207625f, 0.064545f, -0.062435f, 0.032935f, 0.003994f, -0.113093f, -0.027334f, -0.385851f, -0.024592f, 0.361062f, 0.111711f, -0.258632f, -0.295461f, 0.292558f, -0.260975f, 0.069446f, 0.187524f, 0.193971f, 0.104802f, 0.271729f, -0.111716f, 0.356692f, 0.067681f, 0.224970f, 0.758185f, -0.084220f, -0.422896f, 0.098345f, -0.175555f, 0.167834f, 0.069476f, -0.253280f, -0.350955f, 0.074157f, 0.114475f, 0.151678f, 0.376328f, -0.035817f, 0.446348f, -0.178852f, 0.076699f, 0.029773f, -0.225602f, 0.041334f, -0.076502f, 0.258599f, 0.246984f, -0.218544f, -0.003521f, -0.047341f, 0.226311f, 0.315550f, -0.094220f, 0.347758f, 0.358088f, 0.465982f, 0.243164f, -0.282275f, -0.398318f, -0.159187f, 0.106049f, -0.106016f, -0.018061f, -0.684718f, 0.472414f, 0.347976f, 0.098814f, 0.495182f, 0.157791f, 0.534307f, -0.069469f, -0.222497f, 0.476437f, -0.327152f, -0.561693f, -0.268164f, 0.363673f, -0.515077f, 0.286393f, -0.359189f, 0.131247f, -0.088055f, 0.792702f, -0.222199f, -0.786319f, 0.586953f, 0.338078f, 0.118317f, 0.860266f, -0.072286f, -0.392057f, 0.292242f, -0.341102f, -0.524737f, 0.173118f, 0.315700f, 0.169421f, 0.347793f, 0.102036f, 0.026365f, 0.200949f, -0.033544f, -0.090972f, -0.278882f, 0.553820f, -0.073947f, -0.459373f, -0.320079f, 0.301449f, -0.080701f, 0.116046f, -0.055565f, -0.208985f, 0.523040f, 0.232195f, -0.316476f, 0.443279f, 0.131066f, 0.149033f, -0.892739f, 0.599777f, -0.010022f, -0.597984f, -0.017479f, 0.352970f, -0.353749f, -0.545951f, 0.154179f, -0.138248f, 0.484929f, -0.163032f, 0.025859f, -0.211163f, 0.323221f, 0.053360f, -0.897408f, 0.081910f, 0.064719f, -0.059204f, 0.053327f, 0.590051f, 0.019915f, -0.005669f, 0.040453f, 0.139938f, -0.013249f, -0.282028f, 0.122357f, 0.818165f, -0.042343f, -0.307283f, -0.717424f, 0.507788f, -0.334581f, -0.107191f, -0.190208f, 0.973405f, -0.126076f, -0.322847f, -0.604418f, 0.024406f, 0.030017f, -0.210449f, -0.576668f, 0.264443f, -0.261613f, -0.202009f, -0.116482f, -0.219009f, -0.310978f, -0.343772f, 0.248136f, 0.540470f, -0.183327f, -0.151566f, 0.363866f, -0.111457f, 0.095732f, -0.196123f, -0.426360f, 0.469798f, -0.179670f, -0.187214f, -0.061190f, -0.211233f, 0.046365f, -0.295361f, -0.080809f, 0.011691f, 0.046029f, 0.024354f, -0.176585f, 0.171165f, -0.173612f, 0.266390f, 0.179359f, 0.112227f, 0.012370f, 0.155571f, -0.096153f, -0.244680f, -0.118322f, -0.188502f, -0.156450f, 0.043272f, -0.509080f, -0.320317f, 0.028227f, 0.179194f, -0.185496f, 0.358767f, -0.115090f, 0.420746f, 0.324450f, -0.024596f, 0.047188f, 0.014916f, -0.221171f, -0.365842f, -0.032699f, -0.185652f, 0.012293f, -0.009141f, -0.420470f, -0.039037f, -0.032463f, -0.054468f, 0.084542f, 0.069178f, 0.171575f, 0.126417f, 0.632998f, 0.174224f, -0.000670f, -0.086615f, 0.634451f, -0.110012f, 0.151866f, 0.216445f, 0.191999f, -0.400002f, -0.692638f, -0.151539f, -0.296689f, -0.024370f, 0.257794f, 0.064822f, 0.196089f, -0.263374f, -0.247299f, -0.387120f, 0.359330f, 0.207292f, 0.038149f, 0.091999f, 0.077141f, -0.067150f, -0.089467f, -0.153500f, 0.021627f, 0.058850f, 0.034538f, 0.193109f, 0.251630f, -0.328453f, 0.275963f, -0.169136f, -0.174945f, 0.180235f, -0.322885f, -0.058892f, -0.044969f, 0.250074f, 0.316368f, -0.493911f, 0.282978f, 0.256535f, -0.026803f, 0.347574f, -0.336470f, -0.012446f, 0.171977f, -0.356451f, -0.103878f, -0.065834f, 0.299489f, 0.163733f, -0.183851f, -0.062386f, 0.209945f, 0.409181f, 0.290595f, 0.278113f, -0.278352f, -0.186328f, 0.070720f, -0.181190f, 0.575473f, -0.124440f, 0.287354f, -0.149733f, 0.157940f, 0.356976f, 0.104946f, -0.259487f, -0.269852f, 0.245569f, 0.443768f, 0.178385f, 0.483272f, 0.302668f, 0.013354f, 0.076319f, -0.036826f, -0.239758f, -0.081763f, -0.022584f, 0.159135f, 0.450678f, -0.170369f, 0.584575f, 0.245631f, 0.120124f, 0.037010f, 0.388210f, 0.345018f, 0.439240f, 0.078100f, -0.144753f, -0.152792f, 0.308305f, 0.306114f, 0.107007f, 0.307006f, -0.182612f, -0.056241f, -0.120836f, -0.089277f, 0.391838f, 0.688649f, 0.453563f, 0.292945f, -0.056577f, -0.213121f, 0.079390f, 0.081043f, 0.201127f, -0.114058f, -0.111356f, 0.485120f, -0.835050f, -0.025085f, -0.463954f, -0.029110f, 0.156318f, -0.011073f, 0.045613f, -0.031778f, -0.222499f, -0.192510f, 0.062852f, -0.585176f, 0.033701f, 0.401168f, -0.174703f, -0.119568f, -0.184230f, 0.001590f, -0.360102f, -0.448682f, 0.452158f, -0.645997f, 0.384900f, -0.128812f, -0.000162f, 0.298198f, 0.086711f, 0.160667f, -0.059569f, 0.004129f, 0.095219f, 0.103808f, -0.206597f, 0.058132f, 0.043322f, 0.779616f, 0.451989f, 0.171772f, 0.314673f, -0.276738f, -0.023090f, 0.153063f, 0.038563f, -0.107585f, 0.142425f, -0.021495f, -0.074726f, -0.320839f, 0.555055f, -0.188651f, 0.616543f, 0.586050f, -0.286191f, -0.070521f, -0.364567f, -0.098869f, 0.318551f, 0.532694f, 0.258385f, 0.314016f, -0.019987f, -0.698391f, -0.086296f, -0.136239f, 0.298988f, 0.280361f, 0.192707f, 0.226430f, 0.248133f, 0.143405f, 0.177994f, 0.124445f, -0.199735f, -0.256656f, -0.266793f, 0.582341f, -0.708521f, -0.391753f, 0.531427f, -0.333520f, -0.281454f, -0.236243f, 0.012412f, 0.433566f, -0.370071f, -0.120586f, -0.009652f, 0.221589f, 0.088060f, -0.147489f, 0.503329f, -0.238532f, -0.146285f, 0.096543f, 0.798698f, 0.035302f, -0.349831f, 0.302055f, -0.068128f, 0.160687f, 0.277419f, 0.088148f, 0.349186f, -0.292203f, 0.100915f, 0.115978f, 0.159799f, 0.103672f, -0.430759f, 0.120469f, 0.341253f, -0.151504f, -0.517036f, 0.335382f, 0.232967f, 0.092907f, -0.338336f, 0.069536f, 0.458669f, 0.076374f, -0.011692f, 0.193888f, -0.010470f, 0.183692f, -0.528248f, -0.386000f, -0.282456f, -0.287917f, 0.228847f, -0.145993f, 0.061070f, 0.078616f, -0.258913f, 0.088935f, -0.252312f, 0.088895f, 0.041471f, 0.306845f, -0.105909f, 0.326648f, -0.027487f, 0.002290f, -0.373991f, 0.013015f, 0.083474f, -0.133678f, 0.292562f, 0.195854f, -0.073759f, 0.308193f, 0.478569f, 0.077520f, 0.153996f, 0.135031f, -0.302528f, -0.142585f, -0.104608f, -0.098373f, 0.010810f, 0.011058f, -0.531882f, -0.064645f, 0.258611f, 0.157324f, -0.143671f, -0.277352f, 0.501709f, -0.121905f, -0.515239f, -0.108507f, 0.145908f, -0.337671f, -0.173730f, 0.067070f, 0.256321f, -0.379143f, 0.230785f, 0.206811f, -0.051539f, 0.009622f, -0.457004f, -0.040038f, -0.043959f, 0.315929f, 0.270994f, 0.343301f, -0.407622f, -0.172533f, -0.196374f, -0.125082f, 0.215143f, -0.244940f, -0.083855f, -0.094822f, -0.355155f, -0.281098f, -0.149899f, -0.258682f, 0.130573f, -0.073354f, 0.120563f, 0.554062f, 0.207028f, 0.042195f, -0.123066f, 0.879398f, -0.142651f, 0.126253f, 0.067458f, -0.333006f, 0.215374f, -0.152619f, 0.070746f, 0.353602f, 0.094551f, -0.206688f, -0.063136f, -0.053217f, -0.243284f, 0.623998f, -0.136355f, -0.057052f, 0.284112f, -0.338943f, 0.073493f, 0.194229f, 0.038489f, -0.178944f, 0.111764f, -0.077831f, 0.177023f, 0.373470f, 0.363576f, 0.068364f, 0.047010f, 0.457663f, -0.180563f, -0.136520f, -0.370003f, 0.156897f, 0.236972f, -0.141045f, -0.000656f, -0.017735f, -0.024562f, 0.228264f, 0.239083f, 0.109911f, 0.145582f, 0.247993f, -0.265772f, -0.029330f, -0.158607f, -0.009227f, 0.223207f, 0.248614f, 0.589462f, -0.146970f, 0.174822f, -0.128457f, -0.256709f, -0.061023f, 0.318824f, -0.087990f, 0.143592f, -0.097863f, -0.374831f, 0.267815f, -0.142690f, 0.361678f, 0.194279f, 0.095560f, 0.664605f, 0.133297f, -0.121473f, -0.366100f, 0.101556f, 0.245660f, 0.560306f, -0.142998f, -0.203090f, 0.000728f, -0.155560f, 0.269260f, -0.085684f, 0.355390f, -0.190780f, 0.368262f, -0.222572f, -0.148726f, 0.128841f, 0.124107f, 0.035860f, 0.052328f, 0.329881f, 0.106428f, -0.242788f, 0.122375f, 0.058769f, -0.299236f, -0.365204f, -0.017471f, -0.149996f, 0.269158f, -0.986242f, -0.255675f, 0.296602f, -0.304679f, 0.128641f, 0.403628f, 0.615096f, 0.106082f, -0.138044f, 0.125935f, 0.126386f, -0.170916f, -0.709588f, -0.139757f, -0.273279f, 0.230201f, -0.419757f, -0.053717f, -0.019227f, -0.479180f, 0.309954f, -0.071125f, 0.121324f, 0.270914f, 0.371500f, 0.016890f, 0.020003f, -0.328196f, 0.032067f, -0.301186f, -0.434863f, 0.339009f, -0.198513f, 0.155101f, 0.045086f, 0.117481f, -0.457198f, 0.212436f, -0.137264f, -0.417872f, -0.085096f, -0.102871f, 0.087979f, 0.056850f, 0.072691f, 0.276985f, -0.127784f, 0.281690f, -0.090098f, -0.790415f, 0.098932f, -0.031663f, 0.331737f, -0.331659f, 0.424540f, 0.176907f, 0.266634f, -0.384604f, 0.280379f, 0.107652f, -0.796559f, -0.383031f, -0.810779f, 0.351018f, -0.309680f, -0.037975f, 0.555812f, -0.207185f, 0.239075f, 0.046393f, 0.173615f, 0.109603f, 0.133381f, 0.019005f, -0.200877f, -0.142661f, -0.551126f, -0.247726f, -0.053880f, -0.133225f, 0.141078f, -0.201430f, 0.237912f, -0.079610f, 0.250582f, 0.340198f, -0.059722f, 0.360989f, -0.132130f, -0.607738f, -0.405352f, 0.128844f, -0.536324f, -0.221108f, 0.315061f, 0.484091f, -0.039661f, 0.131340f, -0.025942f, -0.162892f, -0.092101f, -0.189709f, -0.256103f, 0.070246f, 0.616371f, -0.240645f, 0.238018f, 0.107352f, -0.111327f, -0.382657f, -0.044257f, 0.707924f, -0.000577f, -0.186942f, 0.227255f, 0.417577f, -0.098069f, 0.481754f, -0.133880f, 0.446944f, 0.240415f, 0.080887f, -0.036465f, -0.141594f, -0.279261f, -0.467038f, -0.124142f, -0.535522f, -0.136319f, -0.168127f, 0.147141f, 0.319292f, 0.084078f, 0.094477f, -0.457561f, 0.016626f, 0.532193f, 0.476857f, 0.220965f, -0.229509f, -0.325989f, -0.471624f, -0.262572f, 0.002693f, 0.329275f, 0.639410f, -0.000646f, 0.605729f, 0.444632f, -0.192007f, 0.139386f, 0.376583f, -0.111779f, -0.185879f, 0.880235f, -0.183010f, 0.117750f, 0.271381f, -0.229119f, -0.181881f, 0.297134f, 0.201102f, -0.156465f, 0.096156f, -0.139636f, 0.206585f, -0.118602f, 0.410218f, 0.679856f, 0.100318f, 0.119628f, -0.058728f, 0.273561f, -0.295062f, -0.296807f, -0.195478f, -0.287186f, -0.182284f, -0.131719f, -0.193191f, -0.336573f, 0.002573f, -0.261006f, -0.059172f, -0.147041f, -0.015487f, -0.097301f, -0.095061f, -0.207357f, -0.104729f, -0.347702f, 0.280354f, 0.289027f, -0.095090f, 0.480535f, -0.213365f, 0.142397f, -0.002690f, 0.447517f, 0.399000f, 0.191016f, 0.907946f, -0.111076f, -0.501355f, -0.203226f, 0.539900f, 0.069450f, -0.479050f, 0.246268f, 0.275561f, 0.029154f, 0.505920f, -0.540740f, 0.478738f, 0.318627f, 0.563678f, 0.527206f, 0.609736f, 0.331407f, -0.083527f, 0.142701f, 0.752305f, 0.231948f, 0.057835f, 0.231046f, 0.091997f, -0.186324f, -0.524025f, 0.006101f, 0.183412f, -0.161346f, 0.236329f, 0.221933f, 0.089214f, -0.327521f, 0.097592f, 0.059786f, -0.136685f, -0.295373f, 0.150375f, 0.406534f, -0.288619f, 0.319876f, -0.365666f, 0.017640f, -0.193674f, -0.165695f, -0.039049f, -0.088204f, 0.097351f, -0.069586f, 0.205107f, -0.204424f, -0.149019f, 0.315783f, -0.400320f, 0.058084f, 0.020133f, -0.140101f, 0.016002f, 0.003479f, -0.191057f, 0.373929f, 0.247726f, 0.262025f, -0.226489f, -0.623547f, -0.248212f, -0.326532f, -0.443290f, 0.059709f, -0.331925f, 0.325336f, 0.092046f, 0.181138f, 0.363132f, -0.289089f, 0.293740f, 0.226651f, 0.095217f, 0.003318f, 0.184596f, -0.053561f, 0.196674f, 0.073284f, 0.105675f, 0.051626f, -0.156776f, -0.634982f, -0.523217f, -0.398825f, -0.151541f, 0.256937f, 0.887013f, 0.321147f, 0.167203f, -0.089856f, -0.312592f, 0.515258f, -0.132783f, 0.100123f, 0.173573f, -0.107968f, 0.501970f, -0.771341f, 0.361857f, -0.072215f, -0.210921f, 0.404188f, -0.004019f, 0.301521f, -0.255660f, -0.522644f, 0.307418f, 0.412002f, 0.624838f, -0.805010f, 0.192814f, -0.042338f, 0.012709f, -0.834461f, -0.312390f, -0.144538f, 0.400854f, -0.042392f, 0.155087f, 0.527252f, 0.119992f, 0.198010f, -0.184920f, -0.184710f, 0.243763f, 0.058095f, -0.633639f, 0.079458f, -0.230677f, 0.016240f, 0.055077f, -0.017952f, 0.180117f, 0.142245f, -0.023268f, 0.297976f, -0.403660f, 0.243604f, -0.229862f, 0.151263f, 0.127957f, -0.281366f, -0.073865f, 0.441801f, 0.086192f, -0.161561f, -0.444848f, -0.014076f, 0.086769f, 0.376977f, 0.352825f, -0.015322f, 0.330319f, -0.498254f, -0.005823f, 0.229373f, 0.161289f, -0.268261f, -0.082604f, 0.278815f, -0.087644f, -0.234306f, -0.688009f, 0.376195f, 0.191705f, 0.262755f, 0.221321f, 0.164388f, -0.366403f, 0.041937f, 0.378521f, -0.046011f, 0.478701f, 0.059401f, -0.539731f, 0.168897f, 0.057840f, -0.023432f, -0.197646f, 0.437679f, 0.005492f, -0.042715f, -0.049151f, 0.263380f, -0.028797f, -0.106066f, 0.394977f, -0.460780f, 0.244739f, -0.266975f, 0.016041f, 0.611777f, 0.126037f, -0.163717f, -0.047972f, 0.330106f, -0.072380f, 0.385225f, -0.071078f, 0.134872f, 0.544606f, -0.383657f, -0.130940f, 0.210712f, -0.140436f, -0.169264f, -0.400875f, 0.189173f, 0.180395f, 0.019817f, 0.668458f, 0.337039f, -0.079478f, -0.470650f, -0.190041f, 0.395756f, 0.109438f, 0.115048f, -0.311105f, 0.434026f, -0.057931f, 0.398981f, 0.347726f, 0.005220f, -0.328090f, -0.606416f, 0.554065f, -0.034597f, 0.221982f, 0.266927f, 0.188098f, -0.025436f, 0.056576f, -0.207895f, 0.123370f, 0.038372f, -0.420254f, -0.049460f, 0.051474f, 0.083532f, -0.153524f, -0.605504f, 0.108572f, -0.346419f, -0.356520f, -0.075906f, -0.434846f, -0.197720f, 0.268945f, 0.035306f, -0.174211f, 0.408866f, -0.122021f, 0.217552f, -0.491365f, -0.072329f, 0.048983f, 0.068792f, -0.753908f, -0.138685f, -0.155396f, 0.346433f, 0.577141f, -0.072256f, 0.063638f, -0.026568f, -0.072554f, -0.004746f, 0.173502f, 0.186085f, 0.167735f, -0.136079f, -0.057476f, -0.326373f, 0.447368f, 0.083118f, -0.056037f, -0.168508f, 0.081782f, -0.086735f, 0.410379f, -0.042173f, 0.237182f, 0.115218f, -0.156693f, -0.154324f, -0.230474f, -0.167588f, -0.047810f, 0.213234f, 0.265242f, 0.061516f, 0.208970f, -0.107234f, 0.040591f, -0.039428f, -0.081869f, 0.351965f, 0.425198f, 0.271810f, -0.213595f, -0.083190f, 0.290967f, -0.448308f, -0.645192f, 0.290326f, -0.137482f, 0.399963f, 0.190849f, 0.245657f, -0.064435f, 0.101234f, 0.291757f, 0.201850f, 0.245954f, -0.343109f, -0.360666f, 0.076799f, -0.023543f, -0.220634f, -0.251471f, 0.369007f, 0.013005f, 0.214432f, -0.125910f, 0.279863f, -0.056623f, -0.427407f, 0.109460f, 0.123657f, 0.459977f, -0.201346f, -0.185000f, -0.104810f, -0.024280f, -0.232785f, -0.227437f, -0.048418f, 0.048929f, 0.284958f, -0.547590f, 0.004157f, -0.008638f, 0.238051f, 0.177285f, 0.183548f, -0.018751f, 0.064854f, 0.074529f, 0.211260f, -0.330092f, -0.245964f, -0.068708f, 0.072334f, -0.302953f, 0.079843f, 0.077551f, -0.381037f, -0.427148f, -0.130689f, -0.118015f, -0.366063f, 0.272674f, -0.419599f, 0.063804f, -0.228198f, 0.002088f, -0.317358f, -0.116469f, -0.239768f, -0.204062f, 0.063129f, -0.008340f, -0.221686f, 0.372667f, 0.140264f, -0.420902f, -0.287037f, -0.295543f, 0.042399f, 0.436851f, -0.103457f, -0.178018f, 0.347308f, -0.024412f, -0.156853f, -0.039813f, -0.118746f, 0.371611f, 0.066189f, 0.049145f, 0.118987f, 0.157387f, 0.196803f, 0.324571f, 0.021903f, -0.299168f, -0.430010f, 0.095176f, -0.192166f, -0.013478f, -0.952817f, 0.267102f, -0.234359f, -0.158304f, -0.252039f, 0.344160f, 0.350764f, 0.218522f, 0.076377f, -0.173661f, 0.450348f, 0.386166f, -0.135675f, -0.163374f, 0.030931f, 0.109808f, -0.456124f, -0.215424f, -0.412446f, 0.229989f, 0.066509f, 0.040502f, 0.407242f, -0.575672f, -0.152978f, 0.230351f, -0.385414f, 0.048136f, -0.230749f, -0.222140f, 0.112487f, 0.221897f, -0.268934f, -0.246159f, -0.049341f, -0.320690f, -0.334071f, -0.225518f, -0.451285f, -0.099380f, 0.312345f, 0.087177f, 0.228255f, 0.009493f, -0.059369f, 0.247849f, -0.179045f, 0.118819f, 0.291159f, 0.304146f, 0.003437f, 0.035139f, -0.077741f, -0.050961f, 0.105336f, -0.123245f, -0.140419f, 0.398129f, -0.406183f, -0.247682f, 0.090065f, 0.051755f, -0.614109f, -0.190545f, -0.078067f, -0.419126f, -0.064443f, -0.161278f, -0.039920f, -0.404475f, 0.464530f, -0.219882f, -0.084489f, 0.226802f, 0.046848f, 0.112575f, 0.316385f, 0.059747f, -0.279761f, 0.266767f, 0.021305f, -0.334669f, 0.584808f, 0.151162f, -0.527424f, -0.266046f, -0.241906f, 0.014259f, -0.015849f, 0.608419f, -0.015218f, 0.182315f, 0.562354f, 0.081916f, -0.542851f, -0.021454f, 0.056865f, 0.225587f, 0.369585f, -0.195196f, 0.034910f, -0.439444f, 0.211256f, 0.587464f, -0.518965f, 0.577670f, -0.050334f, 0.133523f, 0.105081f, 0.021735f, -0.312851f, -0.136905f, 0.112465f, -0.311947f, 0.255387f, 0.213801f, 0.701070f, 0.017811f, 0.500189f, 0.173404f, -0.162667f, 0.366007f, 0.207161f, 0.468925f, 0.530144f, -0.264161f, 0.209483f, -0.140306f, 0.352172f, 0.019436f, 0.029296f, -0.045467f, 0.170981f, 0.043502f, -0.237075f, 0.283510f, 0.208371f, 0.050958f, -0.097874f, 0.439047f, 0.198729f, 0.313338f, 0.243109f, -0.087236f, -0.284164f, -0.278255f, 0.047881f, 0.095136f, 0.384207f, 0.175361f, 0.359589f, 0.435734f, 0.039758f, 0.467136f, 0.217092f, 0.339598f, 0.209067f, 0.354202f, 0.534762f, -0.108255f, -0.163036f, 0.118680f, -0.166600f, -0.186862f, -0.019474f, 0.242898f, -0.131850f, 0.139884f, -0.358946f, 0.135372f, 0.240705f, 0.020492f, -0.797736f, -0.132287f, 0.040630f, -0.415193f, -0.023950f, 0.087606f, -0.462630f, 0.057768f, 0.049612f, -0.115817f, 0.073779f, -0.160331f, -0.016181f, 0.148611f, 0.352787f, -0.243457f, -0.308278f, 0.260049f, 0.429907f, -0.369828f, 0.273584f, 0.264400f, -0.110085f, -0.360828f, 0.006796f, -0.375195f, 0.159559f, 0.461900f, 0.040102f, 0.259847f, 0.379645f, 0.036295f, -0.311683f, 0.215763f, 0.084869f, -0.429139f, -0.002641f, 0.202023f, 0.460599f, 0.259539f, 0.111184f, 0.232630f, -0.260149f, 0.221337f, 0.059877f, 0.213974f, 0.301899f, -0.233819f, -0.218700f, -0.095330f, 0.329835f, 0.101055f, 0.407139f, 0.443281f, 0.838055f, -0.066235f, -0.188244f, -0.026913f, 0.056174f, 0.219115f, -0.363055f, 0.094065f, -0.060905f, -0.003900f, -0.574396f, -0.484049f, -0.273014f, 0.214107f, 0.055978f, 0.027844f, 0.532127f, -0.086593f, -0.053579f, -0.113445f, 0.240202f, 0.418728f, 0.198230f, 0.317437f, -0.123932f, -0.358174f, -0.017872f, 0.112042f, -0.343796f, -0.670507f, 0.105226f, -0.094113f, -0.151010f, -0.234016f, -0.088791f, 0.348679f, -0.039283f, 0.153136f, 0.335421f, 0.442533f, -0.418705f, -0.047000f, -0.423571f, -0.114594f, -0.289959f, -0.169462f, -0.256025f, 0.057642f, -0.421049f, 0.518348f, 0.179603f, 0.283804f, 0.046349f, -0.313776f, 0.312309f, -0.103744f, 0.119023f, -0.124029f, -0.082195f, 0.095627f, 0.027629f, -0.476820f, -0.191900f, 0.171561f, -0.224594f, -0.626708f, 0.088685f, 0.128152f, 0.290953f, 0.201791f, -0.124953f, -0.004961f, -0.235050f, 0.026651f, -0.016931f, -0.129839f, -0.308352f, 0.062685f, -0.406469f, -0.206932f, -0.770340f, -0.236438f, 0.366031f, 0.177188f, 0.491597f, 0.080565f, 0.353580f, -0.030944f, 0.130599f, 0.301226f, -0.045158f, -0.061754f, -0.081787f, 0.301724f, 0.020072f, 0.008916f, 0.012209f, -0.197893f, -0.072722f, -0.295007f, 0.293460f, -0.334430f, -0.174052f, -0.052266f, -0.060124f, 0.126242f, 0.022502f, -0.092979f, -0.091736f, -0.059008f, 0.050518f, 0.069824f, -0.216209f, -0.203138f, -0.671175f, -0.180716f, -0.007340f, 0.118102f, 0.513146f, -0.029590f, 0.107090f, 0.004430f, -0.227085f, -0.323621f, -0.165062f, -0.325387f, 0.091797f, -0.185375f, 0.310509f, 0.109182f, 0.500407f, -0.150492f, 0.616497f, 0.180452f, 0.161932f, 0.551225f, -0.022927f, 0.375264f, -0.225733f, -0.184969f, 0.009171f, 0.022361f, 0.214818f, 0.051322f, 0.349194f, -0.031607f, 0.104055f, -0.155083f, -0.428272f, 0.046214f, -0.483905f, -0.066213f, 0.083808f, 0.322291f, 0.134286f, -0.139357f, 0.053153f, -0.097806f, -0.495860f, -0.606979f, 0.262168f, 0.131114f, 0.241255f, -0.036893f, -0.084065f, -0.186072f, 0.097030f, -0.003245f, 0.423476f, 0.658871f, 0.055429f, -0.330839f, -0.001890f, -0.011459f, 0.073991f, -0.393514f, 0.318045f, 0.200568f, -0.126000f, -0.320487f, -0.661784f, -0.074543f, -0.330229f, -0.054403f, 0.184914f, 0.072727f, -0.443059f, -0.519751f, -0.292655f, 0.301024f, -0.086310f, -0.354272f, 0.239169f, 0.444483f, 0.033198f, -0.390169f, 0.460266f, -0.149613f, -0.336721f, 0.049531f, 0.345767f, 0.183207f, -0.478607f, -0.848620f, 0.244253f, -0.206737f, 0.314308f, -0.310385f, 0.141147f, -0.502440f, 0.977621f, 0.068325f, 0.202618f, 0.232447f, -0.177461f, 0.428369f, -0.348880f, 0.225099f, 0.410018f, 0.081861f, 0.077945f, 0.081846f, 0.054895f, 0.024181f, -0.166073f, -0.246136f, 0.033854f, 0.050163f, 0.554384f, 0.345627f, 0.169064f, -0.053656f, 0.014324f, -0.210346f, -0.217035f, 0.256271f, -0.230344f, 0.422265f, -0.256307f, 0.274559f, -0.468549f, 0.151052f, 0.256333f, -0.201381f, 0.064490f, 0.278412f, 0.120585f, 0.392073f, 0.197051f, -0.106695f, 0.311374f, 0.243304f, 0.099110f, 0.255878f, -0.502109f, 0.477694f, -0.030553f, 0.099782f, 0.002812f, -0.069150f, -0.420009f, -0.266790f, 0.056669f, 0.004871f, 0.621194f, 0.316413f, -0.296208f, 0.401422f, -0.063675f, -0.413693f, -0.180137f, -0.304702f, -0.061706f, -0.025554f, 0.363655f, -0.117154f, -0.363436f, 0.138748f, -0.083876f, -0.253051f, 0.311559f, -0.433553f, -0.203762f, -0.087944f, 0.016818f, -0.048519f, 0.088374f, 0.220454f, -0.139251f, 0.458179f, -0.007802f, -0.191504f, -0.160162f, 0.087935f, -0.379925f, 0.206489f, 0.398340f, 0.032240f, -0.197262f, 0.247695f, 0.196704f, -0.102911f, 0.111228f, 0.280750f, 0.120962f, 0.079993f, 0.356809f, -0.104225f, 0.083214f, 0.354774f, 0.144475f, 0.469595f, 0.398423f, -0.008810f, -0.021049f, 0.608314f, 0.196949f, -0.636826f, -0.181196f, -0.147626f, 0.163802f, -0.002479f, 0.594715f, 0.347657f, 0.177700f, -0.048734f, 0.183988f, 0.162325f, -0.335888f, -0.292180f, -0.158510f, -0.576680f, 0.031175f, -0.891690f, -0.062142f, 0.417317f, 0.404344f, -0.288810f, 0.464446f, -0.559991f, -0.428183f, 0.121585f, -0.014784f, 0.495802f, -0.026695f, -1.075265f, 0.179687f, 0.187681f, 0.219736f, -0.215616f, 0.464017f, 0.347938f, -0.617987f, -0.656302f, 0.233866f, 0.062561f, 0.034356f, 0.264894f, 0.101295f, -0.332578f, 0.047041f, -0.104939f, 0.328755f, -0.454128f, 0.524780f, -0.222538f, -0.316543f, -0.556466f, -0.096327f, 0.588937f, -0.152982f, -0.114504f, 0.243631f, 0.030622f, 0.449092f, 0.638119f, -0.384830f, -0.076650f, -0.255675f, 0.213387f, 0.104714f, -0.015785f, -0.200190f, 0.099108f, 0.042024f, 0.138732f, 0.167064f, 0.166781f, 0.297148f, 0.059924f, 0.173915f, 0.259904f, 0.488548f, 0.350626f, -0.270702f, -0.052686f, 0.023619f, -0.197651f, -0.188684f, 0.009048f, -0.083177f, -0.205405f, -0.011145f, 0.019846f, 0.018508f, -0.038989f, -0.276310f, -0.319258f, 0.313803f, 0.400050f, 0.118235f, 0.088214f, 0.451919f, -0.049607f, -0.184547f, -0.154279f, 0.270512f, 0.252375f, 0.397028f, 0.330626f, -0.269638f, 0.323898f, -0.094968f, 0.298082f, 0.207479f, 0.266921f, -0.025785f, -0.068205f, -0.056412f, -0.012074f, -0.089785f, 0.234777f, 0.157030f, 0.229010f, 0.410664f, -0.043333f, -0.246120f, 0.225908f, -0.165913f, -0.127331f, 0.412017f, -0.091747f, -0.032712f, 0.211943f, 0.201648f, 0.205614f, -0.295759f, -0.003619f, -0.104986f, -0.036144f, -0.178571f, 0.804553f, -0.100040f, -0.151969f, -0.179774f, 0.346869f, 0.701440f, 0.117396f, -0.160904f, 0.459757f, -0.432458f, 0.342691f, -0.051279f, 0.183191f, -0.273796f, 0.752169f, -0.196859f, 0.015235f, -0.479485f, -0.367196f, -0.052826f, -0.263905f, 0.163790f, 0.296574f, 0.575511f, 0.040513f, 0.160031f, -0.167075f, -0.573295f, -0.507531f, 0.306586f, -0.206027f, -0.315738f, 0.052674f, 0.333219f, 0.081343f, 0.058211f, -0.293505f, 0.147246f, 0.025764f, -0.819695f, -0.392773f, -0.017949f, -0.153846f, -0.462918f, -0.149821f, -0.187881f, 0.105656f, 0.178262f, 0.143499f, -0.504226f, -0.566429f, 0.270529f, 0.255846f, 0.508443f, 0.537291f, -0.184810f, -0.069604f, 0.113750f, -0.698994f, -0.296957f, -0.103509f, -0.129969f, 0.283598f, 0.173182f, 0.625965f, -0.133615f, -0.048016f, -0.171593f, -0.011604f, -0.253599f, 0.886769f, -0.354217f, -0.213654f, -0.103768f, -0.573610f, 0.200842f, -0.524911f, -0.120939f, 0.091548f, 0.425868f, -0.390483f, 0.078289f, 0.175428f, 0.381858f, 0.421447f, -0.327204f, 0.214765f, 0.663986f, 0.188970f, 0.323595f, -0.099951f, -0.716579f, -0.117651f, 0.295237f, -0.588426f, 0.323976f, 0.177538f, -0.366043f, -0.226089f, 0.318590f, 0.217785f, 0.569956f, -0.466236f, 0.344170f, 0.558585f, 0.546971f, -0.040141f, -0.222899f, 0.278575f, -0.318270f, -0.275745f, -0.344821f, -0.031122f, -0.300213f, 0.588906f, -0.048413f, 0.291554f, 0.083681f, 0.310583f, 0.628601f, 0.313646f, -0.052267f, -0.454361f, 0.182554f, -0.237272f, -0.320510f, -0.011827f, -0.026031f, -0.391899f, 0.303279f, 0.816644f, -0.054906f, 0.490670f, 0.257925f, -0.050560f, 0.346106f, -0.184664f, 0.019665f, -0.030560f, -0.083702f, 0.177216f, -0.209065f, -0.213332f, 0.354050f, -0.227482f, -0.394906f, 0.619035f, -0.220707f, 0.615373f, -0.187761f, -0.149601f, 0.696936f, 0.004703f, -0.118447f, -0.033472f, -0.175829f, -0.272911f, -0.195617f, 0.319009f, 0.613416f, 0.081043f, 0.394055f, 0.206464f, 0.327326f, 0.188929f, 0.381409f, 0.686550f, -0.033698f, 0.112405f, -0.014638f, -0.586161f, -0.157915f, 0.369847f, -0.008471f, -0.071641f, -0.016855f, -0.205714f, -0.609912f, -0.003412f, 0.006181f, 0.162267f, 0.334771f, -0.173169f, 0.100247f, 0.012684f, 0.003156f, -0.109348f, -0.211027f, -0.117592f, 0.045817f, -0.041547f, -0.105907f, -0.279764f, -0.326875f, -0.234372f, 0.074199f, -0.354541f, 0.181804f, -0.088118f, 0.122857f, -0.214802f, -0.099696f, -0.204942f, 0.693857f, 0.196175f, 0.318829f, 0.026572f, -0.016517f, -0.028812f, -0.150175f, 0.292931f, -0.022694f, -0.103202f, -0.062047f, -0.091040f, 0.344502f, 0.026522f, 0.448079f, -0.481130f, -0.405221f, -0.211472f, 0.050459f, -0.103102f, 0.782624f, -0.099706f, 0.018934f, 0.416368f, 0.370937f, 0.110506f, 0.102041f, -0.360449f, 0.506678f, -0.152212f, -0.389760f, -0.015908f, 0.717545f, 0.324053f, 0.046293f, 0.210141f, 0.052079f, -0.075011f, -0.103272f, 0.083845f, 0.462336f, -0.050572f, -0.121223f, 0.131749f, 0.332405f, -0.129933f, -0.317426f, 0.158644f, 0.264762f, 0.092177f, 0.223295f, 0.228915f, -0.047017f, 0.017394f, -0.043307f, 0.346106f, 0.429269f, 0.181322f, -0.366008f, -0.329461f, 0.460956f, 0.053340f, 0.180092f, -0.136096f, 0.237766f, 0.052048f, -0.100995f, -0.176795f, -0.389844f, -0.132779f, 0.057945f, -0.327074f, 0.121635f, 0.542070f, 0.175651f, 0.621222f, -0.275537f, 0.052393f, -0.096872f, 0.024989f, -0.015081f, 0.106982f, -0.081989f, 0.226545f, 0.117104f, -0.142943f, 0.305252f, -0.122858f, 0.102714f, -0.142536f, 0.486805f, 0.416377f, 0.543214f, 0.611585f, -0.071241f, 0.288565f, 0.168272f, -0.580681f, -0.167080f, 0.208886f, 0.124799f, 0.145234f, 0.203460f, -0.134001f, 0.127985f, 0.267821f, 0.407248f, 1.081858f, 0.620198f, 0.558876f, 0.122189f, 0.223589f, 0.239078f, 0.473409f, 0.006820f, 0.187109f, -0.738584f, -0.168293f, 0.366828f, -0.021848f, 0.042961f, 0.080993f, 0.189679f, 0.643628f, 0.017383f, 0.551085f, 0.173884f, 0.485120f, 0.158720f, -0.472833f, -0.008908f, -0.386978f, -0.135031f, -0.012578f, -0.122631f, 0.071118f, 0.239172f, 0.183483f, 0.160264f, 0.714983f, 0.392052f, 0.280089f, -0.130785f, 0.154579f, 0.219380f, -0.593685f, 0.017262f, -0.119937f, 0.279680f, 0.008055f, -0.119980f, 0.144563f, -0.381587f, 0.268946f, 0.024535f, -0.215358f, 0.244497f, 0.123265f, 0.123509f, -0.109556f, -0.470488f, -0.180855f, -0.037232f, 0.329944f, -0.170711f, -0.257193f, 0.173392f, 0.034777f, -0.195128f, 0.088597f, 0.099011f, 0.303600f, -0.011979f, 0.112286f, -0.335776f, -0.274790f, -0.015151f, 0.008238f, 0.218341f, -0.219941f, -0.503284f, 0.160600f, -0.710316f, -0.651608f, -0.341861f, 0.300022f, 0.291675f, 0.318551f, 0.022929f, -0.555863f, -0.239955f, 0.489262f, -0.244960f, -1.185897f, 0.081965f, 0.596979f, -0.380970f, 0.059245f, 0.077248f, 0.213237f, 0.225149f, 0.008895f, -0.151773f, 0.021910f, 0.330976f, -0.002425f, -0.094841f, -0.058331f, -0.139664f, -0.402857f, 0.162262f, 0.495014f, -0.584438f, 0.070889f, 0.155219f, -0.206563f, -0.364066f, 0.255587f, 0.195982f, -0.022325f, -0.042628f, 0.254735f, -0.162234f, -0.017864f, -0.203056f, -0.243751f, 0.017742f, -0.199167f, -0.473074f, -0.164882f, -0.281189f, 0.242580f, -0.044804f, -0.183613f, 0.294122f, 0.270685f, -0.300285f, 0.141185f, 0.103038f, 0.123183f, 0.103585f, 0.259821f, 0.256368f, 0.086340f, 0.111191f, -0.221523f, -0.225192f, -0.183731f, 0.253459f, 0.129649f, 0.328212f, 0.055525f, -0.042489f, 0.271715f, -0.034329f, -0.033458f, -0.363661f, 0.178387f, -0.420453f, 0.068746f, -0.007895f, 0.037644f, -0.150749f, 0.048929f, 0.159243f, -0.035139f, 0.516204f, 0.252542f, -0.139797f, 0.357452f, 0.510934f, 0.151781f, 0.165452f, 0.261271f, -0.157199f, -0.234205f, 0.023421f, 0.100136f, -0.102982f, -0.307477f, -0.591230f, 0.033678f, -0.116978f, -0.372022f, 0.217396f, 0.550517f, 0.057555f, -0.099417f, 0.150223f, -0.181543f, -0.221058f, -0.328258f, 0.254416f, -0.423516f, -0.093072f, 0.105447f, 0.117625f, 0.075101f, 0.084338f, -0.103323f, 0.122638f, 0.013262f, 0.163604f, -0.113203f, -0.198568f, -0.174757f, 0.162549f, -0.182000f, 0.160885f, -0.308424f, 0.053893f, 0.218785f, -0.107677f, -0.079258f, 0.015385f, 0.063269f, 0.498664f, 0.068678f, -0.041675f, -0.321369f, 0.143908f, 0.111150f, 0.151455f, 0.246700f, -0.073352f, -0.028348f, 0.371741f, -0.168262f, -0.432950f, 0.162414f, 0.184873f, 0.147120f, 0.182020f, 0.609598f, -0.168650f, 0.077225f, -0.079690f, 0.215020f, -0.345423f, -0.101243f, 0.169079f, 0.190216f, -0.402309f, -0.045526f, 0.118915f, 0.010096f, 0.053558f, -0.092016f, 0.312485f, 0.170249f, 0.323661f, -0.319989f, -0.046496f, -0.188339f, 0.370494f, -0.230103f, 0.523900f, -0.217606f, -0.348302f, 0.354720f, 0.339667f, -0.507244f, 0.137564f, 0.141816f, 0.970224f, -0.319043f, -0.086289f, -0.287298f, -0.010193f, -0.320254f, 0.408698f, 0.350332f, 0.473180f, -0.032997f, -0.258114f, -0.169519f, -0.444661f, 0.059525f, -0.148803f, -0.022512f, 0.302039f, 0.271159f, -0.130844f, -0.166299f, -0.301433f, -0.198556f, 0.067221f, -0.033714f, -0.170844f, 0.077800f, -0.307608f, 0.059722f, 0.396860f, -0.297926f, 0.231354f, -0.211426f, 0.238502f, -0.224193f, 0.024786f, 0.032376f, 0.175100f, -0.023912f, -0.220757f, 0.225316f, -0.049873f, 0.302465f, -0.275836f, 0.345922f, 0.307795f, -0.204399f, -0.083220f, 0.121829f, 0.177509f, -0.178234f, -0.075099f, -0.407184f, 0.231400f, 0.426904f, 0.352884f, -0.084764f, 0.347174f, -0.058847f, 0.141857f, 0.230994f, 0.161956f, -0.303707f, 0.049954f, 0.087262f, 0.507986f, -0.068807f, 0.115728f, -0.453487f, 0.018252f, 0.248401f, 0.092434f, 0.156216f, -0.166810f, -0.071662f, 0.147136f, 0.396097f, -0.135670f, 0.296969f, 0.200965f, -0.068013f, 0.570013f, 0.315423f, 0.253239f, 0.076257f, 0.145436f, 0.195508f, 0.305495f, 0.710196f, 0.097446f, 0.064744f, -0.189315f, -0.350591f, 0.074843f, 0.048746f, 0.403203f, 0.719280f, 0.025817f, 0.251088f, 0.108653f, -0.086499f, -0.030428f, -0.082372f, 0.521265f, 0.093150f, -0.165621f, -0.500254f, -0.494747f, 0.177383f, -0.340710f, -0.340320f, 0.051132f, 0.210265f, 0.362329f, -0.113737f, 0.278694f, 0.062857f, 0.000852f, -0.191593f, 0.252361f, 0.238165f, 0.024770f, -0.085435f, 0.407649f, 0.616569f, -0.421415f, -0.090448f, 0.121267f, 0.049624f, 0.666397f, -0.043766f, 0.065814f, 0.132596f, 0.065503f, -0.062629f, 0.220298f, 0.098720f, -0.138875f, 0.371341f, -0.333990f, -0.270047f, -0.297896f, 0.061247f, -0.105765f, 0.462498f, 0.481912f, -0.100397f, -0.044881f, -0.167482f, -0.050260f, -0.367626f, 0.239327f, 0.056937f, -0.034726f, 0.201827f, -0.340862f, -0.220011f, 0.165721f, 0.138513f, -0.018818f, 0.236034f, 0.125466f, 0.200688f, 0.194372f, -0.024571f, 0.490976f, -0.237584f, 0.022696f, -0.276558f, -0.273602f, -0.398761f, -0.538687f, -0.143026f, -0.285048f, 0.555111f, 0.703914f, 0.384989f, -0.120707f, -0.079611f, -0.346138f, -0.412428f, -0.055569f, 0.202089f, 0.168035f, 0.025495f, -0.384773f, -0.304122f, -0.551058f, 0.230220f, -0.033222f, -0.379666f, 0.232549f, -0.031470f, 0.188978f, -0.296130f, -0.269140f, -0.013058f, -0.199027f, 0.209078f, -0.242269f, 0.168232f, 0.272334f, -0.045788f, 0.022352f, 0.145602f, -0.268775f, -0.131936f, -0.356467f, -0.430310f, 0.268337f, 0.091805f, 0.050307f, -0.098663f, 0.213613f, -0.561226f, -0.268365f, 0.392506f, 0.071901f, 0.101234f, -0.157324f, -0.179804f, 0.283783f, -0.239936f, 0.417326f, -0.112744f, 0.380458f, -0.045152f, 0.156420f, -0.287216f, -0.200135f, -0.239964f, -0.521107f, -0.548187f, 0.396625f, 0.024614f, -0.501512f, -0.090188f, -0.285734f, 0.087264f, 0.172179f, 0.006953f, 0.476360f, 0.111585f, -0.499007f, 0.043383f, -0.118855f, -0.401739f, -0.752379f, -0.085248f, 0.071710f, 0.233535f, 0.097370f, -0.071864f, -0.172729f, 0.068166f, 0.198374f, -0.100034f, -0.075902f, 0.225268f, 0.035330f, -0.046941f, 0.039639f, -0.224728f, -0.922787f, 0.064383f, 0.211746f, 0.009141f, -0.387117f, 0.058346f, 0.148833f, 0.385300f, 0.422398f, -0.087050f, -0.073125f, 0.469823f, 0.255512f, -0.165026f, -0.294185f, -0.157303f, 0.103823f, -0.338891f, 0.137812f, 0.058101f, -0.138282f, 0.241179f, -0.177923f, -0.001734f, -0.072447f, -0.381386f, 0.343022f, -0.124563f, -0.287992f, 0.161602f, 0.254901f, 0.106381f, -0.437812f, -0.540115f, 0.264620f, -0.156880f, 0.310102f, 0.047158f, -0.301422f, 0.076500f, 0.158443f, -0.556613f, -0.272010f, 0.293373f, -0.028971f, -0.159964f, 0.272632f, -0.087653f, -0.266722f, 0.249268f, 0.163067f, -0.234835f, -0.194703f, 0.059336f, -0.372180f, 0.084276f, -0.254204f, -0.513988f, 0.142589f, 0.522215f, 0.283859f, 0.323741f, 0.109030f, -0.016642f, -0.197782f, -0.116153f, 0.297945f, -0.090467f, -0.080535f, 0.174532f, 0.312568f, -0.111747f, -0.067587f, -0.039508f, 0.383132f, -0.016407f, -0.248047f, -0.013562f, 0.092366f, -0.111921f, 0.185486f, -0.223844f, 0.092942f, -0.088304f, 0.233832f, 0.199440f, -0.195903f, 0.203876f, 0.072638f, 0.104604f, 0.285547f, 0.129494f, -0.247237f, 0.157121f, -0.339093f, -0.413279f, 0.318659f, 0.285123f, -0.040834f, 0.032254f, -0.353531f, -0.225427f, 0.167756f, -0.166648f, -0.060760f, 0.082481f, 0.619657f, -0.056499f, 0.019439f, 0.535681f, -0.125931f, -0.289314f, -0.229614f, 0.042261f, 0.050753f, -0.039278f, -0.504996f, -0.101677f, -0.085868f, -0.669037f, 0.405187f, 0.585180f, 0.030601f, -0.202745f, -0.224473f, 0.179538f, -0.050478f, -0.480069f, 0.087554f, -0.022263f, -0.069548f, -0.010725f, 0.165920f, 0.443449f, -0.024528f, 0.155721f, 0.160225f, 0.233914f, 0.102415f, -0.066285f, -0.378602f, -0.066771f, -0.015083f, 0.030376f, 0.299771f, 0.280839f, -0.216591f, 0.435458f, -0.120593f, -0.547110f, -0.434601f, -0.181757f, 0.057602f, 0.742680f, 0.169035f, -0.261479f, -0.025701f, -0.182551f, 0.149356f, 0.080982f, 0.331773f, 0.308699f, -0.338173f, -0.223470f, 0.077531f, 0.211258f, -0.147379f, -0.427966f, 0.231084f, 0.089318f, 0.276420f, -0.469187f, -0.373869f, 0.584505f, 0.194223f, -0.146486f, 0.556665f, -0.050267f, -0.401824f, 0.083864f, 0.368309f, 0.298833f, -0.342396f, -0.412768f, 0.446609f, 0.201754f, 0.239051f, 0.209198f, -0.126233f, 0.027947f, -0.203679f, 0.098932f, 0.198592f, 0.265077f, -0.560167f, 0.605516f, -0.093840f, -0.394899f, -0.173682f, -0.464318f, -0.505575f, 0.109248f, 0.460040f, 0.147539f, 0.095954f, -0.528348f, -0.544598f, -0.207183f, -0.121520f, -0.006359f, 0.134634f, 0.063284f, 0.332569f, -0.381266f, 0.031133f, 0.012638f, -0.269629f, 0.294314f, 0.599769f, 0.119412f, 0.327671f, 0.190055f, -0.187367f, 0.051654f, 0.048677f, -0.214438f, 0.070282f, -0.294164f, -0.069602f, -0.707156f, -0.431036f, -0.099482f, -0.122510f, 0.431558f, 0.007949f, 0.327815f, 0.238155f, 0.182892f, -0.340427f, -0.664632f, 0.033105f, -0.019410f, -0.119289f, -0.177286f, 0.225328f, -0.254986f, -0.096485f, 0.053158f, -0.120846f, -0.332655f, 0.470787f, -0.469577f, -0.790789f, 0.369760f, -0.350053f, -0.194388f, -0.615833f, -0.291358f, -0.397722f, 0.067984f, 0.331616f, -0.118997f, 0.326108f, -0.272941f, 0.046456f, 0.144057f, 0.259208f, -0.542751f, 0.037458f, 0.343308f, 0.104181f, 0.008373f, 0.231372f, -0.225175f, -0.034431f, 0.127514f, 0.131496f, 0.168553f, -0.112662f, -0.379868f, 0.019725f, 0.389712f, -0.179213f, 0.364999f, 0.178999f, 0.109943f, 0.086004f, 0.537623f, -0.015915f, 0.220185f, 0.085553f, 0.004091f, -0.203485f, 0.183720f, -0.005226f, 0.194145f, 0.440304f, 0.273197f, 0.478217f, -0.000820f, 0.051966f, 0.310632f, -0.278971f, -0.199547f, 0.002206f, 0.074973f, -0.034119f, -0.199945f, 0.335871f, -0.067363f, -0.128210f, -0.609862f, -0.167536f, 0.058955f, 0.375895f, 0.137772f, 0.063466f, 0.202074f, -0.021554f, 0.348968f, -0.218521f, -0.688194f, -0.729712f, 0.037726f, 0.101171f, 0.436856f, -0.061267f, -0.054818f, 0.089279f, 0.015438f, 0.223136f, 0.418052f, 0.405873f, 0.458469f, -0.224541f, 0.039929f, 0.142123f, 0.236789f, -0.452352f, -0.026493f, -0.140065f, 0.055105f, -0.319481f, -0.353692f, 0.481194f, -0.106580f, 0.886032f, 0.353768f, -0.052828f, -0.307454f, -0.110449f, -0.312791f, -0.214743f, -0.149403f, -0.175344f, -0.145241f, -0.493646f, 0.364087f, 0.391538f, 0.281147f, 0.128300f, 0.472901f, 0.169876f, 0.493559f, 0.233022f, 0.345405f, -0.381320f, 0.127350f, 0.308913f, 0.205678f, -0.433595f, 0.344667f, 0.224921f, 0.132926f, -0.098042f, -0.023097f, 0.455259f, -0.139232f, 0.420613f, 0.258538f, -0.231011f, -0.161030f, 0.291676f, -0.080174f, -0.170212f, 0.123974f, -0.031849f, -0.191362f, -0.655870f, 0.268610f, 0.179014f, -0.086710f, 0.133572f, 0.019621f, 0.501288f, 0.195055f, 0.269462f, 0.061361f, 0.068248f, 0.313686f, 0.048067f, 0.315922f, 0.019373f, 0.012466f, -0.145028f, 0.164624f, -0.428487f, -0.085942f, -0.007691f, -0.424758f, 0.392715f, 0.593651f, 0.068167f, -0.259527f, 0.569347f, -0.012417f, -0.177424f, -0.016895f, -0.149019f, -0.175753f, 0.009509f, 0.159057f, 0.037847f, 0.186013f, -0.119721f, 0.083231f, 0.349306f, 0.428188f, -0.076696f, 0.122297f, -0.075680f, 0.248495f, 0.197806f, -0.527806f, 0.117272f, 0.201916f, 0.172375f, 0.047016f, -0.229995f, -0.066795f, 0.024929f, 0.092100f, 0.303330f, -0.137172f, -0.213555f, -0.125492f, 0.000143f, -0.330301f, 0.280240f, -0.244729f, 0.020812f, 0.167931f, -0.152062f, -0.013885f, -0.165893f, -0.756411f, -0.695589f, -0.483807f, 1.034570f, -0.057906f, -0.565256f, -0.130605f, 0.329712f, -0.338498f, 0.009930f, 0.496956f, 0.233479f, -0.188964f, -0.277627f, -0.235845f, 0.419126f, -0.554129f, 0.398289f, 0.700440f, 0.310252f, 0.111087f, -0.170342f, -0.138474f, 0.580034f, -0.116295f, 0.269213f, 0.017189f, 0.130246f, 0.844516f, 0.127215f, 0.057151f, -0.334641f, -0.471421f, 0.156471f, 0.334338f, -0.526660f, 0.332413f, 0.269283f, -0.656386f, 0.204614f, 0.036051f, 0.396466f, -0.357337f, -0.072861f, 0.823742f, 0.214209f, -0.407356f, -0.095526f, -0.179373f, 0.281033f, 0.576272f, 0.340739f, 0.377759f, 0.436472f, -0.843639f, 0.075942f, 0.102363f, 0.203310f, 0.147272f, -0.448353f, 0.668643f, 0.048570f, -0.624934f, 0.176341f, -0.396441f, -0.233930f, 0.366648f, 0.460422f, -0.137095f, 0.076637f, -0.378941f };
static const float mynet_layer_1_biases[10] = { -0.600274f, 0.467371f, -0.788475f, -1.691722f, 0.795893f, 1.419759f, 1.200480f, 0.211891f, 0.460518f, -0.649765f };
static const float mynet_layer_1_weights[160] = { 0.446165f, 1.538992f, 0.590620f, -1.319238f, 1.573120f, -3.299502f, -0.926983f, 0.786032f, -0.667230f, 1.216129f, 0.027980f, 1.556198f, -1.396234f, 0.493045f, -3.004423f, 3.636233f, 0.520076f, -0.156574f, -0.169530f, 0.373396f, 1.352894f, -3.241132f, 0.236610f, 0.771429f, -2.432905f, 0.394030f, 1.439549f, -1.620771f, 0.612891f, 1.058386f, 0.597890f, 0.271969f, -2.930901f, -2.098149f, 2.268202f, 1.559350f, 0.882436f, 1.121592f, -0.403990f, -0.547966f, -1.060988f, -1.523913f, -1.032102f, 1.988398f, -3.180891f, 2.708010f, 1.253267f, 0.985645f, 0.781938f, -1.449573f, -1.802784f, -1.621785f, 2.199647f, -0.518546f, 0.869819f, -0.037441f, -1.025114f, 1.316024f, 1.045990f, 1.527016f, 1.299273f, -0.269733f, 0.261433f, -1.055370f, 1.411038f, -0.660493f, 1.533034f, -0.262282f, -3.148344f, -0.365566f, 0.231132f, -0.707642f, -0.144951f, 0.065268f, 1.777628f, -0.513322f, -0.319237f, -0.722025f, 2.109677f, -1.680059f, -0.853678f, -0.235766f, -0.666685f, 1.706469f, -1.732394f, -1.497445f, 1.874504f, -1.263387f, -0.457731f, 1.272515f, -0.938771f, 0.998968f, 2.422663f, 0.791862f, -0.015590f, 0.272838f, -0.120352f, 2.665530f, -1.269654f, -3.427849f, 2.607284f, -0.285858f, 1.439343f, -0.919676f, -0.047884f, -2.075353f, 0.244887f, -0.220953f, -1.795874f, 1.236462f, -3.506852f, 2.071779f, 0.288537f, 1.430869f, 0.344196f, 0.721240f, 0.034880f, -1.578897f, 1.126483f, -1.138059f, 0.428956f, 1.258322f, 2.349604f, 0.434354f, -2.419079f, 1.376029f, 0.788040f, -0.118455f, -1.304917f, -2.377812f, 0.168077f, -0.506427f, -2.075868f, 0.023817f, -1.413428f, 1.483602f, 1.501662f, -2.595991f, 1.725147f, 1.281399f, -0.575673f, -0.615851f, 2.495858f, 1.591928f, -3.163964f, 0.777498f, -2.817866f, 1.886703f, -0.355310f, -0.211397f, 0.344000f, -0.963556f, -1.144425f, 1.382914f, -0.423078f, -0.094411f, -2.596431f, 2.461005f, -0.363338f, 0.801988f };
static float mynet_buf1[400];
static float mynet_buf2[400];
static const EmlNetLayer mynet_layers[2] = { 
{ 16, 400, mynet_layer_0_weights, mynet_layer_0_biases, EmlNetActivationRelu }, 
{ 10, 16, mynet_layer_1_weights, mynet_layer_1_biases, EmlNetActivationSoftmax } };
static EmlNet mynet = { 2, mynet_layers, mynet_buf1, mynet_buf2, 400 };

    int32_t
    mynet_predict(const float *features, int32_t n_features)
    {
        return eml_net_predict(&mynet, features, n_features);
    }
    

    int32_t
    mynet_regress(const float *features, int32_t n_features, float *out, int32_t out_length)
    {
        return eml_net_regress(&mynet, features, n_features, out, out_length);
    }
    

    float
    mynet_regress1(const float *features, int32_t n_features)
    {
        return eml_net_regress1(&mynet, features, n_features);
    }
    