
#include <eml_net.h>
static const float mynet_layer_0_biases[24] = { 0.791011f, -0.701966f, 0.349540f, -0.039303f, -0.238240f, 0.369904f, 0.328840f, -0.087683f, -0.126352f, -0.009692f, 0.422727f, -0.446735f, 0.439124f, -0.532441f, 0.222570f, -0.323611f, 0.530940f, -0.286549f, -0.401257f, 0.151854f, -0.157954f, -0.385199f, 0.138100f, 0.287991f };
static const float mynet_layer_0_weights[4704] = { -0.041300f, 0.148369f, 0.076369f, 0.032477f, -0.113234f, -0.113242f, -0.145473f, 0.120540f, 0.033286f, 0.068495f, -0.157817f, 0.154688f, 0.109435f, -0.094694f, -0.104739f, -0.104219f, -0.064441f, 0.008149f, -0.022403f, -0.068724f, 0.036820f, -0.118674f, -0.068423f, -0.043992f, -0.014461f, 0.093876f, -0.098863f, 0.004686f, 0.030422f, -0.149302f, 0.035402f, -0.108459f, -0.143179f, 0.147767f, 0.153280f, 0.101520f, -0.064318f, -0.132441f, 0.060647f, -0.019701f, -0.124420f, -0.001588f, -0.153273f, 0.134743f, -0.079406f, 0.053500f, -0.061982f, 0.006606f, 0.015614f, -0.103738f, 0.154583f, 0.090410f, 0.144675f, 0.129875f, 0.032227f, 0.138802f, -0.135762f, -0.100526f, -0.150703f, -0.057470f, -0.036364f, -0.075269f, 0.108214f, -0.047142f, -0.071854f, 0.013816f, -0.118255f, 0.100074f, -0.140078f, 0.161199f, 0.089775f, -0.099182f, -0.160972f, 0.104927f, 0.067390f, 0.077304f, 0.089344f, -0.142777f, -0.046564f, -0.127230f, 0.112431f, 0.040993f, -0.065229f, -0.142755f, -0.059416f, -0.057701f, 0.075585f, 0.045557f, 0.130107f, -0.011685f, -0.124866f, 0.077765f, 0.086392f, 0.030600f, 0.091494f, -0.002385f, 0.010879f, -0.021407f, -0.159373f, -0.119343f, -0.154329f, 0.040761f, -0.060738f, 0.000500f, 0.121288f, -0.072826f, -0.032412f, 0.084464f, -0.092665f, -0.139906f, -0.069820f, -0.111873f, 0.144428f, 0.099742f, 0.051634f, 0.124798f, 0.100545f, -0.092620f, 0.133540f, 0.011630f, 0.106289f, 0.153694f, -0.061785f, -0.061031f, -0.089253f, -0.028105f, 0.105042f, 0.093269f, -0.204967f, 0.074795f, 0.030042f, -0.106743f, -0.183997f, -0.056026f, 0.132596f, -0.062107f, 0.006377f, 0.076671f, 0.032987f, 0.099750f, 0.159922f, -0.098136f, 0.018570f, -0.067383f, -0.065951f, -0.122014f, 0.033193f, 0.108098f, -0.147004f, -0.078232f, 0.134592f, -0.097742f, -0.186273f, 0.104831f, 0.251535f, -0.100567f, -0.033727f, 0.085610f, -0.122502f, 0.073842f, -0.028261f, 0.064544f, 0.170163f, -0.073419f, -0.118508f, 0.088163f, -0.029754f, -0.105732f, -0.180446f, 0.058992f, 0.092000f, -0.138081f, 0.078190f, -0.100328f, 0.051336f, -0.107113f, 0.106059f, 0.055962f, 0.183124f, -0.129001f, -0.232946f, -0.097240f, 0.191190f, 0.125375f, 0.024028f, 0.055766f, 0.137050f, -0.040261f, -0.112726f, -0.203988f, -0.128255f, 0.130317f, 0.151720f, 0.072037f, -0.052924f, 0.008536f, 0.078958f, 0.112758f, 0.139975f, 0.071089f, 0.003693f, -0.062949f, -0.098223f, 0.122922f, -0.034582f, -0.158782f, -0.165549f, 0.048789f, -0.119355f, -0.092512f, 0.075069f, 0.026265f, 0.046656f, -0.083639f, 0.101886f, -0.086165f, -0.047907f, 0.123184f, 0.046826f, 0.183661f, 0.047989f, 0.005901f, -0.132753f, -0.068070f, -0.137149f, -0.015967f, 0.164563f, -0.035095f, 0.116578f, 0.042880f, 0.070610f, -0.002747f, 0.032086f, 0.008043f, -0.085272f, 0.067041f, -0.068509f, -0.160452f, 0.058540f, -0.106772f, 0.150765f, 0.171490f, 0.136477f, 0.000550f, -0.161054f, 0.126163f, -0.021670f, 0.143491f, 0.114735f, 0.162609f, -0.060236f, -0.037260f, 0.110468f, -0.060451f, -0.117054f, 0.017089f, 0.144142f, 0.071872f, 0.025058f, -0.133846f, 0.042061f, 0.161120f, -0.111367f, 0.005743f, 0.123882f, 0.079935f, 0.064814f, 0.069247f, -0.046232f, -0.068326f, 0.101844f, 0.101784f, 0.118297f, 0.139262f, 0.004482f, 0.000464f, 0.097803f, 0.049356f, 0.066521f, 0.097056f, 0.129040f, -0.053072f, -0.040361f, -0.133846f, 0.026181f, -0.152187f, -0.010065f, 0.014038f, -0.070268f, 0.029901f, -0.154553f, -0.152298f, 0.106196f, -0.046023f, -0.122766f, 0.007322f, 0.088878f, -0.093548f, 0.040454f, -0.136498f, -0.147580f, 0.010322f, 0.013377f, 0.045240f, 0.074426f, 0.156644f, 0.005366f, -0.058280f, 0.097171f, -0.075439f, -0.020090f, -0.138766f, -0.156248f, 0.152297f, 0.110600f, 0.064512f, -0.029971f, -0.107547f, -0.113096f, -0.082217f, 0.016205f, 0.070642f, 0.052735f, -0.072443f, 0.149735f, 0.078312f, 0.017893f, 0.036777f, -0.026467f, -0.083043f, -0.047412f, 0.084879f, -0.159855f, -0.126383f, -0.149450f, -0.151186f, 0.117013f, 0.067041f, -0.008502f, -0.132387f, -0.002760f, -0.008733f, -0.107577f, -0.021775f, -0.033411f, 0.038136f, 0.044471f, -0.149680f, -0.041276f, 0.041431f, 0.001032f, 0.117351f, 0.052240f, -0.110957f, -0.141363f, 0.046882f, -0.155866f, 0.028236f, 0.144918f, 0.024845f, -0.036895f, 0.047171f, -0.011110f, 0.012684f, 0.147914f, -0.039153f, 0.150290f, 0.133430f, -0.100076f, -0.142169f, -0.134878f, -0.156832f, -0.133441f, 0.065310f, -0.136580f, -0.057807f, 0.115611f, -0.160417f, 0.103519f, -0.069942f, -0.128414f, 0.064722f, 0.042393f, 0.124255f, 0.023867f, 0.105387f, -0.075170f, -0.025944f, 0.036098f, 0.106761f, 0.150947f, -0.061245f, -0.089455f, 0.117755f, -0.025691f, 0.118389f, 0.152762f, -0.013111f, 0.063582f, 0.078121f, -0.071624f, 0.131476f, 0.034386f, 0.060508f, -0.046575f, 0.101989f, -0.003276f, -0.167006f, 0.056271f, -0.166115f, -0.135903f, 0.278298f, 0.039415f, 0.026030f, 0.002412f, -0.017612f, -0.118663f, -0.009238f, 0.079440f, 0.017343f, 0.147188f, 0.143360f, -0.125596f, -0.022633f, -0.066647f, 0.004397f, 0.052510f, 0.090357f, 0.030224f, -0.124652f, -0.118803f, 0.085380f, -0.175795f, -0.277567f, -0.438156f, 0.551605f, -0.222700f, 0.040995f, 0.137632f, -0.171902f, -0.549802f, 0.546091f, -0.063121f, -0.051572f, 0.446156f, 0.266792f, 0.205259f, -0.050318f, -0.122494f, -0.264407f, 0.178161f, 0.126336f, 0.332119f, 0.270907f, 0.042359f, -0.069437f, -0.437377f, -0.437879f, -0.319937f, 0.654121f, -0.215614f, -0.085384f, 0.114280f, -0.063472f, -0.302388f, 0.141074f, -0.187454f, 0.221689f, 0.329951f, 0.740395f, -0.039259f, 0.106334f, -0.117929f, -0.160627f, 0.190955f, 0.231535f, 0.310574f, 0.612976f, 0.318459f, 0.085483f, -0.442820f, -0.325029f, -0.323644f, 0.239798f, 0.282617f, 0.079123f, 0.246242f, -0.080831f, 0.177530f, 0.530168f, -0.023906f, 0.026863f, 0.199386f, 0.406155f, 0.169749f, -0.360594f, 0.031945f, -0.052498f, 0.365262f, 0.319264f, 0.133730f, 0.116031f, 0.078345f, 0.143249f, -0.418486f, 0.103153f, 0.107568f, 0.479562f, -0.113978f, 0.160597f, -0.128742f, -0.037831f, 0.210078f, 0.494298f, 0.000712f, -0.278806f, 0.242042f, 0.457045f, -0.258018f, -0.226235f, 0.095928f, 0.096643f, 0.109621f, 0.045390f, 0.046383f, -0.006900f, 0.123274f, -0.143381f, 0.116378f, 0.107985f, 0.279998f, 0.283158f, 0.354884f, -0.238053f, -0.158723f, 0.297977f, 0.120720f, 0.024124f, 0.008113f, -0.475181f, 0.217313f, 0.157133f, -0.358363f, 0.008799f, 0.100428f, 0.016017f, -0.100713f, 0.036057f, 0.294757f, 0.082032f, -0.193309f, 0.099977f, 0.449498f, 0.273527f, 0.268419f, 0.214820f, 0.137005f, -0.223437f, -0.209838f, 0.344284f, -0.102843f, 0.174606f, 0.108492f, -0.204764f, -0.231248f, 0.102789f, -0.455284f, -0.010023f, 0.411693f, 0.182875f, -0.007712f, -0.135528f, -0.196171f, -0.203717f, -0.078263f, -0.047076f, 0.130130f, 0.081080f, 0.220623f, 0.105571f, 0.103468f, 0.016857f, 0.048839f, 0.121437f, -0.097783f, 0.111469f, 0.033078f, 0.195745f, -0.299091f, -0.083188f, -0.192029f, -0.034227f, 0.092883f, 0.026468f, 0.112895f, -0.262756f, -0.263089f, -0.089405f, -0.003344f, -0.370337f, -0.044084f, -0.190984f, -0.021776f, -0.097888f, -0.064115f, -0.038738f, -0.026149f, -0.025474f, -0.053104f, 0.304023f, 0.180539f, 0.079803f, -0.026981f, -0.297908f, 0.097176f, 0.128856f, -0.253550f, 0.080036f, 0.143133f, -0.081405f, -0.261588f, -0.101687f, 0.086659f, -0.081044f, 0.040703f, -0.005766f, -0.009416f, 0.133805f, -0.211465f, -0.055125f, 0.072693f, 0.103220f, -0.024232f, 0.029090f, -0.101724f, -0.004703f, 0.028073f, -0.021180f, -0.101506f, -0.040636f, -0.118203f, -0.070476f, -0.095960f, -0.082784f, -0.111667f, 0.106003f, 0.027166f, 0.051986f, 0.098961f, 0.008194f, -0.137403f, 0.016599f, 0.014843f, 0.087345f, -0.024076f, -0.122595f, -0.073270f, -0.044310f, 0.040654f, 0.033537f, -0.043355f, 0.182943f, 0.029959f, -0.086848f, -0.120329f, -0.121281f, -0.083627f, -0.111353f, -0.102672f, -0.068092f, -0.112498f, 0.130514f, -0.138183f, 0.008071f, -0.029492f, 0.158795f, -0.127715f, -0.033622f, 0.154544f, 0.120320f, 0.104373f, -0.079697f, -0.108340f, 0.055515f, 0.141341f, 0.018688f, 0.023574f, -0.072428f, 0.088719f, -0.103024f, -0.058042f, -0.024547f, 0.002508f, -0.084792f, -0.126792f, 0.036421f, -0.081573f, 0.025369f, -0.093975f, -0.008868f, 0.010950f, -0.169830f, -0.066930f, -0.121373f, -0.133356f, 0.130922f, -0.081017f, 0.117686f, -0.087922f, 0.098609f, 0.118084f, 0.040866f, 0.022361f, -0.050111f, -0.048231f, 0.139554f, 0.110073f, 0.172210f, -0.136184f, 0.102903f, 0.062188f, -0.116377f, -0.122135f, 0.186565f, -0.215267f, -0.113961f, -0.421429f, -0.021127f, 0.038261f, 0.278049f, -0.134697f, 0.002510f, -0.048683f, 0.258531f, 0.252336f, 0.079665f, 0.244786f, 0.124161f, -0.033494f, -0.278292f, -0.077071f, -0.239986f, 0.301960f, -0.070596f, 0.130368f, -0.224099f, -0.200124f, 0.171794f, -0.309608f, -0.169496f, -0.255306f, 0.099237f, 0.001079f, 0.487471f, -0.326050f, 0.024427f, -0.197884f, 0.231069f, 0.538075f, 0.167038f, 0.372876f, -0.355121f, -0.127052f, 0.085486f, -0.119470f, 0.081558f, 0.142876f, 0.588565f, 0.513371f, 0.042615f, -0.131784f, 0.114649f, -0.531741f, 0.000655f, 0.225999f, -0.051447f, 0.079518f, 0.469044f, -0.126428f, -0.045940f, 0.154005f, 0.326852f, 0.252404f, -0.404704f, -0.106755f, -0.199704f, 0.265602f, -0.566624f, 0.017750f, 0.144183f, 0.246507f, 0.178858f, 0.334090f, 0.355359f, -0.302282f, 0.290954f, 0.309565f, 0.445573f, 0.067669f, 0.279610f, 0.282935f, 0.038981f, 0.200377f, -0.666396f, 0.272726f, 0.537213f, 0.375715f, -0.147577f, 0.216333f, -0.103039f, 0.370797f, -0.066266f, 0.132162f, 1.011940f, 0.258798f, 0.247374f, 0.385215f, 0.104586f, 0.058875f, 0.107958f, 0.099352f, 0.222891f, 0.139555f, -0.039349f, 0.148151f, 0.209769f, 0.294556f, -0.337657f, -0.170858f, 0.618103f, 0.298769f, -0.111461f, 0.057060f, 0.317506f, 0.223850f, 0.267361f, 0.023434f, 0.809382f, -0.042803f, 0.078579f, -0.195877f, 0.399079f, -0.167024f, -0.299860f, 0.310268f, -0.071435f, 0.255583f, -0.076703f, 0.146668f, 0.003325f, 0.376951f, -0.053562f, 0.011322f, 0.320580f, 0.054913f, 0.012139f, 0.198905f, 0.066046f, 0.416921f, 0.064933f, 0.052631f, 0.751939f, -0.020085f, -0.020775f, -0.315906f, -0.022703f, 0.428667f, -0.236667f, -0.094569f, -0.282824f, -0.014514f, -0.494184f, -0.033888f, 0.202083f, 0.263161f, 0.257725f, 0.220874f, 0.174597f, -0.262929f, -0.025932f, 0.173449f, 0.121461f, -0.071877f, 0.287539f, 0.389636f, 0.269588f, 0.095354f, -0.096255f, -0.092290f, 0.038115f, 0.160413f, -0.020852f, 0.271630f, -0.228799f, -0.085480f, 0.359371f, -0.236079f, -0.218909f, 0.135581f, -0.531988f, 0.059941f, 0.113136f, -0.799342f, 0.030102f, 0.180535f, -0.231844f, 0.131767f, 0.197617f, 0.451145f, -0.026888f, 0.290046f, -0.039757f, -0.138421f, -0.037036f, 0.284387f, -0.058829f, -0.122823f, -0.058405f, 0.381170f, 0.358453f, -0.013601f, -0.230733f, 0.313032f, 0.353049f, -0.118390f, -0.080661f, -0.182021f, -0.233741f, 0.313836f, 0.049830f, -0.028595f, 0.033310f, 0.244794f, -0.045588f, 0.449726f, -0.147026f, -0.061778f, 0.363742f, 0.562530f, -0.431874f, -0.058287f, -0.138904f, 0.182106f, 0.107217f, -0.108472f, -0.565857f, -0.164001f, 0.125680f, 0.034061f, -0.278742f, -0.128568f, -0.026512f, 0.388856f, 0.175648f, 0.175809f, -0.376474f, -0.324863f, -0.372093f, 0.211038f, -0.163370f, 0.046527f, 0.384523f, 0.054488f, -0.058343f, -0.224943f, -0.225322f, -0.051808f, 0.068926f, -0.009121f, -0.158236f, 0.160951f, 0.235539f, 0.083650f, -0.039866f, -0.267405f, -0.066742f, 0.238175f, 0.025957f, -0.022291f, -0.231198f, -0.399310f, 0.090877f, -0.015350f, 0.065137f, 0.080713f, 0.026021f, 0.151105f, 0.000698f, -0.103554f, 0.159579f, 0.079298f, 0.066026f, -0.099769f, -0.000742f, -0.021173f, -0.093984f, 0.099773f, -0.100409f, 0.131170f, -0.005646f, -0.048065f, -0.027996f, 0.122974f, 0.062235f, 0.074308f, 0.094289f, 0.031027f, 0.117567f, -0.073889f, -0.010126f, -0.089364f, 0.155903f, 0.147914f, -0.161836f, 0.066513f, 0.139987f, -0.095063f, 0.021905f, 0.123824f, -0.144497f, 0.065217f, -0.055287f, 0.139706f, 0.159973f, 0.142195f, -0.012861f, 0.119233f, 0.107390f, -0.059027f, 0.109772f, -0.152427f, 0.031464f, 0.073775f, -0.330574f, -0.185519f, 0.088594f, -0.171089f, -0.073300f, -0.153630f, -0.062922f, 0.142158f, 0.030702f, -0.267181f, 0.260084f, 0.008140f, 0.111118f, -0.001663f, -0.098451f, 0.078746f, -0.166717f, 0.008030f, -0.026813f, 0.081632f, 0.221782f, 0.146157f, -0.004487f, 0.066961f, -0.354576f, 0.000302f, 0.174683f, -0.309210f, 0.194377f, 0.242748f, -0.153767f, -0.120653f, 0.009521f, -0.317032f, 0.150096f, -0.033101f, -0.029017f, 0.350771f, -0.397401f, -0.137631f, -0.287107f, -0.087319f, -0.512429f, 0.176651f, 0.329347f, 0.143129f, -0.038554f, 0.161084f, -0.056065f, 0.295950f, 0.036771f, -0.308137f, -0.179588f, 0.103869f, -0.460572f, 0.285735f, 0.238645f, -0.298009f, -0.312472f, 0.384863f, -0.003510f, -0.069549f, -0.043329f, 0.129627f, -0.878489f, 0.011292f, -0.505363f, -0.254043f, 0.190637f, 0.274974f, 0.141264f, 0.001929f, -0.248950f, -0.124305f, -0.105582f, -0.030997f, 0.265165f, -0.373071f, -0.384162f, 0.292951f, -0.122896f, -0.442941f, -0.282728f, -0.211301f, -0.098680f, -0.279986f, -0.049937f, 0.009091f, -0.461510f, 0.169114f, -0.052099f, 0.347740f, 0.320283f, 0.267787f, -0.271824f, 0.145925f, 0.238922f, -0.204552f, -0.589859f, 0.073525f, 0.158972f, 0.213456f, 0.046087f, -0.320566f, -0.053001f, -0.236548f, -0.179431f, -0.010112f, -0.028615f, 0.130189f, 0.367355f, 0.084649f, 0.037032f, 0.148100f, -0.160416f, -0.012330f, 0.463711f, 0.104282f, 0.062608f, 0.472277f, 0.284480f, -0.025125f, -0.034636f, 0.039742f, 0.042773f, 0.040213f, 0.154237f, -0.284442f, -0.481588f, -0.299917f, -0.423967f, -0.373458f, 0.211554f, 0.402136f, 0.157690f, 0.069915f, 0.208638f, 0.257707f, 0.118793f, -0.017889f, 0.320642f, 0.502209f, 0.165254f, 0.289104f, 0.244353f, 0.000066f, -0.233936f, 0.343687f, 0.081875f, 0.405663f, 0.445339f, -0.289631f, 0.349214f, 0.033902f, -0.461479f, -0.082106f, 0.072976f, 0.261032f, 0.085301f, 0.480489f, 0.294057f, 0.087708f, 0.175064f, 0.085756f, 0.750520f, -0.477825f, 0.227750f, 0.119736f, 0.272764f, -0.204187f, -0.321589f, -0.190724f, -0.388529f, -0.048552f, -0.586446f, 0.070210f, 0.144454f, 0.027905f, -0.154298f, -0.217474f, 0.105747f, -0.138629f, 0.043489f, -0.048769f, 0.101407f, 0.003539f, 0.111574f, -0.379200f, 0.620011f, -0.427186f, 0.120823f, 0.080610f, 0.351734f, -0.210760f, -0.124713f, 0.143390f, -0.336628f, 0.199434f, -0.330506f, 0.136498f, -0.431989f, 0.160972f, -0.079349f, -0.152291f, -0.056702f, -0.652583f, 0.266855f, -0.002141f, -0.563790f, -0.364054f, 0.003587f, -0.090589f, -0.000466f, 0.119363f, -0.069994f, 0.049964f, 0.201321f, -0.310858f, -0.247418f, 0.118494f, 0.126903f, -0.208019f, 0.608892f, -0.208886f, -1.362613f, -0.193588f, -0.065446f, -0.116909f, -0.080323f, -0.925191f, -0.064008f, 0.430676f, 0.267983f, 0.065444f, -0.081178f, -0.121570f, 0.118693f, 0.116431f, 0.177137f, 0.165444f, 0.104051f, -0.181465f, -0.045942f, -0.034669f, 0.340586f, -0.021923f, 0.552592f, -0.355969f, -0.915089f, -0.052405f, -0.281390f, -0.124179f, 0.151922f, 0.157140f, -0.260808f, 0.029234f, 0.088000f, 0.198231f, -0.054733f, -0.389490f, 0.191656f, -0.099939f, 0.158424f, 0.015170f, 0.331528f, -0.003907f, 0.080588f, -0.711062f, 0.109938f, -0.683832f, 0.124016f, 0.111119f, -0.209351f, 0.311558f, 0.087553f, 0.116869f, 0.190567f, 0.225872f, 0.092647f, 0.075707f, 0.497068f, -0.091182f, -0.348028f, -0.034166f, 0.029988f, 0.149276f, 0.019535f, -0.099403f, -0.048529f, 0.197652f, -0.046402f, 0.103009f, 0.077818f, -0.089897f, 0.039752f, -0.069723f, -0.026226f, -0.008244f, 0.213480f, -0.084806f, 0.189779f, 0.085491f, 0.036045f, 0.002629f, -0.044478f, -0.166755f, -0.199011f, -0.056441f, 0.022219f, 0.130710f, 0.129577f, 0.132395f, -0.033984f, -0.051412f, -0.018138f, 0.166283f, -0.176726f, 0.139980f, 0.042455f, -0.022089f, 0.086040f, -0.027253f, 0.169295f, 0.168713f, -0.015935f, -0.072467f, 0.024579f, 0.070905f, -0.097179f, 0.036901f, -0.006707f, 0.064039f, -0.128421f, 0.090665f, 0.125877f, -0.095557f, -0.400979f, 0.311561f, 0.021901f, 0.087060f, -0.046680f, -0.102433f, 0.162506f, 0.084557f, -0.112834f, -0.072668f, 0.057970f, -0.191132f, 0.037424f, 0.118082f, 0.200338f, 0.045802f, -0.059460f, 0.134204f, -0.229982f, 0.024605f, 0.105280f, -0.138622f, -0.197526f, 0.130939f, -0.413505f, -0.015836f, -0.066420f, -0.291004f, 0.108545f, -0.036960f, 0.239677f, -0.106659f, -0.417558f, -0.179322f, 0.241143f, -0.094285f, -0.057003f, 0.171893f, -0.238363f, -0.228049f, 0.096250f, 0.074238f, -0.088623f, -0.096496f, 0.181847f, -0.058009f, 0.132253f, 0.215778f, 0.605320f, 0.071084f, -0.073994f, 0.222411f, 0.106709f, -0.141835f, 0.076975f, -0.018228f, 0.208301f, -0.013128f, 0.337830f, -0.153253f, -0.152739f, 0.038551f, 0.118913f, -0.271939f, -0.159391f, 0.153451f, -0.334821f, -0.175407f, 0.314129f, -0.103651f, 0.244434f, 0.318744f, 0.254418f, 0.177450f, -0.042949f, -0.145319f, 0.377183f, -0.060505f, 0.233021f, 0.170070f, 0.058860f, -0.158451f, 0.126878f, 0.031836f, -0.123774f, 0.024785f, 0.180455f, -0.201664f, -0.502540f, 0.256290f, 0.018208f, 0.021221f, 0.022729f, 0.040884f, 0.064028f, 0.309541f, 0.380765f, 0.127113f, -0.091354f, -0.015099f, -0.199916f, -0.299603f, 0.012575f, -0.197647f, -0.022472f, -0.362873f, -0.189728f, -0.002863f, -0.485198f, -0.022420f, -0.384928f, 0.043164f, 0.257571f, 0.362359f, -0.148883f, 0.084128f, 0.320055f, 0.102781f, 0.111427f, 0.212498f, 0.237162f, -0.146672f, -0.278227f, 0.081394f, -0.144671f, 0.223886f, 0.167188f, -0.314724f, -0.210290f, -0.137007f, 0.139684f, -0.413375f, -0.405771f, 0.194495f, 0.094272f, 0.699184f, 0.352288f, -0.346289f, 0.017249f, 0.151730f, 0.280298f, 0.387434f, 0.106230f, 0.711588f, 0.001094f, -0.310593f, 0.092191f, 0.401693f, 0.172422f, 0.364802f, 0.495506f, 0.068869f, -0.003926f, 0.156673f, 0.032215f, 0.074700f, 0.000477f, 0.823624f, 0.057665f, 0.464307f, 0.074118f, -0.290124f, 0.121879f, 0.243883f, 0.318161f, -0.366476f, -0.053809f, -0.089290f, -0.633281f, -0.088791f, -0.021148f, -0.033734f, -0.092698f, 0.517306f, -1.352666f, 0.445015f, -0.347157f, -0.284455f, -0.041347f, -0.078056f, -0.074610f, 0.066005f, 0.142408f, 0.409013f, -0.188612f, -0.551355f, 0.049283f, -0.027087f, -0.000194f, 0.052810f, -0.112572f, 0.064904f, -0.642350f, 0.189556f, 0.165726f, 0.003299f, -0.028573f, 0.030859f, -0.132433f, 0.449560f, -0.574954f, -0.362352f, -0.066085f, 0.021076f, -0.174810f, -1.504028f, -0.136114f, 0.017105f, -0.193290f, -0.114772f, -0.248621f, -0.142416f, 0.281827f, -0.053741f, 0.037004f, 0.246818f, 0.156815f, -0.072097f, -0.174662f, -0.222810f, 0.203736f, 0.070155f, 0.928544f, -0.166562f, -0.187142f, 0.106541f, 0.073334f, 0.120583f, -0.188582f, -0.689581f, 0.257588f, 0.091011f, -0.023472f, -0.387360f, 0.074242f, -0.127680f, 0.134608f, -0.351168f, -0.242237f, 0.269401f, -0.061657f, 0.310185f, 0.049374f, 0.304404f, 0.400903f, 0.445685f, 0.329309f, -0.129451f, 0.066839f, -0.319181f, -0.004214f, -0.117161f, 0.182765f, 0.365328f, 0.182546f, 0.136578f, -0.069747f, -0.553726f, -0.147909f, -0.277302f, -0.153887f, -0.156881f, 0.084376f, 0.394370f, -0.493946f, 0.445489f, 0.114914f, -0.069508f, 0.921829f, 0.062176f, 0.203749f, 0.066065f, -0.044386f, 0.486493f, -0.097631f, -0.017560f, 0.017420f, 0.255569f, -0.157197f, 0.339014f, 0.125222f, -0.259746f, -0.875968f, -0.611248f, -0.355864f, -0.379198f, 0.204114f, 0.059050f, -0.030969f, 0.091794f, -0.064309f, 0.152499f, 0.039372f, -0.010136f, -0.054483f, 0.159029f, 0.000704f, -0.193725f, 0.212824f, -0.186146f, 0.145472f, 0.023854f, 0.254942f, 0.277197f, -0.018135f, 0.121429f, -0.058380f, -0.255939f, 0.128490f, -0.100268f, 0.015051f, -0.029351f, 0.149304f, 0.053676f, 0.118267f, -0.119284f, 0.104115f, 0.139957f, 0.010524f, 0.062378f, 0.096519f, -0.093478f, 0.020590f, -0.018054f, -0.114529f, -0.044239f, -0.161138f, -0.205432f, -0.115163f, 0.138947f, -0.031019f, 0.119284f, -0.043633f, -0.038808f, -0.006734f, -0.033780f, -0.214389f, 0.112840f, 0.124251f, 0.008420f, -0.028736f, -0.047789f, -0.132796f, 0.032816f, -0.224254f, -0.008277f, 0.222460f, -0.202347f, 0.176258f, 0.091350f, 0.066548f, -0.087355f, -0.138122f, 0.160397f, -0.287829f, 0.169557f, -0.038231f, -0.206769f, 0.183652f, 0.506355f, 0.096678f, 0.226621f, -0.126523f, -0.369164f, 0.071671f, -0.644513f, 0.100717f, 0.107972f, -0.454409f, -0.014472f, 0.752890f, 0.239187f, -0.109736f, -0.059831f, 0.134977f, 0.080074f, -0.177626f, 0.094409f, 0.191269f, 0.091181f, -0.024702f, -0.186935f, -0.388870f, 0.004400f, 0.350475f, 0.231229f, 0.115516f, 0.492436f, 0.475736f, -0.184341f, 0.504382f, -0.043088f, 0.003176f, 0.541862f, 0.773005f, -0.257075f, -0.301600f, 0.111638f, 0.073666f, -0.653795f, -0.290581f, -0.027972f, -0.037825f, 0.059589f, 0.293634f, -0.089516f, 0.358482f, -0.049770f, -0.141422f, -0.168931f, -0.190756f, 0.057100f, 0.479523f, -0.301316f, 0.030228f, 0.581718f, 0.062414f, 0.552395f, 1.166259f, 0.185017f, -0.565348f, -0.034861f, -0.424805f, -0.052822f, -0.279079f, 0.703281f, 0.038413f, -0.251086f, -0.133712f, -0.245479f, 0.157592f, -0.042109f, -0.110378f, 0.276153f, -0.481844f, 0.277591f, 0.148996f, -0.115395f, 0.353698f, -0.127039f, -0.542955f, 1.013973f, 1.381911f, -0.189484f, -0.214052f, 0.138208f, -0.191730f, -0.021898f, -0.030761f, -0.018714f, 0.018329f, 0.072290f, -0.741410f, -0.131589f, 0.052967f, -0.478451f, -0.124993f, 0.422346f, -0.216314f, 0.097413f, -0.015294f, -0.213552f, 0.346501f, -0.121920f, 0.020162f, 0.760842f, 1.532210f, -0.331583f, -0.001834f, 0.407970f, -0.615388f, 0.033056f, 0.832303f, 0.208320f, -0.200323f, -0.100573f, -0.445233f, -0.006709f, 0.295920f, -0.168332f, -0.425614f, 0.188887f, 0.306974f, 0.605204f, -0.238406f, -0.286834f, -0.388489f, -0.044850f, 0.134420f, 0.634858f, 0.857467f, -0.095026f, 0.182271f, 0.521031f, -0.353244f, 0.286999f, 0.276831f, 0.223355f, -0.100756f, -0.246840f, -0.152927f, -0.220414f, 0.120739f, -0.188840f, -0.372480f, 0.236603f, 0.447401f, -0.045755f, -0.929621f, -0.489308f, -0.608748f, 0.366748f, -0.186591f, -0.037125f, -0.046801f, -0.053704f, 0.297473f, -0.861221f, 0.015483f, -0.218469f, -0.016482f, 0.283426f, 0.095288f, 0.272764f, -0.195439f, 0.353673f, -0.110147f, 0.447119f, -0.558280f, 0.367726f, 0.217853f, -0.272284f, -0.373279f, 0.294834f, 0.211090f, 0.520883f, -0.225911f, 0.213797f, -0.037032f, 0.081295f, 0.111143f, -0.732197f, 0.063295f, 0.402981f, 0.175020f, -0.106639f, 0.337824f, 0.393438f, -0.064582f, 0.352040f, -0.037634f, 0.341378f, -1.345712f, 0.293083f, 0.459673f, -0.268150f, -0.004110f, 0.022382f, 0.409749f, 0.065306f, 0.147800f, -0.122542f, -0.124142f, -0.132858f, 0.136828f, 0.466451f, 0.022884f, 0.311359f, -0.127316f, 0.219074f, 0.212880f, 0.005013f, 0.023397f, -0.082766f, 0.176299f, 0.456719f, -0.963278f, 0.136678f, 0.334334f, -0.470512f, 0.002063f, 0.391592f, 0.355068f, -0.088884f, 0.489224f, 0.340179f, 0.165397f, -0.285200f, -0.113139f, -0.229923f, 0.552085f, -0.188858f, -0.322077f, 0.181514f, 0.207283f, -0.281188f, 0.351579f, -0.422320f, 0.114803f, 0.273179f, -0.960538f, -0.356169f, 0.138330f, -0.326016f, 0.663327f, 0.089209f, 0.171159f, -0.334938f, -0.040069f, 0.440594f, 0.171607f, -0.154634f, 0.140154f, -0.331912f, 0.201534f, 0.078015f, -0.552192f, 0.222156f, -0.076941f, -0.127407f, 0.169803f, -0.111147f, 0.187697f, 0.062735f, -0.119327f, 0.225460f, 0.064304f, -0.024138f, 0.126174f, -0.176249f, -0.166936f, -0.138819f, -0.425976f, 0.103207f, 0.030251f, -0.243402f, 0.147267f, -0.048163f, 0.232552f, 0.131780f, -0.175134f, -0.112211f, -0.197357f, 0.028801f, -0.059039f, -0.145744f, 0.008898f, -0.036988f, 0.119953f, -0.147809f, 0.044261f, 0.153348f, 0.008742f, 0.137572f, -0.125837f, 0.000722f, -0.077329f, 0.070684f, 0.173765f, -0.072848f, 0.051360f, -0.099082f, 0.010022f, -0.037954f, 0.154195f, 0.025927f, -0.083567f, -0.155115f, -0.129427f, -0.077338f, -0.084930f, 0.249236f, 0.088451f, 0.043755f, -0.077863f, 0.095449f, -0.004299f, -0.094820f, 0.214088f, 0.042109f, -0.025515f, 0.121569f, -0.000437f, -0.309666f, 0.161994f, 0.106660f, 0.047479f, 0.067427f, -0.051515f, 0.435065f, -0.189466f, -0.041890f, -0.010789f, -0.102948f, -0.314740f, -0.242732f, 0.243098f, 0.504885f, 0.163256f, -0.214992f, -0.149611f, 0.075084f, 0.074461f, 0.342586f, 0.105853f, 0.677241f, 0.230070f, -0.369878f, -0.194552f, 0.222819f, 0.060097f, -0.089902f, -0.781261f, 0.282664f, -0.215565f, -0.153964f, 0.093965f, -0.131634f, -0.179209f, 0.030296f, -0.150116f, 0.523115f, -0.229478f, 0.154446f, 0.396968f, 0.347781f, 0.099095f, 0.160654f, -0.144327f, 0.466818f, 0.208470f, 0.103269f, 0.600422f, -0.214861f, -0.001743f, -0.496142f, -0.081036f, 0.286729f, -0.148891f, 0.079106f, -0.095289f, -0.044560f, 0.345785f, 0.354846f, -0.088902f, 0.290732f, 0.479788f, -0.017214f, 0.740413f, 0.344037f, 0.095515f, 0.412499f, 0.110918f, 0.505559f, -0.181204f, 0.046711f, 0.455122f, 0.421174f, -0.005910f, -0.588046f, -0.321199f, 0.139359f, -0.088059f, 0.275746f, -0.106440f, 0.077807f, 0.165717f, 0.150480f, 0.030302f, 0.254050f, 0.253934f, -0.061854f, 0.415351f, -0.085157f, -0.146513f, 0.134733f, 0.047340f, 0.077759f, -0.405412f, 0.329729f, 0.529690f, 0.319411f, 0.031769f, -0.369192f, 0.369985f, 0.260782f, -0.438211f, 0.129958f, -0.033589f, 0.125641f, 0.015455f, -0.284733f, 0.061186f, 0.501651f, -0.007680f, 0.250280f, 0.553637f, 0.402677f, 0.013785f, -0.237293f, -0.008478f, -0.335578f, -0.666618f, 0.559749f, 0.372359f, 0.241272f, -0.469610f, 0.476555f, 0.987328f, -0.007591f, -0.149482f, -0.616565f, 0.595779f, -0.303159f, 0.232007f, -0.110529f, -0.037434f, 0.114041f, 0.104268f, 0.463884f, 0.067817f, -0.553843f, -0.155459f, -0.164105f, 0.470992f, -0.082025f, -0.403019f, -0.088996f, -0.033008f, 0.035103f, 0.299659f, 0.441310f, 0.108115f, -0.026940f, -0.229576f, 0.011830f, 0.220897f, -0.274628f, 0.093541f, -0.097571f, 0.024382f, 0.285095f, 0.082349f, 0.091688f, -0.010223f, -0.361855f, 0.163308f, 0.231266f, 0.122460f, -0.107769f, 0.202559f, -0.261160f, -0.081029f, -0.535650f, -0.030909f, -0.201505f, 0.030949f, 0.057316f, 0.237931f, -0.002197f, -0.139836f, 0.040015f, 0.044274f, 0.099344f, 0.697231f, 0.193374f, 0.126764f, 0.122539f, -0.238187f, -0.593936f, 0.448344f, 0.089055f, 0.162360f, 0.226395f, 0.205493f, -0.051166f, -0.216883f, 0.050381f, -0.020034f, -0.077913f, 0.043620f, 0.186631f, 0.111712f, 0.516895f, 0.399824f, -0.109247f, -0.207570f, 0.335651f, 0.082068f, 0.473321f, -0.152789f, -0.008122f, 0.347992f, -0.606829f, 0.099234f, 0.164031f, 0.479490f, 0.489959f, 0.257340f, -0.181162f, -0.009557f, 0.122861f, 0.102196f, -0.566547f, 0.243922f, 0.298333f, 0.289623f, 0.457303f, 0.281417f, 0.004584f, -0.174613f, -0.011156f, 0.134588f, -0.466947f, 0.107717f, -0.353542f, -0.358669f, -0.774179f, -0.484522f, 0.343880f, 0.367250f, 0.601121f, -0.054960f, -0.228421f, -0.034743f, -0.529989f, -0.079754f, -0.552472f, -0.766718f, 0.114693f, 0.444014f, 0.476333f, 0.033190f, 0.044701f, -0.079054f, 0.017473f, -0.154269f, -0.416310f, -0.062057f, -0.468806f, 0.239586f, 0.150503f, 0.197157f, -0.125151f, 0.205129f, 0.177940f, 0.270530f, -0.091110f, -0.170941f, -0.120826f, 0.041623f, -0.259064f, -0.316537f, 0.033257f, 0.163108f, -0.056873f, 0.249075f, 0.390000f, -0.223030f, 0.135956f, -0.070383f, -0.061909f, -0.202799f, -0.112098f, 0.204364f, -0.182628f, -0.082272f, -0.160434f, -0.176294f, -0.260170f, 0.232438f, 0.112628f, -0.096874f, -0.213531f, -0.011444f, 0.188612f, -0.105089f, 0.011412f, -0.078054f, 0.083117f, -0.170800f, -0.025205f, 0.095507f, -0.004283f, 0.169632f, 0.118763f, -0.108698f, 0.131206f, -0.144043f, -0.021971f, -0.138586f, -0.139005f, -0.025468f, -0.064009f, -0.000507f, -0.062424f, -0.149525f, -0.124991f, 0.119384f, 0.040316f, 0.082056f, 0.108461f, 0.036625f, 0.093210f, -0.027370f, 0.006517f, -0.073247f, -0.030271f, 0.096478f, 0.127905f, -0.167272f, 0.164155f, -0.084156f, 0.056960f, 0.238738f, 0.296694f, 0.200993f, -0.252803f, -0.058880f, 0.249883f, 0.090338f, 0.081438f, -0.082884f, -0.142870f, -0.158856f, 0.175430f, -0.137446f, -0.207682f, -0.220429f, 0.092363f, -0.231550f, 0.044924f, -0.443052f, -0.264134f, 0.680847f, -0.033202f, 0.318125f, 0.118990f, -0.076534f, 0.110365f, -0.158134f, 0.173959f, -0.797435f, 0.512394f, -0.386905f, 0.065235f, 0.243190f, -0.080997f, -0.209285f, 0.070009f, -0.193889f, 0.071372f, -0.376668f, -0.216581f, -0.077034f, 0.664485f, -0.162790f, -0.074231f, -0.088830f, -0.494447f, -0.031649f, 0.081883f, -0.052765f, 0.386946f, 0.251730f, -0.057826f, -0.948622f, 0.633759f, -0.487761f, 0.068966f, 0.080236f, 0.349348f, -0.388629f, 0.070886f, -0.206755f, 0.273138f, -0.048734f, -0.175006f, 0.156578f, 0.422675f, -0.262606f, 0.233435f, 0.140757f, -0.239686f, -0.003779f, 0.157785f, 0.040466f, 0.097080f, 0.186770f, 0.151091f, -0.583236f, 0.574776f, -0.090341f, 0.047211f, 0.614466f, -0.274909f, -0.109837f, 0.067257f, -0.347132f, 0.203742f, -0.119318f, 0.008331f, 0.175818f, 0.151370f, -0.171672f, 0.103583f, 0.028073f, -0.158057f, 0.344239f, 0.223346f, -0.349914f, 0.089525f, -0.038637f, -0.245848f, -0.082360f, 0.149975f, 0.152073f, -0.074878f, 0.604722f, -0.481189f, 0.128038f, 0.324107f, -0.301642f, -0.426980f, 0.053013f, 0.451276f, 0.438376f, -0.301844f, 0.016190f, 0.124957f, -0.020661f, 0.530554f, 0.228171f, -0.060174f, 0.040402f, -0.192285f, -0.013476f, 0.255761f, -0.028110f, 0.440349f, -0.011436f, 0.257551f, 0.052517f, 0.527613f, 0.057579f, -0.102174f, -0.075840f, -0.063529f, 0.307839f, 0.052502f, 0.394238f, 0.215492f, -0.006822f, 0.909577f, -0.043989f, 0.262171f, -0.000575f, -0.327893f, -0.186118f, 0.057631f, 0.445170f, -0.071859f, -0.161718f, 0.103675f, -0.005015f, -0.204913f, 0.079521f, 0.468332f, 0.481519f, -0.446493f, -0.008788f, 0.462005f, 0.210643f, 0.254048f, 0.123509f, 0.062976f, -0.000665f, -0.091966f, 0.159190f, -0.082701f, -0.068343f, -0.259018f, 0.256664f, 0.367387f, -0.146225f, -0.270041f, -0.167063f, 0.351532f, -0.293314f, -0.111435f, 0.261495f, 0.291253f, 0.401724f, 0.184655f, 0.115817f, -0.343764f, -0.023943f, 0.157838f, -0.093366f, 0.163018f, 0.223355f, -0.329998f, 0.133438f, -0.395438f, -0.233126f, -0.631504f, -0.057794f, 0.291561f, -0.043843f, 0.032649f, 0.188258f, 0.062975f, -0.217162f, -0.092548f, -0.062496f, -0.308676f, 0.117301f, 0.004880f, -0.084643f, 0.130693f, 0.319267f, 0.143317f, -0.180563f, -0.139349f, 0.483321f, -0.448892f, 0.467088f, -0.485950f, -0.702571f, -0.330135f, 0.051927f, 0.676078f, 0.257140f, 0.175819f, 0.035835f, -0.064680f, -0.326533f, -0.017796f, -0.293992f, -0.040626f, 0.238181f, 0.125306f, 0.292966f, 0.232338f, 0.031137f, -0.104636f, -0.230195f, 0.024806f, -0.063473f, -0.486873f, -0.164960f, -0.102749f, -0.235455f, -0.375481f, 0.229698f, 0.198554f, 0.488862f, 0.165483f, 0.197442f, 0.151274f, 0.517123f, 0.239955f, 0.252366f, -0.657625f, -0.558495f, 0.690211f, -0.438199f, 0.425742f, 0.299471f, 0.142058f, 0.013547f, -0.511098f, -0.011755f, 0.151989f, -0.154170f, -0.193722f, 0.191700f, 0.252785f, 0.310612f, -0.334013f, -0.250711f, 0.113386f, 0.205488f, 0.257131f, 0.055033f, 0.183666f, -0.312706f, -0.259403f, -0.279942f, 0.150051f, 0.044801f, 0.165064f, 0.238239f, -0.216578f, -0.448699f, 0.040025f, -0.065111f, -0.152979f, 0.018466f, 0.171338f, -0.112816f, 0.071826f, -0.034730f, 0.009460f, -0.056967f, -0.088474f, 0.086291f, 0.157133f, -0.108998f, -0.083360f, 0.029023f, -0.167079f, -0.051679f, -0.345804f, 0.106908f, -0.021643f, -0.075097f, -0.059402f, -0.056869f, -0.021618f, -0.010981f, 0.028962f, 0.039173f, -0.161841f, -0.011992f, 0.137441f, -0.005771f, 0.067527f, -0.061993f, 0.093389f, 0.090005f, -0.031887f, 0.157206f, -0.123231f, -0.114404f, 0.130030f, 0.103989f, -0.099444f, -0.107593f, -0.144963f, -0.069696f, 0.067479f, 0.006549f, -0.171544f, 0.168621f, 0.015588f, -0.201635f, 0.030027f, 0.055766f, 0.008568f, -0.001081f, 0.233098f, 0.057252f, -0.200862f, 0.056031f, 0.189181f, 0.006433f, -0.084780f, -0.037057f, -0.004598f, 0.009309f, 0.083460f, -0.159357f, -0.154029f, 0.093269f, 0.325062f, 0.127966f, 0.072311f, -0.146415f, -0.515323f, 0.226061f, -0.076328f, 0.168848f, 0.031358f, 0.202315f, 0.238614f, -0.392753f, -0.337843f, -0.314058f, 0.486248f, -0.195409f, -0.215513f, -0.024569f, 0.212861f, -0.109084f, 0.010761f, 0.255503f, 0.173870f, -0.397389f, -0.324944f, -0.954436f, 0.057755f, -0.060731f, -0.287509f, -0.078772f, -0.179443f, -0.216365f, -0.117117f, -0.028255f, 0.197966f, 0.076310f, 0.151443f, 0.037349f, 0.211300f, -0.989297f, 0.334748f, -0.282062f, 0.286122f, -0.561868f, 0.205902f, 0.348232f, 0.235228f, -0.101092f, -0.062991f, -1.038444f, 0.177470f, 0.098926f, -0.354216f, -0.346068f, 0.283088f, 0.235543f, -0.078562f, -0.289552f, 0.350500f, -0.177718f, 0.138780f, 0.109722f, -0.015542f, -1.089101f, 0.262357f, -0.258232f, 0.274143f, -0.181951f, -0.053917f, 0.125106f, 0.352125f, 0.082219f, 0.101324f, -0.619367f, -0.126407f, -0.354622f, -0.558923f, -0.362343f, 0.360663f, 0.041048f, -0.058952f, -0.166177f, -0.271840f, 0.064525f, 0.097047f, -0.034260f, 0.183794f, -0.955722f, 0.031079f, 0.452286f, 0.340559f, 0.054656f, 0.026878f, 0.273561f, 0.380284f, -0.009235f, 0.303108f, -0.098313f, -0.597382f, -0.438345f, 0.058478f, -0.357244f, 0.617696f, 0.522534f, 0.054781f, 0.045551f, -0.282370f, -0.094092f, -0.071897f, 0.165366f, -0.114113f, -0.947544f, -0.185766f, 0.637254f, 0.015815f, -0.065449f, 0.043723f, -0.030875f, 0.390860f, 0.179600f, 0.386346f, 0.161718f, 0.130835f, 0.328925f, 0.191525f, 0.110407f, -0.247808f, 0.061402f, -0.230629f, 0.178231f, 0.168947f, 0.244352f, -0.414847f, -0.302270f, 0.300772f, -0.403538f, -0.068278f, 0.140722f, -0.156451f, 0.175741f, 0.032606f, 0.321348f, -0.441659f, -0.166637f, 0.035721f, -0.184203f, 0.426577f, 0.267077f, -0.287967f, 0.383135f, -0.598014f, -0.059924f, -0.118628f, 0.107502f, 0.535872f, -0.025498f, 0.208723f, 0.093005f, 0.394043f, 0.041762f, 0.172625f, 0.045073f, -0.003160f, 0.394621f, -0.032259f, 0.233108f, -0.513825f, 0.208870f, 0.101043f, -0.289718f, 0.122140f, 0.151735f, -0.568551f, 0.459263f, -0.771062f, -0.201290f, -0.384576f, -0.228622f, 0.559731f, 0.031733f, 0.104106f, 0.010436f, 0.294316f, -0.066253f, 0.136806f, -0.096748f, -0.041751f, -0.397255f, 0.079079f, -0.149439f, 0.158833f, -0.412691f, 0.207347f, -0.208878f, 0.002693f, 0.289743f, -0.214816f, 0.121745f, -0.513092f, -0.358385f, 0.151574f, 0.089747f, 0.368656f, 0.091869f, -0.057666f, 0.019515f, 0.205651f, 0.041386f, -0.031253f, -0.372101f, -0.307403f, -0.379344f, 0.486457f, 0.124344f, -0.305528f, -0.075766f, 0.313530f, 0.057771f, -0.231921f, 0.022136f, 0.172999f, -0.589242f, -0.029168f, -0.075296f, 0.024601f, -0.030056f, -0.308180f, 0.044603f, -0.038649f, -0.083935f, 0.140673f, 0.376773f, 0.230996f, -0.056711f, -0.115011f, 0.012059f, 0.782309f, -0.553892f, 0.309257f, 0.415258f, 0.340545f, 0.152653f, -0.152868f, 0.236361f, -0.150773f, -0.210547f, -0.130167f, -0.410104f, -0.173569f, -0.004620f, -0.388878f, 0.415225f, -0.242095f, 0.053561f, 0.005990f, 0.214396f, -0.039298f, -0.015655f, -0.072147f, -0.581060f, -0.194247f, -0.225467f, 0.049328f, 0.303631f, 0.001530f, -0.051886f, 0.045806f, 0.062614f, -0.139236f, 0.016374f, 0.051834f, 0.055055f, 0.114726f, -0.140633f, -0.031582f, -0.177089f, -0.184641f, 0.058201f, 0.113331f, -0.015735f, 0.084358f, -0.057014f, 0.004363f, -0.228511f, -0.282211f, 0.216740f, 0.001616f, 0.108420f, 0.086697f, -0.062826f, -0.118503f, -0.041378f, 0.149709f, 0.059320f, 0.056086f, 0.027689f, -0.075318f, -0.029846f, 0.067233f, -0.116716f, -0.091399f, -0.039093f, -0.029550f, 0.182091f, -0.143831f, 0.001940f, -0.113435f, 0.147807f, -0.127304f, -0.044836f, 0.081809f, 0.062187f, -0.033741f, -0.066544f, -0.395756f, 0.105178f, -0.021253f, 0.148799f, -0.170713f, -0.137379f, -0.062443f, 0.225721f, 0.155678f, -0.270107f, -0.081425f, 0.113289f, 0.134658f, -0.043692f, 0.017636f, 0.122849f, 0.106338f, -0.044336f, 0.072202f, -0.136180f, 0.066837f, -0.051077f, 0.136807f, 0.097321f, 0.142835f, 0.419817f, 0.017102f, 0.511747f, -0.239010f, 0.022095f, -0.200297f, 0.069603f, 0.167501f, 0.097782f, -0.214527f, 0.199529f, 0.399680f, 0.057615f, -0.041665f, -0.335937f, -0.143826f, 0.085807f, -0.092315f, -0.276168f, -0.163134f, 0.087772f, -0.025653f, -0.482599f, 0.108323f, 0.241698f, -0.421775f, 0.161567f, -0.255133f, -0.119036f, -0.001577f, 0.060760f, 0.106057f, -0.218042f, 0.090827f, 0.038734f, -0.032388f, 0.402909f, -0.301581f, -1.028848f, 0.336706f, -0.153902f, -0.460666f, 0.202024f, -0.147779f, -0.229753f, -0.019034f, -0.906720f, 0.081734f, -0.347819f, -0.389448f, 0.004894f, 0.164943f, 0.022082f, 0.209986f, -0.068031f, -0.016629f, -0.026136f, 0.201149f, -0.136938f, 0.352617f, 0.272565f, -0.015728f, -0.774244f, 0.354008f, -0.260041f, 0.008409f, -0.100395f, -0.004806f, -0.047772f, -0.097324f, -1.521595f, -0.173985f, -0.139974f, -0.710000f, 0.117862f, 0.301167f, -0.166010f, -0.481730f, -0.131212f, -0.314760f, -0.522147f, 0.212890f, -0.009057f, -0.423541f, 0.232103f, -0.152717f, -0.519579f, 0.162321f, -0.185316f, -0.119459f, 0.355962f, 0.456438f, -0.163313f, 0.145866f, -1.784658f, -0.301789f, 0.019883f, -0.431215f, 0.120340f, 0.415824f, 0.360176f, -0.439675f, 0.077410f, -0.402816f, 0.517433f, -0.127781f, 0.011723f, -0.379358f, 0.425463f, 0.027424f, 0.115828f, -0.419861f, 0.326464f, -0.048944f, -0.017091f, 0.159034f, 0.332446f, 0.056464f, -1.423408f, 0.211181f, 0.307280f, -0.258768f, 0.495853f, -0.797777f, -0.054929f, -0.261567f, -0.075135f, 0.672716f, 0.276877f, -0.028625f, 0.188902f, 0.494736f, -0.053423f, -0.042486f, 0.038695f, -0.241524f, 0.077233f, -0.188562f, 0.424692f, -0.561071f, -0.034704f, -0.039465f, -0.747899f, 0.117139f, 0.124598f, 0.117864f, 0.307914f, -0.899773f, -0.254452f, 0.334892f, -0.163519f, 0.695408f, 0.397299f, 0.053560f, 0.007666f, 0.030841f, -0.093354f, -0.499598f, -0.062758f, -0.028830f, -0.311316f, -0.489222f, 0.249392f, 0.047051f, 0.074180f, 0.164799f, -0.032063f, -0.102558f, -0.098897f, -0.161062f, -0.005025f, -0.180051f, -0.084836f, 0.185946f, -0.303690f, 0.351483f, 0.245596f, 0.108331f, -0.225612f, 0.197033f, 0.068710f, -0.276358f, -0.236091f, 0.136658f, -0.285946f, 0.092129f, 0.063389f, -0.077028f, 0.268323f, -0.113567f, 0.046966f, -0.551257f, 0.100497f, 0.146175f, -0.366450f, 0.253626f, -0.585958f, 0.125516f, -0.327993f, 0.110914f, -0.074284f, 0.134058f, 0.169093f, 0.463185f, -0.086818f, -0.113322f, 0.021505f, 0.339150f, -0.122336f, 0.718275f, 0.111469f, 0.215468f, 0.179680f, 0.318822f, 0.096981f, -0.651396f, 0.011719f, -0.153235f, -0.293353f, -0.000660f, -0.000430f, -0.301953f, -0.154929f, 0.089520f, 0.209395f, 0.016933f, 0.216158f, 0.193137f, -0.350184f, 0.009099f, -0.429038f, -0.070292f, -0.181490f, 0.100717f, 0.063448f, 0.184737f, 0.056750f, 0.292814f, -0.121328f, -0.221792f, 0.140963f, -0.311694f, -0.189307f, 0.051546f, -0.044190f, -0.519129f, -0.343164f, -0.171072f, -0.217708f, 0.238157f, -0.338843f, -0.128026f, 0.106291f, -0.042353f, -0.228576f, -0.122976f, -0.341649f, -0.092122f, 0.342878f, -0.086630f, -0.022284f, 0.341468f, 0.090062f, 0.132432f, -0.001021f, -0.001158f, 0.065341f, 0.270722f, -0.110722f, 0.030410f, -0.111761f, -0.083570f, 0.097517f, -0.205872f, -0.063754f, -0.071325f, 0.008573f, 0.017820f, -0.013136f, -0.028855f, -0.081312f, -0.307868f, 0.076300f, 0.034882f, 0.076560f, 0.199085f, 0.054666f, 0.105754f, -0.078719f, 0.064198f, -0.069990f, 0.143329f, 0.042843f, -0.057844f, -0.075352f, -0.108509f, 0.066919f, -0.081857f, 0.025847f, -0.073156f, 0.055240f, 0.103611f, 0.090049f, 0.067742f, -0.089409f, -0.135592f, 0.064246f, -0.040072f, -0.018951f, -0.157815f, -0.078943f, -0.270134f, -0.058228f, 0.039328f, -0.053946f, -0.144399f, -0.082238f, 0.091426f, 0.368025f, 0.231659f, -0.101105f, -0.115470f, 0.291422f, 0.211506f, 0.172927f, -0.121276f, 0.170601f, -0.476456f, -0.401462f, 0.081257f, 0.210613f, 0.053495f, 0.224939f, 0.382666f, 0.242583f, 0.184298f, 0.223343f, -0.092303f, 0.104528f, -0.122509f, -0.036459f, -0.064302f, 0.041875f, -0.133495f, -0.213686f, 0.141195f, 0.093507f, 0.031067f, 0.089135f, -0.058545f, 0.443603f, -0.233888f, 0.014116f, 0.554015f, 0.519968f, -0.402515f, 0.151184f, -0.028650f, 0.145037f, -0.445553f, 0.528895f, 0.006593f, -0.326836f, 0.165082f, -0.250853f, 0.381316f, -0.120740f, 0.114589f, -0.189347f, 0.505877f, 0.204466f, 0.080085f, 0.039104f, -0.104369f, 0.360881f, 0.193370f, 0.073084f, -0.210368f, 0.308487f, 0.105822f, 0.489545f, 0.121687f, -0.203734f, -0.063881f, 0.418331f, -0.209160f, 0.461580f, 0.110357f, 0.060808f, 0.039059f, 0.057173f, 0.138088f, -0.115633f, 0.355077f, 0.215920f, -0.208586f, 0.419804f, -0.095189f, 0.066474f, -0.074854f, -0.077252f, 0.067151f, 0.358376f, -0.165035f, 0.146698f, 0.314690f, 0.112278f, 0.275072f, 0.308828f, -0.253918f, 0.421230f, -0.044775f, -0.143743f, 0.195655f, -0.082799f, -0.320980f, -0.063450f, 0.243910f, 0.108269f, 0.196614f, 0.422280f, 0.158985f, -0.168604f, -0.211764f, 0.082738f, 0.067597f, 0.097969f, -0.684533f, -0.088631f, 0.342742f, 0.457263f, -0.148075f, 0.120408f, -0.153310f, 0.449115f, 0.206943f, 0.060356f, 0.457788f, -0.211920f, 0.181140f, 0.273023f, 0.397497f, 0.189817f, -0.688615f, 0.700232f, -0.181065f, -0.053376f, -0.550068f, -0.341376f, -0.406570f, -0.120368f, -0.276292f, 0.273546f, 0.117700f, 0.453415f, -0.186963f, 0.286569f, 0.280109f, 0.188706f, -0.232640f, 0.154013f, 0.344836f, -0.059918f, -0.004618f, 0.337495f, -0.101766f, -0.097942f, -0.505595f, -0.011808f, 0.062105f, 0.042821f, 0.009307f, 0.115990f, 0.036300f, 0.343746f, 0.428755f, 0.148151f, 0.608885f, 0.217090f, 0.084761f, 0.321083f, 0.010315f, 0.005968f, -0.214978f, 0.097519f, 0.104921f, 0.208095f, 0.125153f, 0.105510f, 0.101873f, -0.223149f, 0.048070f, -0.389118f, 0.157491f, -0.033898f, 0.271746f, -0.261197f, 0.039225f, 0.305150f, 0.578686f, -0.129088f, 0.097705f, -0.306617f, -0.596071f, 0.103315f, 0.240038f, -0.162665f, 0.111302f, -0.198920f, 0.404533f, 0.083911f, -0.228574f, -0.233698f, 0.049194f, 0.116381f, -0.172943f, 0.285829f, -0.110850f, 0.326125f, -0.107419f, -0.118598f, 0.349300f, 0.408387f, 0.239113f, -0.194414f, 0.366235f, -0.241470f, -0.473081f, 0.224717f, -0.165946f, -0.599254f, 0.155105f, -0.044289f, 0.554077f, 0.243402f, 0.275365f, 0.043207f, -0.065871f, -0.296027f, 0.216196f, 0.161150f, -0.278082f, -0.069789f, 0.280664f, -0.256083f, 0.750216f, 0.536399f, 0.012332f, 0.320236f, 0.273539f, -0.072174f, -0.383578f, 0.061299f, 0.008536f, -0.362858f, 0.141117f, 0.354016f, 0.437552f, -0.004246f, 0.239955f, -0.180865f, -0.120043f, 0.222684f, -0.249377f, 0.034945f, -0.560679f, -0.479614f, 0.086845f, -0.473393f, -0.286250f, 0.358250f, 0.068472f, -0.058384f, 0.145835f, 0.230449f, -0.080159f, 0.406719f, 0.171233f, -0.100748f, 0.093444f, 0.193100f, -0.040503f, -0.388309f, -0.147026f, -0.338062f, 0.028234f, -0.070745f, -0.320426f, -0.086634f, -0.425850f, -0.337514f, 0.291131f, -0.263266f, -0.007938f, 0.429489f, 0.033306f, -0.048292f, -0.184790f, -0.168631f, 0.061929f, -0.125933f, 0.032844f, -0.040274f, -0.103378f, -0.036150f, 0.109566f, -0.035432f, 0.055185f, -0.095699f, 0.102548f, -0.081069f, 0.082623f, 0.026139f, 0.124726f, -0.045604f, -0.172528f, -0.166343f, 0.109441f, 0.010366f, 0.115318f, -0.086346f, -0.040133f, -0.155099f, 0.151878f, 0.055210f, 0.142634f, -0.077202f, 0.036698f, 0.058754f, -0.060073f, 0.114593f, 0.147257f, 0.126695f, 0.078652f, -0.073255f, -0.071889f, 0.152597f, -0.161206f, 0.071127f, 0.067896f, 0.040348f, 0.161335f, -0.061912f, -0.052678f, -0.138571f, -0.018816f, -0.078652f, -0.104145f, 0.086337f, 0.169904f, -0.180528f, -0.168176f, 0.251954f, -0.077892f, -0.247510f, -0.169246f, -0.012573f, -0.104454f, 0.087538f, -0.023029f, 0.058331f, -0.083961f, 0.023920f, 0.039136f, 0.129663f, 0.069067f, 0.099346f, 0.192302f, 0.068061f, 0.041988f, -0.018339f, -0.171228f, 0.436519f, 0.036199f, -0.292612f, 0.207657f, -0.027740f, 0.305089f, -0.230871f, -0.442187f, -0.408712f, -0.200019f, -0.310221f, 0.140645f, 0.056366f, -0.036438f, 0.523190f, -0.170548f, -0.435208f, 0.388950f, 0.043116f, -0.039334f, -0.000503f, 0.401429f, 0.199496f, 0.266849f, 0.142802f, 0.138975f, -0.299527f, 0.459619f, -0.041072f, 0.697105f, 0.118251f, 0.155825f, -0.334044f, 0.290695f, 0.025672f, 0.183135f, -0.248977f, -0.121700f, 0.240517f, -0.090047f, -0.354648f, -0.275853f, -0.307353f, -0.376616f, 0.354578f, -0.191030f, 0.269067f, 0.130011f, 0.286722f, 0.163169f, 0.116134f, -0.239393f, 0.128520f, 0.611027f, -0.247141f, 0.159392f, 0.202633f, 0.208854f, 0.000971f, -0.284053f, 0.409667f, 0.203475f, 0.254207f, -0.474267f, -0.085905f, -0.286633f, 0.164054f, -0.384620f, 0.091506f, -0.085000f, 0.220304f, 0.130478f, 0.329730f, 0.150144f, -0.067983f, -0.029506f, 0.251646f, 0.616701f, 0.118707f, 0.117663f, -0.110544f, 0.223846f, 0.263949f, 0.068522f, 0.113054f, 0.019702f, 0.509356f, 0.141473f, 0.140256f, -0.436117f, 0.168118f, -0.017289f, 0.322311f, 0.486673f, 0.454883f, 0.110117f, -0.259396f, 0.120928f, 0.144389f, 0.322906f, 0.184545f, 0.637385f, -0.046698f, 0.205694f, -0.001200f, 0.475290f, 0.037014f, 0.072898f, 0.328021f, -0.159452f, -0.127065f, 0.355183f, -0.129826f, -0.380340f, -0.015819f, 0.222386f, 0.248201f, -0.103890f, 0.007745f, -0.027930f, -0.040190f, 0.069302f, -0.219371f, -0.068184f, -0.145578f, 0.552457f, -0.144004f, 0.083243f, -0.139223f, 0.429692f, 0.179940f, -0.636135f, 0.315905f, -0.157740f, 0.073313f, 0.302949f, -0.253082f, -0.114448f, -0.013574f, 0.263378f, -0.168557f, 0.234707f, 0.005497f, -0.466216f, 0.111299f, 0.035851f, -0.158533f, -0.031094f, 0.240667f, 0.336191f, -0.030803f, 0.157811f, 0.015262f, 0.188634f, 0.372939f, -0.537243f, -0.017787f, -0.232306f, -0.162467f, -0.038032f, 0.052482f, 0.448836f, 0.266908f, 0.051637f, 0.040213f, 0.175275f, -0.195177f, -0.597997f, 0.246878f, 0.794073f, -0.709418f, -0.205342f, 0.324795f, 0.454604f, -0.083729f, 0.267984f, 0.083786f, -0.025036f, 0.135077f, -0.357722f, 0.165987f, 0.233779f, -0.313791f, -0.327676f, 0.006242f, 0.564150f, 0.335249f, 0.286458f, 0.061162f, 0.201560f, -0.235300f, -0.254967f, -0.058020f, 0.147475f, -0.749422f, 0.354087f, 0.506121f, 0.290065f, 0.071639f, 0.162316f, -0.393599f, -0.021869f, -0.295024f, -0.182319f, -0.067635f, -0.133859f, 0.006994f, -0.066807f, -0.367911f, 0.017673f, 0.571415f, 0.087789f, -0.208185f, 0.275261f, -0.424284f, 0.145948f, -0.138298f, -0.158963f, -0.471782f, 0.139861f, 0.341488f, 0.462437f, 0.262457f, -0.117194f, -0.222488f, 0.236924f, -0.317318f, -0.592059f, 0.189131f, -0.085315f, -0.190885f, 0.138461f, -0.160902f, -0.182740f, 0.517551f, 0.117089f, 0.436098f, 0.074370f, 0.023858f, 0.147344f, 0.423379f, -0.066721f, -0.175788f, -0.057087f, 0.312908f, -0.025633f, 0.021550f, 0.025059f, -0.309379f, -0.337735f, -0.027242f, -0.203351f, 0.084735f, 0.037715f, -0.168847f, 0.095572f, -0.047998f, -0.047549f, 0.339603f, 0.145170f, -0.055625f, -0.235273f, 0.095836f, 0.037803f, -0.140526f, -0.149709f, -0.035543f, 0.107839f, -0.113637f, 0.050920f, -0.057247f, 0.124854f, 0.167150f, -0.095105f, -0.081013f, -0.009296f, -0.046873f, 0.042558f, 0.101445f, 0.054113f, 0.089339f, -0.036310f, -0.109609f, 0.086035f, -0.098801f, 0.074464f, -0.097597f, -0.137853f, 0.162151f, -0.113174f, 0.160781f, 0.157114f, 0.096721f, 0.052480f, 0.025613f, 0.120515f, -0.069314f, -0.010639f, 0.039302f, -0.029235f, -0.023870f, -0.055868f, 0.021144f, 0.115404f, -0.098253f, 0.143009f, 0.062245f, 0.106417f, 0.018497f, 0.092013f, -0.159260f, 0.021554f, -0.092409f, 0.173511f, 0.187325f, -0.120674f, -0.085564f, 0.094351f, -0.095045f, 0.106147f, -0.137432f, -0.119094f, 0.152446f, 0.043576f, 0.136937f, -0.057763f, 0.140732f, 0.113189f, 0.029524f, 0.080620f, -0.008361f, 0.001437f, -0.035586f, 0.040758f, 0.011038f, 0.072972f, -0.019184f, -0.178267f, -0.101943f, -0.127720f, -0.353909f, -0.081628f, 0.031029f, 0.308956f, -0.240502f, -0.094722f, -0.094636f, -0.004939f, 0.491258f, -0.009338f, 0.065803f, -0.006732f, -0.113127f, -0.120639f, -0.400836f, 0.101652f, 0.084535f, -0.097224f, 0.411030f, -0.249019f, 0.062083f, -0.005269f, -0.833327f, 0.092606f, 0.042573f, 0.475600f, 0.006173f, 0.092399f, 0.008269f, -0.096707f, 0.169127f, -0.575239f, 0.563338f, 0.252113f, 0.033573f, 0.362328f, -0.024556f, -0.202893f, -0.222088f, 0.399833f, 0.338172f, -0.010390f, 0.616212f, -0.284880f, -0.177914f, 0.155451f, -0.418939f, 0.048244f, -0.101455f, 0.884757f, -0.240833f, 0.148367f, -0.018348f, -0.157102f, -0.381219f, -0.684433f, -0.002147f, 0.097675f, 0.068716f, 0.156494f, 0.090472f, 0.085288f, -0.239829f, 0.411449f, 0.082591f, 0.085070f, 0.400762f, -0.026574f, 0.085997f, -0.047602f, -0.868101f, 0.032884f, 0.109679f, 0.375181f, -0.044965f, 0.077886f, -0.287705f, 0.177487f, -0.103300f, -1.382250f, 0.233846f, 0.378061f, -0.191412f, 0.397756f, -0.054435f, 0.099985f, -0.157790f, 0.255983f, 0.107640f, 0.081242f, 0.035139f, -0.289574f, 0.128206f, 0.051953f, -1.151197f, 0.375441f, 0.187563f, 0.347619f, -0.174633f, -0.081158f, -0.503835f, 0.222584f, 0.297849f, -0.768714f, 0.483627f, -0.199412f, -0.032177f, 0.146131f, -0.062448f, -0.135188f, -0.109072f, 0.272507f, 0.354198f, 0.120802f, 0.007230f, -0.086325f, -0.267741f, 0.031471f, -0.524267f, 0.044751f, 0.294830f, 0.438477f, -0.036335f, 0.029463f, -0.152580f, 0.109173f, 0.050452f, -0.100300f, 0.084440f, 0.094830f, -0.088619f, 0.026161f, -0.012578f, 0.320887f, -0.227192f, 0.071393f, 0.330113f, -0.044708f, 0.154231f, -0.126919f, -0.149635f, -0.041140f, -0.441007f, -0.208679f, 0.316819f, 0.224478f, -0.088951f, 0.215850f, -0.362927f, -0.304972f, 0.098908f, -0.304135f, -0.017879f, -0.186541f, -0.439861f, -0.153632f, -0.068573f, 0.024272f, 0.256616f, 0.274240f, 0.298975f, -0.276711f, -0.021441f, -0.004233f, 0.129071f, 0.242976f, -0.339370f, -0.347833f, 0.348337f, 0.469805f, -0.012419f, 0.073465f, -0.197992f, -0.103853f, -0.048485f, -0.575009f, 0.132655f, 0.074317f, 0.227490f, -0.187914f, -0.145109f, 0.145910f, 0.409632f, 0.377317f, -0.015178f, 0.014293f, 0.009326f, 0.352584f, -0.070283f, -0.091523f, -0.072488f, 0.066195f, 0.303631f, 0.132495f, 0.168068f, -0.186377f, -0.046473f, -0.033495f, -0.142245f, -0.157155f, -0.222481f, 0.242011f, 0.559513f, -0.154982f, 0.077904f, 0.393848f, 0.377319f, 0.270867f, -0.048181f, -0.261867f, -0.206156f, 0.060860f, -0.196496f, -0.044809f, -0.176247f, -0.136823f, 0.293455f, 0.258678f, 0.208068f, -0.161329f, -0.234643f, -0.208162f, 0.238599f, -0.168752f, -0.019383f, -0.032948f, 0.300406f, 0.084860f, 0.084347f, 0.407948f, -0.009251f, 0.437139f, -0.086102f, -0.172713f, 0.002915f, 0.000851f, 0.108991f, 0.047228f, -0.005050f, 0.014928f, 0.212646f, -0.090465f, 0.161564f, -0.304790f, 0.083584f, -0.116120f, 0.012328f, -0.083704f, 0.051607f, -0.061653f, -0.125580f, 0.079334f, 0.116897f, -0.014553f, -0.045920f, 0.088386f, -0.107798f, 0.067911f, 0.116698f, 0.027453f, -0.048355f, 0.098465f, 0.017995f, 0.107363f, 0.042383f, 0.094131f, 0.032901f, -0.030827f, 0.152171f, 0.011138f, 0.034636f, -0.087428f, 0.041499f, 0.023758f, -0.104381f, -0.146599f, 0.032054f, 0.085700f, 0.010678f, -0.089326f, 0.056706f, -0.136041f, -0.019256f, -0.110815f, -0.103872f, -0.098001f, -0.037294f, -0.147755f, -0.033645f, 0.003854f, -0.005499f, -0.038586f, 0.111642f, -0.116753f, 0.001875f, -0.144170f, -0.141170f, 0.024316f, 0.021732f, 0.124443f, 0.019051f, 0.151357f, -0.148563f, -0.132330f, -0.150087f, -0.103602f, 0.013586f, 0.047920f, -0.149587f, 0.146807f, 0.112636f, -0.066952f, -0.139184f, -0.108669f, -0.122805f, -0.124010f, 0.006110f, -0.083663f, -0.046698f, 0.161138f, 0.060674f, 0.147798f, -0.117665f, -0.038798f, 0.018017f, -0.139325f, -0.163215f, 0.056105f, 0.046685f, -0.029367f, -0.003409f, -0.292527f, -0.154003f, -0.122634f, -0.100404f, -0.254881f, 0.382281f, -0.106409f, -0.033427f, -0.028712f, -0.088414f, 0.404163f, -0.589047f, -0.178120f, 0.101732f, 0.054659f, 0.151326f, 0.041481f, 0.382428f, -0.140651f, 0.108983f, 0.032170f, 0.070292f, -0.020418f, 0.195638f, -0.018420f, 0.104725f, -0.225142f, -0.154761f, 0.035220f, 0.155303f, -0.274397f, 0.055469f, 0.076546f, 0.016260f, 0.186587f, -0.242240f, -0.088051f, 0.135899f, 0.138205f, 0.044273f, 0.191804f, 0.092690f, -0.050975f, 0.116176f, 0.142441f, -0.040460f, -0.057297f, 0.043096f, 0.002680f, 0.040338f, -0.205244f, -0.233943f, 0.225210f, -0.142939f, -0.109553f, 0.137129f, 0.099734f, -0.027167f, -0.178564f, 0.073016f, -0.188159f, 0.029687f, 0.153962f, 0.379668f, 0.232077f, -0.138641f, -0.080782f, 0.027759f, 0.103823f, 0.299277f, -0.267806f, -0.202248f, -0.002103f, 0.174136f, -0.241466f, -0.139505f, -0.010238f, -0.282470f, -0.235994f, -0.051457f, -0.025827f, -0.085771f, -0.271455f, 0.174522f, -0.293083f, 0.174460f, -0.047914f, 0.228568f, 0.599771f, -0.094646f, 0.062429f, -0.042640f, 0.285302f, 0.603927f, -0.377371f, 0.399496f, 0.186232f, 0.010248f, -0.204344f, -0.124739f, -0.205214f, -0.099507f, -0.323037f, -0.019246f, 0.117231f, -0.373169f, -0.203316f, 0.338513f, -0.375878f, 0.192786f, -0.016793f, 0.513029f, 0.453299f, -0.112607f, -0.156205f, -0.077785f, 0.120895f, 0.212790f, -0.572908f, 0.257734f, 0.495220f, 0.018700f, -0.458017f, -0.166887f, -0.184988f, -0.128732f, -0.026442f, 0.143675f, 0.141127f, 0.081868f, -0.291640f, 0.156502f, -0.419075f, 0.110345f, -0.177753f, 0.299165f, 0.339287f, 0.073557f, 0.151503f, 0.014786f, -0.015822f, 0.030185f, -0.413606f, 0.546860f, 0.548750f, -0.035497f, -0.036476f, -0.144601f, -0.151149f, 0.028769f, 0.003096f, -0.331512f, -0.030652f, 0.023486f, 0.008344f, 0.134165f, -0.597144f, 0.087700f, -0.072470f, 0.215097f, 0.217679f, 0.039086f, 0.343494f, 0.082282f, 0.111050f, -0.108637f, -0.330765f, 0.319301f, 0.440949f, 0.037950f, -0.203630f, -0.018188f, -0.139706f, 0.015287f, -0.082096f, -0.157537f, 0.061970f, -0.221688f, 0.115823f, -0.115219f, -0.318756f, -0.084109f, -0.138087f, 0.110701f, 0.139725f, 0.140182f, 0.330954f, 0.068071f, -0.048950f, 0.229412f, -0.167725f, 0.158734f, 0.444891f, -0.155199f, -0.146595f, -0.009413f, -0.134921f, -0.153404f, 0.051157f, 0.022329f, 0.004886f, 0.027861f, -0.043485f, 0.128296f, -0.133719f, 0.089775f, -0.186118f, 0.358650f, 0.324387f, 0.012849f, 0.248414f, 0.017175f, 0.133745f, 0.052298f, -0.367216f, -0.033681f, 0.238631f, 0.103381f, -0.115438f, 0.150373f, -0.034618f, 0.050508f, 0.075718f, 0.091119f, 0.227671f, -0.069324f, 0.122325f, -0.189831f, 0.014588f, 0.074204f, 0.028257f, 0.036146f, 0.146944f, -0.116984f, -0.038793f, 0.031578f, -0.027364f, 0.036900f, -0.140924f, -0.183297f, 0.110710f, 0.016100f, -0.102314f, 0.072536f, 0.003662f, 0.034380f, -0.012883f, 0.108206f, 0.108503f, 0.068927f, -0.129850f, 0.111479f, 0.056330f, 0.064857f, -0.045104f, 0.124860f, 0.074191f, -0.127524f, -0.030364f, 0.127205f, -0.149038f, 0.151886f, 0.058980f, 0.043266f, -0.075529f, -0.082694f, 0.145519f, -0.066406f, 0.090692f, -0.035183f, -0.118752f, -0.161066f, 0.014569f, 0.156620f, -0.043079f, -0.047010f, -0.051323f, 0.006763f, -0.019532f, 0.125063f, 0.001817f, 0.002554f, -0.119043f, 0.158911f, -0.082305f, -0.140443f, 0.053705f, 0.031393f };
static const float mynet_layer_1_biases[12] = { -0.096564f, -0.148788f, 0.471383f, 0.078584f, 0.178105f, -0.021974f, 0.165720f, -0.118213f, 0.429866f, 0.089172f, 0.062283f, -0.053336f };
static const float mynet_layer_1_weights[288] = { 0.634249f, -0.270839f, -0.638668f, -0.055419f, 0.651525f, 1.339357f, 0.872555f, -0.548071f, 1.227963f, -0.163949f, -0.654189f, 1.106162f, 0.951337f, -0.315658f, -0.447517f, -0.264703f, -1.216498f, 0.219586f, -1.763347f, -1.085894f, -0.196943f, 0.298534f, 0.481660f, -0.123351f, 0.027878f, 0.002731f, 0.886963f, 1.056571f, -1.494558f, 0.936859f, 0.886919f, 0.531364f, -0.530025f, -0.318875f, 0.825482f, 0.526626f, -0.187341f, 0.401122f, 0.692822f, 0.209056f, 0.302261f, 0.011728f, -1.635086f, -0.619978f, -0.631784f, 1.587292f, -0.581787f, -0.167288f, -0.537835f, -0.169046f, -0.654908f, -0.845391f, -0.041624f, -0.002722f, 0.302017f, -0.534302f, 0.249926f, -1.802348f, 0.747581f, 0.329989f, 0.241315f, -0.145976f, -1.148069f, 0.731018f, -1.020534f, -0.520471f, 0.243305f, 0.101540f, -1.148255f, 0.699567f, -0.364852f, -0.054351f, -0.173709f, -0.348310f, 0.165242f, -0.135960f, 1.108631f, 1.656296f, -1.717545f, -0.447220f, -0.097212f, 0.465406f, 0.041856f, 0.786443f, -1.122220f, 0.009869f, 1.040812f, -0.103106f, 0.453002f, 0.377029f, 0.692156f, 0.471402f, -0.160520f, -1.180381f, 0.508030f, -0.650048f, 0.067303f, -0.287165f, 0.291613f, -0.861949f, -0.570251f, 0.029041f, 0.785639f, 0.283811f, 0.016164f, -1.345013f, 0.201872f, -0.970295f, -0.564343f, -0.069473f, -1.174377f, -0.346972f, 0.461134f, 0.350098f, -0.334271f, -1.150462f, -0.214603f, -0.199407f, 1.401506f, -0.588049f, 0.700492f, -0.327234f, 0.598447f, -0.145496f, 0.638421f, 0.152952f, 0.442230f, 0.947088f, -1.800371f, 0.504076f, 0.161636f, 0.994203f, -0.769492f, 0.230131f, -0.490215f, 0.668057f, -0.419685f, 0.000189f, -0.672075f, -1.132772f, 2.165211f, 0.270699f, -0.867644f, -0.142855f, -0.772592f, -0.210477f, -0.851046f, 1.209875f, 0.749658f, -0.389330f, -1.069675f, 1.274821f, -0.862237f, -0.648127f, 0.430300f, -0.473193f, 0.481594f, 0.320820f, -0.209423f, 0.793787f, -1.690815f, 0.064957f, -0.437588f, -0.550752f, 1.416772f, -0.946955f, -0.173486f, -0.770118f, -0.849907f, -0.166173f, 1.216508f, -0.113553f, -0.421066f, -0.662952f, 0.021131f, 0.295373f, 0.708557f, -1.172998f, 1.313666f, -1.010971f, 1.017833f, 0.036270f, 0.972223f, 0.023817f, -1.375680f, -0.997869f, 0.586565f, -0.126157f, 0.284798f, 0.111333f, 0.198593f, -0.549205f, 0.862456f, 0.179555f, 0.498994f, 0.293205f, -0.972051f, -1.228156f, 0.176888f, -0.499202f, 0.824690f, 1.256357f, 0.532540f, -0.222292f, 1.361710f, -0.057904f, -0.174110f, -1.082572f, 1.125643f, 1.045682f, 0.386645f, 0.199260f, -0.904088f, -0.161403f, -0.268811f, -0.147417f, 1.401205f, 0.348828f, 0.405272f, 0.044693f, 0.408449f, 1.185424f, 0.546372f, -0.810546f, -0.422616f, 0.940910f, -0.772801f, 0.767256f, 0.317110f, 0.109910f, -0.095357f, 0.875408f, 0.002078f, -1.128976f, -0.443630f, 0.680932f, 0.374320f, -1.131561f, 0.967333f, 0.742656f, 0.760470f, -0.057345f, 0.115363f, 1.164220f, 1.062340f, 0.752831f, -0.503204f, 0.100517f, -0.298642f, 0.134657f, -1.081910f, -0.591001f, -0.249466f, -0.218328f, 1.167731f, 1.032033f, 1.013043f, -1.133633f, 0.727969f, 0.776351f, 1.655553f, 1.111105f, 0.075625f, 0.763658f, -0.187857f, 0.106462f, -0.389052f, 0.340202f, 0.954550f, -0.509280f, 0.709978f, 0.345506f, 0.671102f, 0.579578f, 1.622374f, -0.018846f, 1.673255f, -0.336387f, -0.159018f, 0.250594f, -1.077089f, -1.090448f, -0.787221f, 0.715958f, 0.358865f, -0.556836f, -0.675842f, -1.545479f };
static const float mynet_layer_2_biases[10] = { -0.331658f, 0.258518f, -0.461048f, -0.589817f, 0.340223f, 1.076502f, -0.382621f, 0.538850f, -1.294840f, 0.692738f };
static const float mynet_layer_2_weights[120] = { -0.429741f, -0.576505f, -1.558896f, 0.094090f, -0.193100f, 1.851467f, -0.179426f, -0.622904f, -0.622886f, 2.217747f, 0.231488f, 0.430008f, 0.284741f, 0.117756f, -0.325224f, 0.179681f, 0.126605f, 0.096670f, -0.013553f, 0.024361f, 0.385509f, 0.458525f, -0.985034f, 1.796365f, -0.559754f, -1.478907f, -0.842373f, -0.425492f, 0.168915f, 0.374909f, -0.729901f, -1.032198f, 1.611663f, 1.340757f, -1.249305f, 0.864609f, -0.511285f, -0.602946f, 0.662563f, -0.170869f, 2.152509f, -1.778929f, 0.713018f, -0.944562f, 0.503530f, -1.118499f, 2.265873f, -0.181258f, -0.790073f, -0.678260f, -0.089482f, 0.799482f, 0.072413f, -0.915580f, -0.223557f, 0.120832f, -0.372329f, 2.491464f, -1.169110f, -2.065780f, -1.003574f, -0.759609f, -1.433964f, -0.924548f, 1.986162f, -1.741768f, -0.430130f, 1.054857f, 0.763857f, 0.746966f, 0.348528f, -0.848981f, 0.741649f, -0.231010f, 1.743433f, -0.155922f, -1.286462f, -1.322242f, -0.186870f, -0.592490f, -0.341085f, 0.820139f, 1.673125f, 1.076373f, -0.902331f, 0.091821f, -2.795151f, 2.303486f, -0.255838f, 0.123394f, 0.760132f, -0.778957f, -1.018828f, 0.432625f, -0.799646f, 2.114947f, 1.309306f, -0.957771f, 0.975731f, -1.888108f, -1.617317f, 2.235879f, 0.402373f, -0.558846f, 0.437722f, -1.053637f, 0.859628f, 0.079950f, -0.014848f, -1.386650f, 1.036589f, 0.349169f, 0.703585f, -1.243797f, -1.413831f, 0.076153f, 0.265522f, -0.325259f, 1.513065f, 0.599976f };
static float mynet_buf1[196];
static float mynet_buf2[196];
static const EmlNetLayer mynet_layers[3] = { 
{ 24, 196, mynet_layer_0_weights, mynet_layer_0_biases, EmlNetActivationRelu }, 
{ 12, 24, mynet_layer_1_weights, mynet_layer_1_biases, EmlNetActivationRelu }, 
{ 10, 12, mynet_layer_2_weights, mynet_layer_2_biases, EmlNetActivationSoftmax } };
static EmlNet mynet = { 3, mynet_layers, mynet_buf1, mynet_buf2, 196 };

    int32_t
    mynet_predict(const float *features, int32_t n_features)
    {
        return eml_net_predict(&mynet, features, n_features);
    }
    

    int32_t
    mynet_regress(const float *features, int32_t n_features, float *out, int32_t out_length)
    {
        return eml_net_regress(&mynet, features, n_features, out, out_length);
    }
    

    float
    mynet_regress1(const float *features, int32_t n_features)
    {
        return eml_net_regress1(&mynet, features, n_features);
    }
    