
#include <eml_net.h>
static const float mnist_model_layer_0_biases[32] = { 0.436521f, -0.061726f, -0.290126f, 0.481240f, -0.027368f, 0.577295f, 0.718083f, 0.337578f, 0.174389f, 0.022309f, 0.396811f, -0.038834f, 0.529973f, 0.698261f, 0.233198f, -0.181388f, 0.392558f, -0.064251f, -0.278699f, 0.425081f, 0.284605f, -0.061306f, 0.416184f, -0.255102f, 0.207498f, -0.022965f, 0.822742f, -0.098021f, -0.519078f, 0.755958f, 0.116402f, 0.615953f };
static const float mnist_model_layer_0_weights[6272] = { -0.040421f, 0.145211f, 0.074744f, 0.031786f, -0.110824f, -0.110832f, -0.142377f, 0.117975f, 0.032577f, 0.067037f, -0.154458f, 0.151395f, 0.107106f, -0.092679f, -0.102510f, -0.102001f, -0.063069f, 0.007976f, -0.021926f, -0.067262f, 0.036037f, -0.116148f, -0.066967f, -0.043056f, -0.014153f, 0.091878f, -0.096759f, 0.004586f, 0.029774f, -0.146125f, 0.034649f, -0.106150f, -0.140132f, 0.144622f, 0.150017f, 0.099359f, -0.062949f, -0.129622f, 0.059356f, -0.019282f, -0.121772f, -0.001554f, -0.150011f, 0.131875f, -0.077716f, 0.052361f, -0.060663f, 0.006466f, 0.015049f, -0.101534f, 0.151291f, 0.088642f, 0.141598f, 0.127205f, 0.031541f, 0.135919f, -0.132579f, -0.097948f, -0.146519f, -0.056275f, -0.035866f, -0.073667f, 0.105913f, -0.046151f, -0.070579f, 0.014696f, -0.109455f, 0.097851f, -0.135302f, 0.156865f, 0.080288f, -0.095173f, -0.150502f, 0.101639f, 0.066611f, 0.073384f, 0.092165f, -0.136267f, -0.039753f, -0.118968f, 0.113821f, 0.041805f, -0.054481f, -0.140888f, -0.050065f, -0.056322f, 0.068825f, 0.044318f, 0.127382f, -0.014429f, -0.125731f, 0.070233f, 0.071965f, 0.014916f, 0.083041f, -0.001999f, 0.001284f, -0.021008f, -0.115275f, -0.142074f, -0.144148f, 0.043761f, -0.114285f, -0.002611f, 0.194793f, -0.080068f, -0.064708f, 0.083055f, -0.018228f, -0.099668f, 0.019406f, -0.058619f, 0.103085f, 0.120258f, 0.037021f, 0.117937f, 0.182129f, -0.100981f, 0.076640f, 0.012619f, 0.123046f, 0.072977f, -0.087507f, -0.109768f, -0.209834f, -0.074651f, 0.070238f, 0.116215f, -0.157744f, 0.015227f, 0.017685f, -0.094249f, -0.115383f, -0.056292f, 0.081016f, -0.052467f, 0.079232f, 0.065630f, -0.060645f, 0.154333f, 0.199004f, -0.056342f, 0.075429f, -0.016180f, -0.100413f, -0.129140f, 0.034638f, 0.000461f, -0.057562f, -0.071316f, 0.083952f, -0.084408f, -0.089395f, -0.057423f, 0.128702f, -0.067900f, -0.060393f, 0.035318f, -0.116611f, 0.073375f, -0.033890f, 0.045586f, 0.008356f, -0.010923f, -0.151194f, 0.104746f, -0.026612f, -0.124304f, -0.186070f, 0.029848f, 0.031501f, -0.144150f, -0.001483f, -0.069150f, 0.062085f, -0.104125f, 0.065448f, -0.041304f, 0.138888f, -0.111927f, -0.100919f, -0.124531f, 0.151301f, 0.118658f, -0.085043f, 0.056648f, 0.113388f, 0.017556f, 0.036831f, -0.074455f, -0.105983f, 0.127196f, 0.140718f, 0.046267f, -0.144536f, -0.121133f, 0.016813f, 0.120094f, 0.229950f, 0.029137f, -0.085550f, -0.133118f, -0.165730f, 0.153004f, 0.005884f, -0.121853f, -0.128816f, 0.055743f, -0.138745f, -0.128766f, 0.015477f, 0.071548f, -0.110997f, -0.088835f, 0.124689f, -0.089131f, -0.085016f, 0.107333f, 0.085186f, 0.112205f, 0.188344f, 0.064962f, -0.057665f, -0.043571f, -0.072876f, -0.049721f, 0.083802f, -0.024467f, 0.087916f, 0.037555f, 0.084214f, 0.026823f, -0.116938f, -0.002118f, -0.119310f, -0.041961f, -0.243749f, -0.030056f, 0.011057f, -0.239540f, 0.300713f, 0.234262f, 0.155921f, -0.114058f, -0.305274f, 0.137996f, 0.161862f, 0.061696f, 0.126957f, 0.282032f, -0.115223f, -0.036915f, 0.403913f, -0.023389f, -0.094896f, 0.097895f, 0.146182f, 0.047713f, -0.018281f, -0.161104f, 0.031230f, 0.151769f, -0.071803f, -0.057772f, 0.054019f, 0.077649f, 0.041069f, 0.078725f, 0.029917f, 0.018358f, 0.154574f, 0.163133f, 0.117553f, 0.142162f, 0.008825f, 0.002923f, 0.046808f, 0.048315f, 0.058287f, 0.098313f, 0.117553f, -0.079581f, -0.047840f, -0.127879f, 0.076295f, -0.160052f, 0.020974f, 0.001295f, -0.067477f, -0.006885f, -0.178921f, -0.217689f, 0.095528f, -0.047184f, -0.032589f, -0.084352f, -0.027504f, -0.091523f, 0.011124f, -0.102990f, -0.053557f, 0.087041f, 0.097749f, 0.054308f, 0.061583f, 0.151415f, -0.012750f, -0.058057f, 0.005164f, -0.073833f, -0.013584f, -0.135956f, -0.172547f, 0.156935f, 0.112355f, 0.063461f, 0.089295f, -0.101732f, -0.061598f, -0.075890f, 0.017429f, 0.048227f, 0.038116f, -0.110876f, 0.138784f, 0.075420f, 0.068353f, -0.013591f, -0.092344f, -0.081213f, -0.052558f, 0.102119f, -0.108619f, -0.082925f, -0.100102f, -0.142159f, 0.108336f, 0.064284f, -0.020674f, -0.130031f, -0.056229f, -0.008547f, -0.098676f, -0.021476f, -0.044469f, 0.045832f, 0.047450f, -0.146510f, 0.026674f, 0.044256f, 0.028796f, 0.117377f, 0.037352f, -0.113639f, -0.156530f, 0.032311f, -0.153084f, 0.027586f, 0.156798f, 0.022834f, -0.054850f, 0.046306f, -0.039266f, 0.015454f, 0.166514f, -0.015460f, 0.168176f, 0.130674f, -0.101466f, -0.137352f, -0.128655f, -0.155891f, -0.141092f, 0.058961f, -0.139418f, -0.046837f, 0.108556f, -0.152490f, 0.100217f, -0.070282f, -0.102873f, 0.061357f, 0.047695f, 0.121604f, 0.075735f, 0.097775f, -0.070224f, -0.103922f, 0.080743f, 0.098856f, 0.158031f, -0.028153f, -0.041233f, 0.089055f, -0.051290f, 0.138781f, 0.115473f, -0.022877f, 0.080826f, 0.082009f, -0.127865f, 0.129694f, 0.001692f, 0.105178f, -0.057976f, 0.127430f, -0.035697f, -0.157598f, 0.130606f, -0.131679f, -0.058213f, 0.145001f, 0.145177f, 0.023660f, 0.042475f, -0.016610f, -0.066623f, -0.055201f, 0.055582f, 0.081310f, 0.093941f, 0.093309f, -0.131705f, -0.001798f, -0.142546f, 0.015957f, -0.018838f, 0.124910f, -0.048032f, -0.123373f, -0.115021f, 0.084253f, 0.038087f, -0.128510f, -0.133992f, 0.064748f, -0.137647f, 0.103697f, 0.066447f, -0.134881f, -0.133757f, 0.156785f, -0.040507f, -0.041676f, 0.100778f, 0.144094f, 0.156580f, 0.081633f, -0.039867f, -0.134188f, 0.089291f, 0.018817f, -0.024414f, 0.130919f, -0.125264f, -0.002376f, -0.157432f, -0.010097f, -0.142950f, -0.122809f, -0.123225f, 0.048073f, 0.079271f, 0.026860f, 0.148903f, -0.040314f, -0.069039f, 0.118755f, -0.089052f, 0.149241f, -0.157174f, 0.151385f, -0.147185f, 0.126018f, 0.008925f, 0.158823f, -0.137314f, 0.017351f, 0.151200f, 0.007442f, 0.041658f, 0.064437f, -0.014654f, 0.042832f, 0.026764f, 0.129989f, -0.150898f, -0.070546f, 0.144371f, 0.125708f, -0.014072f, 0.039550f, -0.073816f, -0.099295f, -0.011256f, -0.047777f, 0.026953f, -0.132857f, 0.153390f, 0.152935f, 0.063673f, 0.011630f, -0.060071f, 0.100071f, 0.059495f, -0.103676f, 0.131236f, 0.103749f, 0.146153f, 0.072326f, 0.036539f, -0.025845f, 0.113865f, 0.116199f, -0.168776f, -0.180364f, -0.092781f, 0.098858f, 0.174294f, -0.117658f, 0.031349f, -0.038817f, 0.148066f, 0.131787f, 0.156873f, 0.040778f, 0.012718f, -0.075214f, -0.171954f, 0.115035f, 0.102192f, 0.135316f, 0.182486f, 0.017752f, 0.080700f, 0.155737f, 0.120760f, -0.099540f, 0.045183f, -0.121465f, 0.122641f, 0.009062f, -0.091481f, 0.051662f, 0.001255f, -0.049157f, -0.205794f, -0.078575f, -0.107799f, 0.059177f, 0.065165f, 0.072998f, -0.030110f, 0.016138f, -0.016894f, 0.057122f, 0.001667f, -0.018538f, 0.272310f, 0.104938f, -0.028757f, -0.095366f, -0.133557f, -0.209129f, -0.017377f, 0.028970f, -0.098359f, 0.055515f, 0.180519f, -0.102155f, 0.145945f, 0.080085f, -0.149341f, -0.041752f, 0.148219f, 0.129439f, -0.207198f, 0.131797f, -0.353521f, -0.535466f, -0.140399f, 0.079143f, 0.203063f, -0.306663f, -0.128089f, -0.022257f, -0.668549f, 0.190525f, 0.220076f, 0.366858f, 0.390968f, 0.113833f, -0.343299f, -0.156028f, 0.197644f, 0.026276f, -0.068324f, -0.105310f, -0.357850f, 0.228961f, -0.037224f, -0.080638f, 0.226786f, -0.166274f, -0.485001f, -0.202970f, 0.168291f, -0.169903f, -0.105920f, 0.102281f, -0.366283f, -0.371672f, -0.004623f, -0.458966f, 0.272997f, -0.098073f, -0.158829f, -0.009747f, -0.656995f, 0.379847f, 0.300454f, 0.396329f, 0.216383f, 0.254315f, -0.315555f, -0.283811f, -0.045875f, 0.109016f, -0.457276f, -0.077731f, -0.369235f, 0.604869f, 0.075980f, -0.076893f, 0.341350f, 0.070885f, -0.528069f, -0.290289f, 0.207650f, -0.297443f, -0.510618f, 0.765908f, -0.532923f, -0.393308f, -0.318631f, 0.325997f, -0.231946f, -0.106885f, -0.135726f, 0.080297f, -1.440575f, 0.172188f, -0.087258f, 0.875227f, 0.037485f, 0.746821f, 0.174028f, 0.097284f, -0.033025f, -0.157643f, -0.350751f, 0.160534f, 0.213622f, 0.374164f, -0.279494f, -0.533727f, 0.009375f, 0.053521f, -0.092123f, -0.011823f, -0.020364f, -0.225280f, -0.212238f, 0.300399f, 0.092688f, -0.728110f, -0.581513f, -0.004244f, 0.459100f, 0.299090f, -0.285248f, 0.256938f, -0.928784f, 0.385379f, 0.199327f, 0.547914f, -0.266632f, 0.785200f, 0.093231f, -0.096807f, -0.047945f, -0.105707f, 0.196333f, -0.074940f, 0.358335f, -0.004590f, 0.065328f, -0.893808f, 0.128493f, -0.083333f, 0.170020f, -0.180154f, 0.231060f, -0.752481f, -0.185384f, -0.178186f, 0.140918f, -0.554537f, -0.143108f, 0.203291f, -0.020431f, 0.297465f, 0.132611f, 0.183281f, -0.470824f, 0.169936f, -0.033475f, 0.342058f, -0.502334f, 0.448343f, -0.292757f, -0.119907f, -0.228559f, 0.110215f, -0.094902f, 0.121924f, 0.298866f, 0.294784f, -0.098533f, -0.927284f, -0.104218f, 0.118496f, 0.219569f, -0.181790f, -0.234002f, -0.091625f, 0.323270f, -0.278138f, 0.480845f, -0.449481f, -0.052712f, -0.076185f, 0.074083f, 0.269704f, -0.321093f, 0.363076f, 0.255819f, 0.219131f, 0.278745f, 0.282980f, -0.081430f, 0.207833f, -0.258538f, -0.048252f, -0.237868f, -0.019589f, -0.032236f, 0.023213f, 0.562136f, 0.191505f, -0.012547f, -0.024152f, -0.091951f, 0.014669f, 0.621925f, -0.255692f, 0.291894f, 0.205747f, 0.065771f, -0.011583f, -0.055121f, -0.179959f, 0.116836f, -0.207918f, 0.165533f, -0.296355f, 0.002013f, 0.010945f, 0.192018f, -0.201627f, 0.176857f, 0.059560f, -0.119511f, -0.000932f, -0.144937f, 0.015968f, 0.006995f, 0.124994f, -0.315219f, 0.151652f, 0.136648f, 0.178132f, 0.025897f, 0.239148f, -0.256348f, 0.121117f, 0.300268f, 0.101610f, 0.192251f, 0.150054f, -0.064597f, 0.014256f, 0.068465f, -0.018217f, -0.186024f, -0.074694f, 0.354372f, -0.049842f, -0.118620f, -0.263647f, 0.206853f, -0.198851f, -0.052686f, 0.248593f, -0.005076f, -0.039109f, 0.222052f, -0.135012f, -0.164930f, 0.009764f, -0.212266f, -0.158213f, -0.074203f, -0.041122f, 0.036164f, 0.045166f, 0.003605f, -0.033174f, 0.159256f, 0.198601f, 0.028122f, 0.075028f, -0.124394f, -0.100098f, 0.010240f, -0.034847f, 0.222771f, -0.059178f, 0.041364f, 0.016311f, -0.129366f, 0.055053f, -0.165536f, 0.171129f, -0.096118f, -0.043866f, -0.158422f, 0.186878f, 0.022891f, 0.007057f, -0.140880f, 0.100078f, -0.146380f, 0.128286f, -0.112119f, -0.043134f, -0.155936f, -0.057807f, 0.001190f, -0.144235f, 0.087823f, -0.027825f, 0.036174f, -0.014165f, -0.034102f, 0.007464f, -0.113332f, -0.107023f, 0.131887f, 0.141712f, -0.036683f, -0.069814f, 0.039689f, -0.029397f, -0.170174f, -0.100239f, 0.077184f, 0.047010f, -0.152135f, -0.091932f, -0.086628f, 0.055998f, -0.151920f, -0.123547f, 0.091894f, -0.103566f, 0.041247f, -0.072783f, -0.132216f, -0.081199f, 0.070406f, 0.113515f, 0.118515f, -0.037786f, 0.071050f, -0.088511f, -0.066644f, 0.127693f, -0.156903f, -0.133543f, -0.094107f, -0.152540f, -0.102638f, 0.026756f, -0.025315f, 0.126511f, 0.102273f, -0.050963f, -0.077509f, -0.038763f, 0.029089f, -0.074725f, 0.039998f, -0.029187f, 0.016769f, -0.020582f, -0.066218f, 0.144483f, 0.084931f, -0.115945f, 0.118714f, -0.004049f, 0.127119f, 0.096607f, -0.024096f, -0.153852f, -0.074528f, 0.013413f, 0.038101f, -0.049185f, -0.114087f, 0.095650f, 0.189356f, 0.018394f, -0.134776f, -0.070313f, -0.151262f, 0.124200f, -0.116206f, 0.077717f, -0.081009f, 0.000238f, 0.034739f, 0.106657f, -0.115279f, -0.158028f, -0.122782f, 0.092152f, 0.123327f, 0.031384f, 0.059283f, 0.062964f, -0.090591f, 0.156659f, -0.005881f, -0.042841f, 0.002746f, -0.167449f, -0.119787f, 0.076019f, -0.406957f, 0.403044f, -0.269716f, 0.050902f, -0.317880f, 0.300283f, -0.090212f, 0.071785f, -0.133155f, -0.162255f, 0.182175f, 0.380847f, 0.352574f, 0.055566f, 0.036664f, -0.174812f, -0.096353f, 0.072362f, -0.083397f, -0.318628f, 0.104502f, 0.086843f, 0.179377f, -0.202906f, 0.136801f, 0.000986f, 0.117037f, -0.005046f, -0.243490f, -0.026390f, 0.046897f, 0.090743f, -0.343913f, 0.490159f, -0.480595f, 0.341290f, 0.072041f, 0.421657f, 0.384824f, -0.280982f, -0.049168f, -0.131260f, -0.202639f, 0.232567f, -0.038929f, 0.148882f, 0.482229f, 0.088940f, -0.024536f, 0.357954f, -0.070065f, -0.324461f, 0.557560f, -0.148211f, 0.256575f, 0.423806f, -0.285134f, 0.179764f, -0.154369f, -0.156518f, -0.448138f, -0.062234f, -0.235156f, 0.336585f, 0.886490f, 0.412913f, -0.449930f, -0.017562f, -0.172156f, -0.005632f, 0.253875f, 0.028799f, -0.017486f, -0.014342f, -1.204406f, 0.078823f, 0.085365f, 0.302743f, 0.220030f, 0.161022f, -0.245334f, 0.399613f, 0.175760f, -0.377443f, 0.354102f, 0.037570f, 0.357392f, 0.568878f, 0.483063f, -0.074049f, -0.237358f, 0.036300f, -0.297007f, 0.383266f, 0.240650f, -0.598550f, 0.581379f, -0.191873f, -0.217227f, 0.244746f, 0.054594f, 0.220903f, 0.420472f, 0.357751f, 0.270616f, 0.571223f, -0.937845f, 0.285347f, 0.266017f, 0.113919f, -0.706092f, 0.393904f, -0.341682f, -0.279783f, 0.209454f, -0.584579f, -0.168498f, 0.063571f, -0.048428f, 0.331026f, 0.352742f, -0.590808f, 0.428037f, 0.281857f, -0.215394f, 0.519492f, -0.316129f, -0.865182f, -0.983944f, 0.218530f, -0.661147f, 0.315433f, 0.036386f, 0.206434f, -0.033938f, 0.225132f, -0.065068f, 0.070018f, -0.313816f, 0.070460f, -0.199803f, -0.046037f, -0.343577f, 1.237731f, 0.290539f, 0.334309f, -0.172841f, 0.198166f, -0.438093f, -0.090927f, -0.024352f, 0.342905f, 0.336675f, -1.475973f, 0.237193f, 0.051271f, 0.073468f, 0.139772f, -1.018145f, -0.262371f, -0.425989f, 0.455964f, -0.313839f, -0.232498f, 0.193757f, 0.113146f, -0.032988f, 0.370163f, 0.437551f, 0.070029f, -0.544452f, -0.107719f, -0.517137f, -0.148134f, -0.107206f, 1.324962f, 0.473320f, 0.399788f, 0.408426f, 0.431727f, -0.003251f, -0.028153f, 0.562867f, 0.292712f, -0.333398f, -0.091837f, 0.441620f, -0.148773f, 0.417399f, -0.377315f, -0.069557f, -0.402278f, 0.129731f, 0.626054f, 0.339394f, -0.455452f, -0.097790f, -0.172191f, 0.305840f, 0.419786f, 0.425795f, 0.177818f, -0.324304f, -0.030740f, 0.143434f, 0.112739f, -0.230308f, 0.390858f, 0.252959f, -0.072219f, 0.017181f, 0.324812f, 0.233603f, -0.054908f, 0.329308f, 0.467739f, -0.038258f, -0.036680f, 0.710927f, -0.011927f, 0.142798f, -0.164504f, -0.113616f, -0.620962f, 0.116238f, -0.074529f, 1.144815f, -1.012352f, -0.274087f, 0.017988f, -0.176619f, -0.045147f, 0.232707f, 0.413718f, -0.162654f, 0.013773f, -0.214221f, 0.676193f, -0.407590f, 0.393092f, 0.476786f, -0.358971f, -0.398194f, 0.420077f, 0.108503f, 0.121470f, 0.129305f, 0.591111f, -0.265942f, -0.157894f, 0.215192f, 0.192116f, 0.342965f, -0.173828f, 0.016460f, -0.604666f, 0.138582f, -0.417250f, 0.357217f, -0.814970f, -0.154142f, -0.615784f, 0.088604f, 0.174309f, 0.117436f, 0.029369f, -0.348630f, 0.021611f, 0.003731f, 0.204449f, -0.016275f, -0.130485f, -0.329325f, -0.383003f, 0.235005f, 0.708916f, 0.233545f, 0.029390f, 0.372342f, -0.038094f, 0.424031f, 0.248921f, 0.090045f, -0.016653f, 0.617876f, 0.133749f, -0.280805f, -0.749993f, 0.221866f, -0.524975f, 0.560351f, -0.218637f, -0.070760f, -0.068213f, -0.224497f, -0.102157f, -0.192067f, 0.580408f, -0.068402f, 0.069139f, -0.565716f, -0.003363f, -0.620955f, -0.255773f, -0.353161f, -0.221449f, 0.167954f, 0.304943f, -0.055564f, -0.045085f, 0.280568f, 0.247429f, 0.347313f, -0.002948f, 0.091383f, -0.270143f, 0.325566f, -0.032161f, 0.239594f, -0.454252f, 0.297317f, -0.021632f, -0.132632f, -0.270708f, 0.290397f, -0.063300f, 0.347652f, -0.112312f, -0.043761f, -0.172434f, -0.542811f, -0.185745f, 0.035094f, -0.095380f, -0.063045f, -0.388664f, -0.295157f, -0.484203f, 0.083616f, 0.407553f, -0.338771f, 0.140201f, 0.166952f, 0.274273f, 0.135104f, -0.345328f, 0.221390f, 0.072939f, 0.152857f, 0.256069f, -0.215646f, -0.038168f, 0.048125f, 0.062174f, -0.100468f, 0.026943f, 0.033595f, 0.033793f, -0.001634f, -0.136735f, -0.165295f, -0.086932f, 0.022803f, -0.061652f, 0.274470f, -0.023487f, -0.086863f, 0.079717f, 0.037427f, -0.042468f, 0.025942f, 0.133318f, -0.144022f, 0.159112f, 0.182966f, 0.065526f, -0.089402f, -0.054737f, -0.100441f, -0.155809f, -0.020231f, 0.018838f, 0.093051f, 0.082103f, 0.078207f, 0.001917f, -0.025931f, -0.060797f, 0.162203f, -0.153413f, 0.091252f, 0.036104f, -0.022183f, 0.072611f, -0.004064f, 0.147142f, 0.141700f, -0.025154f, -0.066521f, 0.042884f, 0.133156f, -0.074714f, 0.039615f, 0.033451f, 0.075132f, -0.118701f, 0.083296f, 0.147020f, -0.072313f, -0.084540f, 0.146917f, -0.101733f, 0.092840f, -0.018929f, -0.076020f, 0.080804f, -0.218068f, 0.233601f, -0.036134f, 0.284104f, 0.008097f, -0.017295f, 0.078686f, -0.007153f, 0.041460f, -0.153118f, 0.081281f, -0.119884f, 0.327981f, -0.135298f, 0.178257f, 0.016159f, -0.157869f, 0.191144f, -0.065259f, -0.017385f, -0.137208f, -0.081168f, -0.060332f, 0.222186f, -0.014403f, -0.102700f, -0.481346f, 0.071359f, 0.006068f, 0.061019f, 0.197408f, 0.029046f, 0.102230f, 0.909595f, -0.346952f, -0.346351f, 0.181920f, 0.341476f, -0.386094f, 0.290087f, -0.131948f, -0.397752f, 0.033823f, 0.187530f, 0.356382f, -0.182757f, 0.287638f, 0.061705f, -0.117025f, -0.035687f, -0.456393f, 0.275329f, -0.141136f, 0.114865f, 0.053517f, 0.584402f, 0.418845f, 0.009570f, -0.083852f, -0.120479f, -0.329709f, 0.161319f, 0.226634f, 0.100606f, 0.845622f, 0.850096f, -0.143906f, -0.048457f, -0.520718f, 0.290037f, 0.064167f, -0.018894f, 0.167864f, 0.196371f, 0.037276f, -0.065499f, 0.231359f, 0.084178f, 0.021337f, -0.072559f, 0.109839f, 0.199014f, -0.146205f, 0.300411f, -0.066072f, 0.044260f, 0.502917f, 0.355132f, 0.368192f, -0.152572f, -0.115458f, 0.101564f, -0.764692f, 0.073019f, 0.153401f, 0.228442f, 0.717486f, -0.265138f, 0.130847f, 0.307293f, -0.241525f, -0.140737f, 0.783553f, 0.039305f, 0.431191f, 0.201247f, -0.284427f, -0.345085f, 0.297312f, -0.272575f, -0.407589f, 0.052520f, -0.035971f, 0.549250f, -0.159525f, -0.192185f, -0.312721f, -0.142416f, -0.043820f, 0.896622f, 0.187631f, -0.077411f, 0.393028f, -0.048419f, -0.577921f, -0.034150f, 0.609453f, -0.697469f, 0.631860f, -0.026369f, -0.183709f, 0.238295f, -0.096081f, 0.187425f, 0.169722f, -0.223875f, 0.201559f, 0.480508f, 0.323142f, -0.150750f, -0.489529f, 0.075754f, -0.406756f, -0.241392f, 0.162084f, 0.332727f, -0.481637f, 0.118004f, 0.430840f, -0.069494f, -0.005198f, 1.158031f, 0.858431f, -0.022551f, 0.156720f, 0.235075f, 0.424440f, 0.061514f, -0.192818f, -0.278929f, -1.664235f, -0.159369f, -0.241557f, 0.198144f, 0.028304f, 0.169567f, -0.571696f, 0.117280f, -0.309746f, 0.067250f, 0.223547f, -0.322062f, -0.346204f, -0.435775f, -0.353888f, -0.668926f, -0.146746f, 0.213771f, -0.299409f, -0.042499f, -0.782484f, -0.017011f, -0.250239f, 1.477725f, 0.579976f, -0.588710f, 0.332747f, 0.232633f, 0.562220f, 0.344661f, -0.171703f, -0.105519f, 0.068624f, 0.016901f, -0.561659f, 0.108360f, -0.362454f, 0.055196f, -0.286961f, -0.425259f, -0.508306f, 0.015709f, -0.148071f, -0.108214f, -0.267164f, -0.416821f, -0.432910f, 0.257921f, -0.062631f, 0.082665f, 0.610470f, -0.403375f, -0.300171f, 0.078657f, -0.052433f, 1.823216f, -0.766254f, 0.059986f, 0.536548f, -0.301364f, 0.283263f, -0.004737f, -0.483600f, -0.266062f, 0.342601f, 0.498459f, -0.153644f, 0.178670f, -0.377158f, 0.238196f, 0.374074f, 0.267937f, 0.514629f, 0.132935f, -0.286988f, -0.003128f, -0.397714f, -0.437976f, -0.372376f, 0.892940f, 0.191710f, 0.454916f, 0.296583f, 0.299073f, 0.260414f, -0.119759f, -0.411082f, 1.053378f, -0.630592f, 0.026440f, 0.062925f, -0.163690f, 0.588628f, -0.105626f, -0.219847f, -0.123936f, 0.487010f, 0.401031f, 1.143028f, -0.442203f, -0.345206f, -0.097033f, 0.432889f, 0.535233f, 0.146338f, 0.599702f, -0.179513f, -0.304979f, -0.477017f, -0.145038f, -0.275600f, 1.138075f, 0.093768f, 0.056941f, -0.514691f, 0.132218f, -0.006857f, -0.016311f, -0.185600f, 0.323590f, -0.124710f, 0.131964f, -0.034988f, 0.420541f, 0.695325f, 0.097961f, -0.404866f, 0.053263f, -0.066452f, -0.231931f, 0.920314f, -0.321797f, -0.290101f, 0.116070f, 0.852555f, 0.190720f, -0.006560f, 0.584971f, 0.243668f, -0.221967f, -0.609188f, -0.533359f, 0.048241f, 0.790268f, 0.061489f, 0.321416f, 0.062951f, 0.610938f, 0.484133f, 0.145283f, -0.033916f, -0.133526f, -0.087480f, 0.244790f, 0.143721f, 0.548071f, 0.767720f, 0.285897f, -0.507432f, -0.354960f, 0.095569f, -0.614866f, 0.117920f, -0.173600f, 0.053013f, -0.191525f, -0.575817f, -0.350426f, 0.129509f, -0.524589f, 0.028340f, 0.208940f, -0.479252f, 0.074465f, -0.435261f, 0.032005f, -0.263271f, 0.232353f, 0.327812f, 0.404408f, 0.212250f, 0.091346f, 0.103875f, 0.226932f, -0.534973f, 0.402171f, -0.274150f, 0.187863f, 0.064866f, 0.207549f, 0.030886f, 0.225007f, 0.375684f, -0.084064f, -0.310712f, 0.022330f, 0.402387f, 0.206474f, 0.228695f, -0.278065f, 0.036761f, -0.083599f, -0.087992f, -0.275132f, 0.361322f, -0.193798f, -0.344084f, -0.837777f, -0.460757f, -0.264932f, -0.112400f, 0.088264f, -0.302371f, -0.121769f, 0.370170f, -0.215522f, -0.092521f, -0.603711f, 0.477052f, 0.091063f, 0.518005f, 0.170243f, 0.166106f, -0.487130f, 0.022607f, 0.017735f, -0.215917f, -0.062620f, -0.105285f, -0.033176f, 0.148502f, 0.049599f, -0.041733f, -0.007590f, 0.141019f, 0.157160f, 0.129918f, 0.127360f, 0.068758f, -0.124599f, -0.009273f, -0.037881f, -0.072772f, 0.142238f, -0.138003f, 0.129446f, 0.076983f, 0.068388f, 0.049116f, 0.176544f, 0.074361f, 0.053009f, -0.037599f, -0.059052f, -0.152672f, 0.174055f, 0.041657f, 0.093941f, -0.147646f, -0.133658f, 0.091587f, -0.150604f, -0.181631f, -0.154226f, 0.132480f, 0.077324f, -0.070844f, -0.068042f, -0.025274f, 0.078126f, 0.057517f, -0.095870f, -0.100050f, -0.105525f, 0.055347f, 0.111675f, -0.089973f, -0.154342f, -0.112009f, 0.137961f, -0.025038f, 0.092606f, -0.052232f, -0.039005f, -0.097027f, -0.101772f, 0.076212f, 0.073323f, -0.063231f, 0.363400f, -0.014193f, 0.011721f, 0.335986f, -0.039922f, 0.096842f, -0.114129f, 0.150789f, -0.056821f, 0.109964f, -0.042922f, -0.151871f, -0.016458f, 0.212029f, 0.110946f, -0.425685f, -0.262706f, -0.001415f, -0.086158f, 0.091242f, -0.083648f, 0.020635f, 0.102182f, 0.147396f, 0.060690f, 0.052830f, 0.125427f, 0.079224f, -0.075872f, 0.062154f, -0.151359f, 0.345460f, 0.764061f, 0.262892f, -0.014614f, 0.468932f, -0.055248f, -0.114599f, -0.137802f, 0.135360f, 0.183568f, -0.404568f, -0.206317f, -0.137869f, -0.370396f, 0.718476f, -0.025335f, -0.167837f, -0.139474f, -0.246254f, 0.347723f, -0.379882f, -0.004881f, -0.104461f, 0.383961f, -0.130637f, 0.036096f, 0.026641f, -0.022339f, -0.342818f, 0.279471f, 0.027815f, -0.103437f, 0.309018f, 0.185279f, 0.198348f, 0.211126f, 0.027826f, 0.232482f, 0.239108f, -0.084087f, 0.378111f, 0.468758f, 0.184976f, -0.013115f, 0.171671f, -0.095268f, 0.379573f, -0.122484f, -0.159496f, 0.204789f, -0.182371f, -0.472537f, -0.106489f, -0.114391f, 0.312901f, -0.000732f, -0.356386f, -0.139039f, -0.438338f, -0.047993f, -0.157662f, 0.178065f, -0.411694f, -0.062520f, 0.738598f, -0.321871f, 0.269449f, 0.210820f, 0.306795f, 0.216844f, 0.492426f, -0.123396f, 0.297866f, 0.177539f, -0.225381f, -0.083416f, 0.145719f, 0.430756f, 0.342138f, -0.546336f, 0.479539f, 0.408388f, -0.188039f, -0.412265f, -0.807951f, -0.057968f, 0.295291f, 0.311897f, 0.187746f, 0.122585f, 0.073209f, -0.181110f, -0.541673f, 0.146657f, 0.181011f, -0.689821f, 0.561245f, -0.221881f, 0.136726f, 0.571588f, 0.326477f, 0.293837f, -0.027953f, -0.170122f, -0.357738f, 0.494311f, -0.520550f, -0.276808f, 0.154395f, 0.007086f, 0.528532f, -0.784386f, -0.321913f, -0.184062f, -0.713236f, 0.462639f, 0.333501f, 0.023111f, -0.030804f, 0.211086f, 0.222837f, -0.098153f, -0.371095f, 0.133560f, 0.059089f, 0.160356f, -0.366446f, 0.063939f, -1.387347f, -0.001917f, -0.171439f, -0.085209f, 0.828094f, 0.177417f, -0.594021f, -0.036315f, -0.253424f, -0.039513f, -0.172371f, -0.134450f, -0.543463f, 0.089181f, 0.060721f, -0.617866f, -0.234254f, 0.159345f, 0.228676f, 0.041045f, -0.501542f, 0.082834f, 0.068487f, 0.183233f, 0.435704f, -1.452953f, -0.258332f, -0.358580f, 0.164726f, -0.516031f, -0.452942f, 0.745211f, -0.243316f, -0.280004f, -1.671518f, 0.437625f, 1.382454f, -0.000916f, -1.227305f, -0.019513f, 0.508584f, -0.689233f, 0.078474f, -0.433368f, -0.484589f, -0.235791f, 0.776494f, -0.243075f, 0.033139f, 0.227071f, 0.508214f, -1.149056f, -0.518097f, -0.135174f, -0.132950f, 0.025920f, -0.165674f, -0.580891f, 0.309533f, -0.358481f, 0.989996f, -0.026816f, -0.176974f, -0.471717f, 0.623030f, 0.664403f, -0.615787f, 0.394270f, 1.257428f, -0.195399f, -0.572542f, 0.513378f, 0.470792f, -0.712544f, 0.340182f, -0.260997f, -0.580306f, -0.015642f, 0.237283f, 0.899258f, 0.272555f, 0.207446f, 0.012137f, -0.131142f, 0.122130f, -0.077262f, -0.354751f, 0.036788f, 0.213568f, 1.033327f, 0.793879f, 0.226899f, 0.221892f, -0.449892f, 0.161855f, 0.446849f, 0.000267f, -0.178278f, 1.567038f, -0.041267f, 0.346024f, 0.131072f, 0.423879f, 0.278795f, -0.326814f, -0.365703f, 0.354613f, -0.077029f, -0.494646f, 0.165608f, -0.142478f, 1.407946f, 0.437955f, 0.088249f, -0.138087f, 0.354536f, 0.320950f, -0.013923f, 0.356554f, 0.451115f, 0.071202f, -0.137524f, -0.032605f, 0.367232f, -0.413406f, 0.506881f, -0.054133f, 0.707747f, -0.047597f, -0.935496f, 1.437509f, -1.007802f, -0.416718f, -0.190340f, 0.859302f, 0.483448f, -0.367487f, 0.152503f, 0.166607f, 0.224121f, -0.203344f, -0.163800f, 0.075471f, 1.260323f, 0.325626f, -0.091744f, -0.176862f, 1.114919f, 0.116154f, 0.011968f, 0.078353f, -0.060032f, -0.104409f, 0.174710f, -0.386008f, 0.102096f, -0.105376f, 0.664791f, -0.174743f, 0.100407f, -0.658635f, -0.135085f, 0.044878f, 0.035341f, 0.199582f, 0.136998f, -0.849100f, 0.366230f, 0.596986f, -0.310760f, 0.106607f, 0.318285f, -0.654457f, -0.296249f, 0.064100f, 0.401004f, -0.672715f, 0.259258f, -0.261264f, 0.140719f, 0.085929f, 0.150735f, 0.369998f, -0.487008f, 0.142123f, -0.531054f, -0.135950f, -0.560428f, 0.201781f, 0.332066f, 0.086335f, 0.417518f, -0.019090f, -0.369345f, -0.636731f, 0.329063f, 0.468121f, -0.112430f, 0.064629f, -0.158398f, 0.373620f, 0.139740f, 0.701232f, 0.011839f, 0.059294f, -0.288098f, -0.595165f, -0.136761f, -0.024490f, -0.096646f, -0.190405f, 0.611807f, -0.006319f, 0.102386f, 0.351577f, -0.423664f, -0.314843f, -0.296684f, -0.204779f, -0.080403f, 0.406293f, 0.660457f, -0.009715f, 0.623135f, -0.028180f, 0.296994f, 0.132590f, 0.214084f, -0.112939f, 0.126149f, 0.022306f, -0.050763f, 0.125204f, -0.055405f, 0.214662f, -0.170176f, 0.093898f, -0.123392f, 0.017653f, -0.052786f, -0.261597f, 0.216630f, -0.054802f, -0.030001f, -0.012173f, -0.064695f, 0.169658f, -0.108678f, 0.219340f, 0.209020f, -0.162068f, 0.085661f, 0.142173f, -0.125822f, -0.137639f, -0.076856f, 0.148689f, -0.083585f, 0.032335f, 0.160549f, 0.104446f, 0.003572f, -0.192678f, 0.145621f, 0.017461f, -0.122858f, -0.139374f, 0.128789f, 0.065570f, 0.090777f, 0.129029f, -0.021965f, 0.016203f, -0.022928f, -0.046635f, 0.011119f, 0.084074f, 0.032838f, 0.161808f, -0.060933f, 0.036230f, 0.039954f, -0.043213f, 0.061365f, -0.084737f, 0.032901f, -0.083859f, -0.040072f, -0.085056f, 0.420349f, 0.257828f, 0.001250f, 0.536831f, 0.282319f, -0.127049f, -0.298813f, -0.025269f, -0.094483f, -0.113117f, -0.155493f, -0.053511f, -0.255255f, 0.107539f, 0.074702f, -0.163562f, -0.207516f, -0.090171f, -0.218948f, -0.225308f, 0.004902f, 0.108938f, -0.109850f, -0.249760f, -0.057621f, -0.399187f, -0.035918f, 0.105977f, -0.048551f, -0.108441f, -0.092622f, 0.181542f, 0.468929f, -0.438026f, 0.207339f, 0.302585f, 0.256236f, 0.248370f, -0.594372f, 0.268890f, -0.018427f, 0.460739f, 0.129429f, 0.376604f, -0.187932f, 0.820158f, -0.433924f, 0.123164f, -0.377549f, -0.362651f, -0.479438f, -0.697957f, 0.138084f, 0.299477f, -0.283831f, -0.754615f, -0.064548f, -0.361940f, -0.285275f, -0.267328f, 0.085389f, -0.295096f, -0.267131f, -0.405483f, 0.267407f, -0.150497f, -0.320889f, 0.156665f, 0.501495f, -0.006373f, -0.493529f, 0.284578f, 0.200685f, 0.339032f, -0.780286f, 0.065919f, -0.022991f, 0.783553f, -0.687473f, -0.141059f, -0.119007f, 0.116506f, 0.010939f, -0.614762f, -0.143916f, -0.272043f, -0.709459f, -0.991173f, -0.607865f, -0.317571f, 0.116280f, -0.283982f, -0.086280f, 0.063056f, -0.834085f, 0.695769f, 0.073069f, 0.214915f, -0.123058f, 0.271914f, 0.145063f, 0.703037f, -0.477076f, 0.153323f, -0.036039f, 0.444915f, -0.385308f, -0.059287f, -0.324811f, 1.127248f, -0.055539f, 0.191538f, 0.275178f, -0.386367f, -0.033373f, -0.213418f, 0.063248f, -0.083070f, -0.716032f, -0.940184f, 0.038251f, 0.164580f, 0.139338f, 0.221264f, 0.475253f, -0.501824f, -0.667117f, 1.565451f, -0.334903f, -0.227493f, 0.039824f, 0.541726f, -0.351397f, -0.322045f, -0.585119f, 0.275505f, -0.342795f, -0.043565f, 0.461739f, -0.251513f, -0.203230f, 1.151904f, 0.135669f, -0.126965f, -0.293640f, -0.727229f, 0.103304f, 0.190440f, -0.157780f, -0.158353f, -1.651001f, -1.118833f, -0.093018f, -0.309216f, 0.812078f, -0.124439f, 0.583221f, -0.518634f, -0.089240f, -1.146353f, -0.113981f, -0.348731f, 0.245471f, -0.335227f, 0.454232f, -0.612292f, -0.524473f, 0.489189f, -0.633170f, -1.006497f, 0.457128f, -0.766734f, -0.214242f, 0.923010f, -0.296480f, -0.472388f, -0.955780f, -0.714824f, 0.417377f, -0.512930f, -0.067966f, 0.367955f, -1.578119f, 0.287218f, -0.922000f, -0.653231f, 0.514098f, 0.056162f, -0.539756f, 0.514209f, 0.715465f, -0.050168f, 0.966446f, -1.237225f, 0.529156f, -0.006035f, 0.270321f, 0.256811f, -0.793415f, 0.975821f, -1.077759f, -0.507209f, 0.468481f, -0.000720f, -0.134618f, -0.231791f, 0.158290f, -0.480030f, 0.025760f, 0.641811f, -0.213099f, -0.374876f, 0.115556f, 0.368344f, -1.021219f, 0.495891f, 0.810211f, -0.150527f, -0.581194f, 0.230908f, -0.473820f, 0.038038f, 0.218540f, 0.151835f, 0.368878f, 0.675349f, 1.024124f, 0.464139f, 0.075109f, 0.112337f, -0.167238f, -0.012182f, -0.012591f, -0.183576f, 0.410101f, 0.595590f, -0.104779f, -0.231403f, -0.580319f, 0.313268f, -0.023832f, -0.336040f, 0.263538f, -0.185714f, -0.027928f, 0.745060f, -0.381081f, -0.225034f, 0.855659f, 0.159460f, 0.228306f, -0.521334f, -0.208103f, -0.085285f, -0.350925f, -0.463159f, -1.002724f, 1.745699f, 0.274251f, 0.474695f, -0.198379f, 0.533075f, 0.102726f, 0.148325f, -0.557728f, -0.191893f, 0.246525f, 0.051737f, 0.375238f, -0.023378f, -0.475722f, 0.596136f, -0.146050f, -0.674026f, 0.194335f, 0.218258f, -0.134175f, 0.598218f, -0.254995f, 0.176178f, 0.393660f, -0.605847f, -0.126999f, -1.081300f, -0.013276f, 0.195081f, 0.379610f, -0.249586f, -0.547794f, 0.670870f, -0.684553f, 0.099300f, 0.455014f, 0.153517f, -0.332079f, 0.268603f, -0.488459f, -0.005028f, 0.012722f, 0.046211f, 0.069119f, 0.103541f, 0.489914f, 0.722868f, -0.116762f, -0.128608f, -0.510513f, -0.188737f, 0.160986f, 0.487552f, -0.668410f, -0.149283f, -0.072892f, -0.485379f, 0.290398f, -1.508702f, 0.315057f, 0.122090f, 0.330921f, 0.077097f, 0.105568f, -0.272367f, 0.259565f, 0.498167f, 0.410505f, -0.916939f, -0.308362f, 0.090092f, -0.771266f, 0.195020f, 0.164259f, -0.371241f, 0.162963f, 0.202688f, 0.913663f, 0.478850f, -0.375790f, 0.147830f, -0.594477f, -0.386529f, 0.082146f, 0.139044f, 0.004946f, 0.209702f, -0.074167f, -0.399884f, -0.610322f, -1.362376f, 0.646328f, -0.559838f, 0.562428f, 0.145374f, -0.515471f, -0.952171f, -0.190446f, 0.430328f, 0.025265f, 0.319312f, -0.362579f, 0.062163f, -0.347469f, 0.598601f, 0.080592f, 0.402717f, 0.136622f, -0.091006f, 0.187165f, -0.061843f, -0.261764f, 0.041111f, 0.630054f, -0.050347f, -0.046818f, 0.256003f, -0.197466f, -0.336243f, 0.154792f, -0.504630f, 0.149494f, -0.313953f, -0.071585f, -0.645076f, 0.850003f, 0.111139f, 0.117383f, -0.110645f, 0.071805f, 0.078940f, 0.219705f, -0.098477f, 0.065618f, 0.341224f, -0.064118f, 0.139535f, 0.085503f, 0.052840f, -0.180212f, 0.098498f, -0.050281f, 0.027606f, -0.096958f, 0.097169f, -0.048591f, -0.031598f, -0.142374f, 0.026295f, 0.030190f, -0.015652f, 0.089834f, -0.297611f, -0.004252f, -0.074129f, -0.241798f, -0.449393f, 0.097250f, 0.027360f, 0.002724f, 0.017110f, 0.038204f, -0.169113f, -0.010018f, 0.122979f, 0.036312f, 0.051276f, -0.059674f, 0.095314f, 0.086850f, 0.007271f, 0.134309f, -0.114331f, -0.189228f, 0.092565f, 0.099307f, -0.115442f, -0.066826f, -0.156580f, -0.066592f, 0.107527f, -0.017071f, -0.048215f, -0.044439f, -0.195827f, -0.064424f, 0.045797f, 0.167358f, 0.129223f, -0.153798f, 0.142674f, 0.409819f, 0.150089f, 0.275664f, 0.194556f, -0.278979f, -0.409492f, -0.236341f, -0.050560f, 0.030743f, -0.251784f, 0.106558f, 0.233418f, 0.115821f, 0.024542f, -0.100688f, 0.137057f, -0.101024f, 0.066239f, -0.145089f, -0.343299f, -0.088536f, 0.054513f, -0.156737f, -0.001045f, 0.182378f, -0.696046f, -0.142821f, -0.007413f, 0.086372f, -0.095781f, -0.059696f, 0.030886f, -0.104315f, 0.200889f, 0.100081f, -0.140052f, -0.172780f, -0.148227f, -0.634321f, 0.070207f, -0.214964f, 0.553677f, 0.098435f, 0.369069f, 0.006872f, -0.205180f, -0.293145f, 0.413869f, -0.807600f, -0.300197f, -0.461435f, -0.734076f, -0.020630f, 0.186265f, -0.621033f, -0.730508f, -0.248935f, -0.233105f, -0.409428f, -0.628412f, 0.110838f, -0.065473f, -0.237676f, 0.186822f, -0.594891f, -0.260598f, -0.082524f, 0.009170f, -0.129559f, -0.273322f, -0.125670f, -0.298657f, -0.296232f, 1.299490f, 1.318295f, -0.472910f, 0.024904f, -0.353834f, -0.064008f, 0.046853f, -0.838570f, 0.513239f, 0.095041f, -0.386525f, 0.153536f, -0.485596f, -0.072092f, -0.695990f, 0.173556f, -0.839413f, -0.388183f, -0.640062f, 0.540310f, -0.142912f, -0.849061f, 0.802253f, -0.089182f, -0.327042f, -0.009094f, -1.251394f, -0.183867f, -0.087683f, -0.259249f, -0.329438f, -0.570022f, 1.143580f, 1.137481f, -0.399393f, 0.445550f, -0.575042f, 0.253745f, 0.207912f, -1.268628f, 0.043288f, -0.107524f, 0.040303f, -0.144284f, -0.828170f, 0.086733f, -0.002129f, -0.450742f, -0.774581f, 0.145281f, 0.019640f, 0.656098f, 0.086612f, -0.561776f, 0.560230f, -0.131748f, -0.342119f, 0.213751f, -0.605032f, 0.187021f, 0.533507f, -0.102494f, 0.232593f, -0.332239f, 0.990934f, 0.209861f, -0.172316f, 0.481040f, -1.016354f, -0.111347f, -0.193405f, -1.837233f, 0.107712f, -0.558136f, -0.116980f, -0.052360f, 0.048145f, -0.094825f, 1.026263f, 0.132172f, -0.682305f, 0.334402f, 0.123962f, 0.140696f, 1.316202f, -0.068160f, -1.040575f, 0.671378f, -0.070835f, -0.343829f, -0.288087f, 0.583521f, -0.178037f, -0.474907f, 0.903263f, -0.310536f, 0.030155f, 0.021316f, 0.727177f, 0.126289f, -1.537845f, -0.796492f, -0.949482f, -0.450231f, -0.263013f, 0.061929f, 0.206755f, 0.072394f, -0.031466f, -0.017289f, 0.659803f, -0.038950f, 0.022834f, -0.341231f, 0.345606f, -0.315844f, 0.501705f, 0.189239f, -0.151312f, 0.946571f, -0.250637f, 0.394513f, -0.225480f, 0.192339f, 0.793079f, -0.714743f, 0.190318f, 0.317562f, -0.319297f, -0.423169f, 0.629716f, -0.403384f, -0.554294f, -0.104659f, -0.923423f, 0.416035f, 0.202656f, -0.495638f, 0.221476f, -0.015408f, 0.586414f, -0.116212f, -0.230188f, 0.862259f, 0.531774f, -0.073260f, 0.124241f, -0.269003f, -0.092320f, 0.341475f, 0.018672f, -0.616380f, 0.603685f, 1.027335f, -0.155241f, 0.059648f, 0.227802f, -0.097973f, 0.226684f, -0.487582f, 0.014744f, -0.171964f, 0.307567f, -0.381547f, 0.527341f, -0.054953f, -0.510920f, -0.122986f, 0.000765f, -0.067597f, -0.239068f, 0.026635f, 0.701633f, -0.066553f, -0.322028f, 0.086428f, 0.228359f, -0.235878f, -0.412119f, 0.028984f, 0.352419f, -0.026547f, 0.398950f, -0.169637f, 0.659060f, 0.578949f, 0.288604f, -0.085915f, 0.415532f, -0.551376f, 0.582921f, -0.022197f, -0.344065f, 0.043428f, 0.210001f, -0.609138f, -0.183708f, 0.164102f, -0.345093f, -0.131549f, -0.044946f, 0.729820f, 0.299341f, -0.051722f, 0.350042f, 0.011144f, 0.163262f, 0.736711f, 0.565645f, -0.317180f, 0.497361f, 0.344707f, 0.295651f, -0.888540f, 0.194922f, 0.000113f, 0.443167f, 0.032952f, -0.703962f, -0.192172f, 0.233291f, -0.924129f, 0.343424f, 0.579817f, 0.306980f, -0.074527f, 0.493271f, -0.362723f, 0.114103f, 0.078744f, 0.512191f, -0.155791f, 0.088401f, -0.364224f, 0.208042f, 0.083374f, -0.059686f, -0.069723f, -0.095346f, 0.274202f, -0.015951f, -0.233541f, 0.061943f, 0.768346f, -0.270120f, 0.131489f, 0.595994f, 0.150518f, -0.341499f, -0.306484f, 0.025739f, 0.390743f, 0.542923f, -1.187039f, -0.174483f, -0.007722f, -0.011891f, -0.418020f, 0.464808f, -0.061548f, 0.043985f, -0.149354f, 0.603689f, -0.878172f, -0.461901f, 0.247910f, -0.414514f, -0.129423f, -0.552191f, -0.283778f, 0.430277f, -0.240614f, 0.296060f, 0.236584f, -0.962218f, 0.444687f, -0.197646f, -0.179301f, 0.023164f, 0.101806f, -0.488565f, -0.322992f, 0.021619f, -0.193105f, -0.260508f, -0.460527f, 0.162470f, 0.034500f, 0.056596f, -0.435967f, 0.587728f, 0.206949f, 0.260071f, -0.249840f, 0.570082f, -0.031027f, -0.043647f, 0.676274f, -0.140589f, 0.110313f, -0.775668f, 0.043618f, 0.519132f, -0.031603f, -0.581409f, 0.213435f, -0.740409f, 0.175207f, -0.361105f, -0.132174f, -0.138595f, -0.035076f, 0.110630f, -0.120659f, 0.027997f, 0.030351f, 0.010609f, -0.104142f, 0.276444f, -0.132025f, 0.020446f, 0.118090f, 0.225365f, -0.167778f, 0.140641f, -0.103852f, -0.088654f, -0.004088f, -0.137635f, -0.054093f, 0.100088f, 0.034387f, 0.023651f, -0.071890f, 0.219524f, 0.148517f, -0.112671f, 0.139070f, -0.070661f, -0.104830f, -0.342509f, 0.104105f, 0.079133f, 0.079899f, 0.014668f, -0.145234f, -0.018651f, 0.157493f, 0.026779f, 0.012814f, -0.074000f, -0.042688f, 0.131935f, 0.076399f, 0.094426f, -0.034078f, 0.027551f, -0.076055f, 0.048826f, -0.023380f, -0.018511f, 0.032854f, 0.125523f, -0.140468f, 0.125488f, -0.065038f, -0.013694f, -0.153580f, -0.060507f, -0.005224f, -0.141070f, -0.011436f, 0.137379f, -0.127033f, -0.038174f, -0.075873f, 0.062012f, 0.154948f, -0.177227f, -0.081682f, -0.282001f, -0.038262f, 0.007987f, 0.089987f, 0.115523f, 0.019663f, -0.037188f, -0.173517f, -0.203122f, -0.273917f, 0.138096f, -0.085362f, -0.010061f, -0.039634f, 0.240537f, 0.093802f, -0.031367f, 0.151440f, 0.218942f, -0.039289f, -0.147854f, -0.018818f, 0.078624f, 0.158945f, -0.049501f, -0.063667f, 0.345257f, -0.696502f, -0.102388f, 0.214789f, 0.480134f, -0.281880f, 0.099262f, 0.344143f, -0.279958f, -0.236433f, 0.566698f, -0.043282f, 0.246610f, 0.035404f, -1.307650f, 0.121287f, 0.066048f, -0.678424f, 0.066577f, 0.402977f, 0.579428f, -0.105923f, -0.093595f, -0.686358f, -0.046862f, 0.150162f, 0.056900f, -0.127654f, -0.235067f, 0.044780f, 0.042820f, 0.029536f, 0.006810f, -0.633301f, -0.090345f, -0.296651f, 0.318324f, -0.017268f, -0.041735f, 0.296123f, -0.791979f, -0.650125f, 0.814791f, 0.036884f, 0.556362f, 0.305641f, -1.407393f, -0.116076f, 0.548025f, -0.893335f, -0.037574f, -0.256583f, 0.359182f, -0.115087f, -0.105877f, 0.059492f, 0.264128f, -0.277049f, 0.065111f, -0.533326f, -0.542697f, 0.647313f, 0.647861f, -0.224111f, 0.429820f, -0.323743f, 0.071123f, -0.104019f, 0.112425f, 0.814903f, 0.060965f, -0.588198f, -0.607460f, 0.153830f, 1.189253f, -0.874026f, 0.405880f, 0.776710f, -1.028329f, -0.494104f, 0.620871f, -0.552686f, 0.088372f, -0.408060f, 0.388701f, -0.115047f, -0.322444f, 0.008107f, 1.165573f, 0.521842f, -0.299345f, -0.946808f, 0.113321f, 0.520026f, 0.366107f, -0.099274f, 0.056869f, 0.070867f, 0.256067f, -0.285584f, -0.175308f, 0.773122f, 0.797348f, -0.265300f, 0.023936f, 0.022121f, 1.000423f, -0.414259f, 0.426956f, 0.162958f, -0.326260f, -0.258147f, -0.288938f, 0.166462f, -0.044632f, 0.038629f, 0.540767f, -0.146149f, -0.163486f, -0.152657f, 0.691740f, 0.093967f, -0.188513f, -1.015382f, 0.105469f, 1.068115f, 0.776301f, -0.279905f, -0.351693f, 1.274647f, -0.268070f, -0.207055f, -0.243892f, 0.544564f, 0.764032f, -0.509190f, 0.680244f, 0.061612f, 0.348667f, -0.030858f, 0.250429f, 0.329825f, -0.333198f, 0.016438f, -0.664814f, 1.428892f, 0.182532f, 0.468975f, 0.058475f, -0.090956f, -0.084434f, -0.069658f, -0.315511f, -0.329231f, 0.986798f, -0.282250f, 0.177935f, -0.306589f, 0.076069f, 0.254188f, -0.017154f, 0.563289f, 0.331054f, 0.496397f, -0.078435f, 0.140966f, -0.075913f, -0.295123f, 0.019455f, 0.107218f, -0.140549f, -0.230114f, 0.654959f, -0.258269f, -0.097226f, 0.038848f, -0.721795f, 0.065286f, 0.198010f, -0.392918f, 0.442051f, -0.015366f, 0.621965f, -0.019359f, 0.334883f, -0.213644f, 0.638889f, 0.782416f, -0.152894f, 0.297135f, -0.174641f, 0.936660f, -0.246584f, -0.553251f, 0.345386f, 1.287468f, -0.201535f, 0.142436f, 0.384040f, -0.128217f, 0.282043f, -0.272590f, 0.625590f, -0.318231f, 0.477938f, -0.286258f, 0.090532f, -0.295621f, -0.488405f, 0.038399f, 0.379081f, 0.152659f, 0.582329f, -0.054744f, 0.550235f, -0.297055f, 0.387093f, 0.021668f, 0.555814f, -0.198960f, 0.251860f, 0.568305f, 0.514594f, -0.327997f, -0.133639f, 0.142221f, 0.192204f, 0.403576f, 0.184683f, -0.289359f, 0.580232f, -0.315958f, 1.088934f, -0.031778f, 0.087675f, -0.360666f, 0.789967f, -0.647231f, 0.393653f, -0.149040f, 0.133414f, 0.373620f, -0.303688f, -0.145250f, 0.102682f, 0.065308f, 0.131465f, -0.095121f, 0.282626f, 0.332211f, 0.745236f, -0.428098f, 0.306840f, 0.605589f, 1.351504f, -0.104408f, -0.110999f, 0.641150f, -0.314315f, 0.114287f, 0.207591f, -0.002082f, 0.092414f, -0.393472f, 0.028507f, 0.797916f, -0.401327f, 0.122658f, -0.214269f, -0.453546f, -0.070756f, 0.228192f, 0.435476f, -0.219681f, -0.325451f, 0.232728f, 0.177672f, 0.028414f, -0.204336f, -0.156304f, 0.706259f, -0.053333f, 0.511816f, -0.181017f, 0.798009f, -0.037190f, 0.125273f, -0.532503f, 0.475215f, 0.275458f, -0.429445f, -0.218297f, 0.043657f, 0.026773f, 0.202642f, -0.660458f, -0.299583f, 0.207614f, -0.429642f, 0.551653f, -0.012355f, -0.710261f, 0.204625f, -0.275196f, 0.171907f, -0.318675f, 0.065607f, 0.261479f, -0.129679f, -0.140216f, -0.171588f, -0.229261f, 0.282095f, -0.529603f, 0.141620f, 0.211304f, -0.846267f, 0.492314f, 0.908792f, -0.907116f, -0.029390f, -0.051201f, -0.127075f, -0.680971f, 0.301335f, -0.679153f, -0.346056f, -0.143948f, 0.098549f, 0.117047f, -0.236953f, -0.296381f, 0.268900f, 0.341634f, -0.095824f, -0.114009f, -0.067918f, 0.034939f, -0.004096f, 0.289690f, 0.207640f, 0.100437f, -0.128901f, -0.159762f, 0.264509f, -0.419196f, -0.023911f, -0.125650f, -0.499389f, -0.211734f, -0.018792f, -0.300454f, -0.108978f, 0.020549f, -0.050899f, 0.068791f, -0.028202f, -0.004889f, -0.303599f, 0.030806f, 0.079946f, 0.116593f, -0.165544f, -0.044909f, 0.221240f, 0.166975f, 0.245772f, 0.072352f, 0.030807f, 0.202354f, -0.044278f, -0.061798f, 0.362343f, 0.157691f, 0.054472f, 0.005003f, -0.013750f, -0.027892f, 0.027954f, -0.001463f, -0.242966f, -0.050411f, -0.170358f, 0.088467f, -0.029985f, -0.054171f, -0.008086f, 0.075012f, -0.106425f, -0.083017f, 0.147142f, -0.106273f, 0.021712f, 0.024974f, -0.001426f, 0.068977f, -0.094709f, 0.004328f, -0.047972f, 0.055966f, -0.131525f, 0.018461f, -0.101398f, -0.083500f, -0.097330f, -0.102183f, 0.118646f, -0.069211f, 0.140840f, 0.153488f, 0.034609f, -0.117709f, -0.037312f, 0.086403f, -0.045163f, -0.132144f, 0.087175f, 0.141817f, 0.064024f, -0.329123f, 0.115859f, 0.183222f, -0.377559f, 0.290395f, -0.029183f, -0.105455f, -0.325091f, 0.386330f, 0.224614f, 0.177936f, -0.017536f, -0.081692f, -0.390510f, -0.153881f, -0.089152f, 0.115896f, 0.434050f, -0.145921f, 0.042440f, -0.096562f, 0.252677f, 0.057603f, 0.079353f, -0.026558f, -0.074935f, -0.395370f, 0.008697f, -0.057258f, 0.238167f, -0.238729f, -0.276435f, 0.186573f, 0.779617f, -1.603436f, -0.191566f, 0.350729f, -0.190420f, -0.661190f, -0.408454f, 0.395556f, -0.212026f, 0.219975f, -0.604608f, 0.261707f, -0.066844f, -0.401012f, -0.139735f, 0.428596f, 0.401322f, -0.016229f, 0.070765f, -0.430414f, 0.666322f, -0.040095f, 0.221230f, -0.138803f, 0.203273f, -0.077303f, 0.081300f, 0.271405f, 0.295954f, 0.192701f, -0.131780f, 0.236149f, 0.905904f, -1.944587f, 0.460107f, 0.697764f, -0.335396f, -0.159491f, -0.371021f, -0.109414f, 0.191953f, -0.495460f, -0.211969f, -0.061569f, 0.759817f, 0.313349f, 0.416478f, 0.190135f, 0.933638f, 0.052825f, 0.315483f, 0.105472f, 0.830349f, -0.107119f, 0.907893f, -0.528071f, 0.138648f, 0.318588f, -0.427013f, 0.290286f, 0.474648f, 0.669978f, -0.448447f, 0.285668f, 1.003204f, -1.764916f, 0.928386f, 0.901475f, -0.466707f, -0.256004f, -0.313165f, -1.436547f, -0.334953f, -0.506358f, 0.092302f, 0.090856f, -0.498499f, 0.011397f, 0.055964f, 0.045107f, 0.815529f, 0.008228f, -0.387442f, 0.155934f, 0.547908f, 0.737865f, 0.915843f, -0.235059f, -0.232812f, 0.057267f, 0.512936f, 0.075821f, 0.028198f, 0.543972f, -0.424087f, 0.058882f, 0.665117f, -0.379449f, 0.722191f, 0.102772f, -0.343336f, -0.069159f, 0.330010f, -1.743529f, 0.286286f, 0.534710f, 0.024363f, 0.070148f, -0.625613f, 1.006146f, 0.268534f, 0.099858f, 0.764722f, -0.043131f, -0.447356f, -0.684675f, -0.138590f, 0.130369f, 0.536447f, 0.232226f, -0.001603f, -0.098749f, 0.338415f, 0.428243f, -0.502448f, 0.673522f, 0.626267f, -0.398834f, 0.053707f, 0.135917f, 0.489562f, -0.493877f, -0.118040f, -0.676170f, 0.799464f, -0.947856f, -0.227843f, 0.532329f, -0.227285f, -0.357106f, -0.559713f, 0.870194f, 0.277508f, -0.126126f, 0.045835f, -0.131125f, -0.523549f, 0.369474f, -0.353390f, 0.410154f, 0.929404f, 0.771026f, 0.002832f, 0.049082f, 0.070448f, -0.140483f, -0.142336f, 0.694120f, 0.220096f, 0.571823f, -0.338959f, -0.008434f, 0.186848f, 0.723821f, -0.350346f, -0.064972f, 0.117754f, -0.729777f, 0.341153f, -0.129353f, 0.742836f, -0.210402f, -0.606628f, -0.640761f, 0.360292f, 0.215266f, 0.643924f, -0.092003f, 0.744727f, -0.107056f, -0.230110f, 0.193280f, -0.158350f, -0.087010f, -0.101697f, -0.093719f, 0.030308f, 0.350538f, -0.767140f, 0.020043f, -0.008545f, 0.357048f, -0.433188f, -0.043008f, 0.885770f, 0.892339f, 1.034000f, -0.289785f, -0.103279f, -0.094904f, 0.149874f, -0.211115f, -0.189295f, 0.408613f, -0.123808f, -0.270394f, -0.314393f, 0.609860f, 0.419981f, 0.060343f, 0.262494f, -0.023637f, 0.271213f, 0.215015f, 0.254212f, -0.152895f, 0.273701f, 0.292675f, 1.361157f, -0.581637f, -0.439150f, 0.062678f, -0.196544f, -0.910925f, 0.582339f, -0.315262f, -0.006057f, 1.252652f, 0.616098f, 0.301525f, -0.280906f, 0.396273f, 0.871278f, -0.557625f, 0.225176f, -0.363576f, 0.683197f, -0.277074f, -0.638425f, -0.209460f, -0.241209f, -0.014620f, 0.199180f, -0.187473f, -0.359751f, 0.055981f, 0.356439f, -0.416365f, -0.062906f, -0.022321f, 0.974659f, -0.295206f, -0.079159f, 0.152832f, 0.022866f, -0.111198f, -0.078065f, 0.034919f, -0.237514f, 0.683018f, -0.011991f, 0.284548f, -0.216504f, 0.645366f, 0.076890f, -0.187099f, 0.174573f, -0.563784f, 0.480771f, -0.461071f, 0.052134f, 0.637441f, 0.311958f, -0.154306f, 0.431252f, 0.264730f, 0.175384f, -0.234380f, -0.039033f, -0.405012f, 0.215237f, 0.060536f, 0.086538f, -0.671694f, 0.479565f, -0.211321f, -0.121064f, 0.142631f, -0.145251f, -0.329764f, 0.047805f, -0.163018f, -0.277855f, -0.214706f, 0.142188f, -0.377000f, 0.171191f, 0.245739f, 0.075048f, 0.086841f, 0.022196f, -0.306118f, -0.169679f, -0.306622f, 0.117312f, -0.025029f, 0.036433f, -0.206756f, 0.138478f, -0.157021f, -0.231418f, 0.072906f, -0.903376f, -0.283258f, 0.323578f, -0.778734f, 0.495314f, 0.110177f, 0.199866f, -0.042786f, -0.089065f, -0.516624f, -0.368100f, 0.064517f, -0.060461f, 0.212219f, -0.136768f, -0.362917f, 0.731874f, 0.639623f, 0.026183f, 0.010756f, -0.163362f, 0.443628f, -0.042496f, -0.196360f, -0.296854f, 0.119948f, 0.130650f, -0.340484f, 0.482639f, -0.118910f, -0.138799f, -0.012521f, -0.479493f, -0.155050f, -0.181941f, -0.105492f, -0.136762f, 0.097529f, 0.148989f, -0.077149f, -0.046644f, -0.196293f, -0.365412f, 0.028251f, 0.339473f, -0.130804f, -0.251983f, -0.082376f, 0.420606f, 0.134796f, 0.279983f, -0.039917f, 0.060206f, 0.233196f, 0.001390f, -0.099103f, 0.383569f, -0.083595f, -0.119473f, 0.222966f, 0.159011f, 0.095801f, -0.158749f, -0.076515f, -0.337187f, -0.218231f, -0.083941f, -0.082568f, -0.134824f, 0.153504f, -0.110824f, 0.160092f, 0.189877f, 0.079342f, 0.046984f, 0.012472f, 0.115511f, -0.067886f, -0.038709f, 0.059809f, 0.027904f, -0.021296f, -0.020289f, 0.055654f, 0.099596f, -0.093404f, 0.141211f, 0.042843f, 0.112740f, 0.018104f, 0.086546f, -0.130439f, 0.123827f, -0.154360f, 0.072310f, 0.160650f, -0.070981f, -0.113558f, 0.080207f, -0.079298f, 0.270033f, 0.045498f, 0.329222f, -0.077300f, 0.184944f, 0.494242f, -0.406906f, 0.315209f, 0.022217f, 0.022232f, -0.335883f, 0.514587f, -0.009167f, -0.068974f, -0.013029f, -0.291145f, -0.225170f, -0.077105f, 0.150422f, 0.211366f, 0.060829f, -0.140238f, -0.022802f, -0.105809f, 0.371143f, -0.269156f, 0.408550f, -0.162484f, -0.162653f, -0.088897f, 0.191186f, -0.281139f, 0.114023f, 0.097255f, -0.366050f, -0.589493f, -0.144231f, -0.948811f, -0.020409f, 0.545857f, -0.019786f, -0.592657f, -0.788379f, 0.928657f, 0.444751f, 0.163680f, 0.178895f, -0.122865f, -0.187746f, -0.065275f, 0.368803f, 0.366054f, 0.528105f, -0.007292f, 0.312286f, 0.005735f, 0.729367f, -0.288932f, -0.079490f, -0.075408f, -0.097687f, 0.187228f, 0.415432f, -0.256531f, -0.231375f, -0.500786f, -0.308717f, -0.202517f, -0.565750f, -1.537123f, 0.096581f, 0.449385f, 0.281898f, -0.212613f, -1.317054f, 1.589923f, -0.273413f, 0.087031f, -0.071395f, 0.352689f, 0.171566f, 0.716587f, -0.189602f, 0.765222f, 0.490503f, 0.107375f, -0.153372f, 0.014581f, 0.124772f, -0.256575f, 0.160895f, -0.033253f, -0.165365f, 0.350793f, -0.586631f, 0.048733f, 0.268851f, 0.324229f, 0.390398f, -0.433729f, -0.495320f, -2.251664f, 0.022966f, -0.005733f, 0.580403f, -0.382250f, -0.901221f, 1.794133f, 0.332916f, 0.015637f, 0.134283f, 0.308836f, 0.770372f, 0.759861f, 0.216424f, 0.998747f, -0.089366f, 0.038706f, -0.259150f, -0.346893f, -0.576348f, -0.127552f, 0.186932f, 0.278363f, 0.322526f, 0.285741f, -0.708263f, -0.027841f, -0.160772f, -0.158429f, 0.001616f, -0.784398f, 0.205757f, -2.473106f, 0.050659f, -0.356346f, 0.445275f, -0.471178f, -0.790975f, 0.708774f, -0.204747f, -0.286093f, -0.201629f, -0.008407f, 1.033168f, 0.934649f, 0.052820f, 0.232381f, 0.092882f, -0.097955f, -0.679388f, -0.124336f, -0.238333f, 0.445446f, 0.639123f, 0.674089f, -0.062649f, -0.685260f, 0.025794f, -0.264326f, -0.263063f, -0.216260f, -0.272873f, -0.110456f, -0.293127f, -1.573483f, 0.093401f, -0.505289f, -0.148004f, -0.557765f, -0.064032f, 0.210445f, -0.343403f, 0.082526f, 0.589479f, -0.628730f, -0.868616f, 0.709155f, 0.374853f, -0.048909f, -0.437922f, 0.134886f, -1.053357f, -0.149199f, 0.337673f, 0.611843f, 0.301629f, 0.121275f, 0.270972f, 0.200827f, -0.240826f, 0.025823f, -0.219138f, -0.347087f, -0.029274f, -0.070754f, -0.084695f, -0.612662f, 0.077916f, 1.209736f, 0.671152f, -0.897563f, 0.371332f, 0.266227f, 0.692201f, 0.008032f, -0.276566f, 0.033299f, 0.186028f, 0.455369f, -0.003857f, 0.133741f, 0.236774f, -0.026835f, 0.029824f, -0.335377f, -0.656444f, -0.420257f, 0.252779f, -0.681197f, 0.193487f, -0.080991f, 1.100269f, -0.327760f, -0.421010f, -0.102945f, 0.383989f, -0.725569f, 0.617081f, -0.549060f, -0.088500f, 1.139884f, 0.234713f, -0.076891f, 0.119421f, 0.310500f, 0.345673f, -0.097993f, 0.166124f, 0.307997f, 1.368256f, -0.167060f, 0.332992f, 0.055984f, -0.165035f, 0.117252f, 0.806519f, 0.384673f, -0.454643f, -0.009830f, 0.619256f, -0.370240f, -0.297412f, -0.737576f, 0.939244f, 0.138210f, -0.475213f, -0.050286f, 0.054658f, -0.550144f, 0.358322f, -0.429332f, 0.244537f, 0.579378f, -0.237551f, 0.224070f, -0.154765f, -0.125009f, 0.579409f, -0.465066f, -0.131453f, 0.420385f, 1.203739f, 0.055032f, 0.335163f, 0.268489f, 0.373715f, -0.150497f, 0.593773f, -0.204169f, 0.038143f, -0.404323f, 0.302793f, -0.445028f, -0.136148f, -0.466624f, 0.162290f, -0.470625f, 0.079890f, 0.387758f, 0.134009f, -0.379316f, 0.350743f, 0.129016f, -0.483086f, 0.462245f, -0.056133f, 0.151063f, -0.812232f, -0.131735f, 0.420747f, -0.094289f, -0.508984f, -0.453149f, 0.136960f, -0.125442f, 0.392401f, -0.103117f, -0.032956f, -0.038306f, 0.276828f, 0.265125f, -0.302436f, -0.294135f, 0.126020f, -0.318151f, -0.059473f, -0.724489f, -0.493466f, -0.587795f, 0.426144f, -0.240151f, 0.155245f, -0.363646f, 0.134653f, -0.562645f, 0.165468f, 0.343996f, -0.073582f, -0.306520f, -0.328343f, 0.074219f, 0.440497f, 0.357501f, -0.376711f, -0.081538f, 0.240856f, 0.394423f, -0.034606f, -0.129607f, 0.339832f, 0.059668f, -0.112319f, -0.222305f, 0.232430f, -0.303304f, 0.199645f, -0.153935f, -0.135807f, -0.659087f, -0.131332f, -0.603420f, 0.369445f, -0.316474f, -0.068495f, -0.132581f, -0.422848f, -0.096452f, -0.084767f, 0.366055f, 0.334162f, 0.023703f, 0.131799f, -0.240942f, -0.122437f, 0.370982f, -0.016955f, 0.088849f, 0.083115f, 0.294794f, 0.113296f, -0.058576f, 0.258332f, 0.090983f, 0.105222f, -0.114975f, 0.066181f, 0.023317f, -0.268551f, 0.058942f, -0.095708f, 0.033046f, -0.402168f, 0.036345f, -0.159497f, 0.112009f, -0.002909f, 0.103159f, 0.090040f, 0.143093f, -0.043587f, -0.074624f, 0.104778f, -0.116385f, -0.035132f, 0.012486f, 0.025280f, 0.088164f, 0.253192f, -0.099916f, 0.039547f, 0.099437f, -0.057653f, -0.142991f, 0.318149f, 0.122300f, 0.042066f, 0.230024f, -0.048818f, 0.006611f, -0.038761f, 0.022675f, -0.158998f, -0.081151f, 0.027904f, 0.030169f, -0.109084f, -0.005945f, 0.018766f, 0.016279f, -0.093819f, 0.077826f, -0.159556f, -0.046171f, 0.090556f, 0.019455f, -0.077831f, 0.061650f, 0.026512f, 0.100757f, 0.081840f, 0.039274f, -0.007941f, -0.113437f, -0.074275f, -0.022529f, 0.035497f, 0.004421f, -0.070320f, -0.153740f, 0.006379f, -0.070407f, 0.073427f, -0.153372f, 0.021771f, 0.143310f, -0.103170f, -0.015293f, -0.070881f, 0.271334f, 0.580028f, -0.316107f, 0.060541f, 0.347478f, -0.535221f, -0.107088f, 0.080556f, 0.049996f, -0.181895f, -0.030517f, 0.164437f, 0.308373f, 0.296192f, 0.204485f, 0.136926f, 0.082537f, 0.044677f, 0.089292f, -0.077561f, -0.061198f, -0.181975f, 0.123346f, 0.151259f, 0.008820f, -0.003138f, -0.186045f, -0.288346f, -0.122401f, 0.212474f, -0.481211f, 0.077472f, -0.344544f, -0.076714f, -0.356238f, 0.187764f, 0.455851f, 0.497479f, -0.314915f, 0.556165f, 0.395927f, -0.491788f, 0.758104f, -0.081982f, 0.279533f, 0.482446f, 0.006041f, 0.700537f, 0.138299f, 0.568704f, 0.316332f, -0.282524f, 0.156063f, -0.245402f, -0.133713f, -0.380305f, -0.138778f, 0.041105f, 0.163451f, 0.040285f, -0.199415f, -0.425735f, -0.744230f, -0.261747f, 0.707597f, 0.213609f, -0.666319f, -0.231883f, 0.495109f, 0.119922f, 0.050026f, 0.504239f, -0.088352f, -0.728756f, 0.098616f, -0.650150f, 0.702831f, 0.416908f, -0.094240f, 0.131725f, 0.210105f, -0.053803f, 0.372040f, 0.264374f, -0.052114f, -0.078485f, 0.663392f, 0.344396f, -0.082636f, 0.370428f, -0.088484f, 0.164692f, -0.212921f, -0.339205f, 0.147846f, -0.158561f, 0.009857f, -0.209849f, -0.286986f, -0.380372f, 1.150629f, -0.265264f, -0.258519f, 0.447197f, -0.029331f, -0.098155f, 0.844790f, -0.594492f, 0.811721f, -0.015018f, 0.169173f, 0.335478f, 0.539235f, -0.229117f, 0.521322f, -0.315779f, 0.017607f, -0.517290f, -0.102154f, 0.278605f, -0.214118f, 0.138300f, 0.395157f, 0.263230f, -0.022803f, -0.585944f, -0.249042f, -0.018226f, -0.426079f, 0.213488f, -0.103826f, -0.699095f, 0.949298f, 0.129407f, -0.495848f, 0.184392f, 0.289592f, -0.471490f, 0.736780f, 0.215772f, 1.042484f, 0.382219f, 0.435194f, 0.146525f, 0.035206f, -0.296444f, 0.543680f, -0.749257f, 0.035141f, -0.271604f, -0.468922f, 0.252811f, 0.069609f, -0.321042f, 1.258642f, -0.211595f, 0.052081f, -0.373164f, 0.204196f, 0.123241f, -0.270327f, 0.446831f, -0.137038f, -0.621861f, 0.235872f, 0.271788f, 0.097600f, 0.122141f, 0.605937f, -0.197176f, 0.529468f, -0.423835f, 1.108508f, -0.058444f, 0.079999f, -0.427129f, 0.217392f, 0.040619f, 0.524466f, -0.765265f, 0.027376f, -0.394919f, 0.677253f, 0.525761f, 0.030746f, -0.303769f, 0.214337f, 0.074071f, -0.073862f, -0.008209f, 0.088729f, -0.207695f, -0.376790f, -0.447268f, 0.075012f, -0.221835f, -0.080315f, -0.033294f, 0.223334f, -0.339652f, 0.299091f, -0.006431f, 0.073358f, -0.241488f, 0.786819f, 0.524202f, 0.116878f, 0.377535f, 0.523997f, -0.037066f, -0.196404f, -0.616797f, -0.140517f, 0.188819f, 0.666807f, 0.247482f, -0.815399f, 0.534946f, -0.305715f, 0.371323f, -0.168437f, -0.301104f, -0.052206f, 0.149097f, -0.139715f, 0.176847f, -0.033234f, 0.662955f, -0.328520f, -0.287293f, 0.344130f, -0.655943f, 0.430500f, 0.325280f, 0.065810f, -0.577333f, 0.779895f, -0.113633f, -0.212383f, 0.701451f, -0.166868f, 0.688444f, -0.181380f, 0.087325f, 0.109837f, 0.189499f, 0.413352f, -0.133526f, -0.807598f, 0.200927f, -0.057323f, 0.111532f, -0.557602f, -0.521548f, 0.034165f, 0.127629f, -0.227189f, -0.263734f, -0.374772f, 0.201359f, -0.154964f, -0.601673f, 0.547021f, -0.391001f, -0.450820f, 0.012712f, 0.192181f, -0.989880f, 0.986964f, 0.240282f, -0.281821f, 0.372001f, -0.463490f, 0.425258f, -0.595244f, 0.356315f, -0.050052f, 0.587364f, 0.586637f, -0.792633f, -0.744881f, 0.383671f, -0.241975f, -0.141882f, -0.497927f, -0.188417f, -0.270850f, 0.400920f, -0.480819f, 0.298919f, -0.085394f, 0.408648f, -0.455943f, -0.445671f, 0.223422f, 0.004954f, -0.064319f, -0.245926f, -0.347884f, -0.587915f, 0.599063f, 0.236933f, -0.384346f, 0.536706f, -0.013650f, 0.582332f, -0.513656f, -0.059745f, -0.070355f, -0.107391f, 0.642857f, 0.109782f, -0.464966f, 0.437809f, -0.154630f, 0.380658f, -0.404872f, 0.182807f, -0.781554f, 0.371561f, -0.226633f, 0.295746f, -0.372652f, 0.146760f, 0.353805f, -0.141997f, 0.536062f, 0.327944f, 0.140878f, 0.102864f, 0.386956f, -0.534122f, 0.504153f, 0.103597f, -0.331487f, 0.802333f, 0.121698f, 0.429717f, -0.255494f, 0.162651f, -0.050543f, -0.645554f, 0.202206f, -0.350731f, 0.185128f, 0.810162f, 0.308130f, 0.073253f, -0.385052f, -0.457888f, -0.384984f, -0.325281f, -0.493592f, -0.245478f, 0.018433f, 0.336523f, 0.101075f, 0.136130f, -0.113875f, 0.062530f, -0.106456f, 0.188225f, 0.033702f, -0.168319f, 0.076034f, 0.030159f, 0.170141f, 0.254650f, 0.073445f, 0.303661f, -0.358812f, 0.206782f, 0.123228f, -0.380418f, 0.397334f, -0.709259f, 0.047754f, -0.037777f, -0.067306f, 0.221561f, -0.459241f, -0.413233f, -0.122824f, -0.122751f, -0.071937f, -0.146096f, 0.113362f, -0.125276f, 0.008097f, -0.180218f, -0.102977f, 0.128836f, -0.108492f, 0.076989f, -0.111256f, 0.138300f, 0.094078f, 0.146114f, 0.070760f, 0.028883f, -0.051761f, -0.083522f, 0.186414f, -0.060236f, -0.041213f, 0.043823f, -0.044027f, 0.164000f, 0.105506f, -0.028916f, 0.110317f, -0.150168f, -0.081951f, 0.023693f, -0.084633f, 0.078580f, 0.135159f, -0.024495f, -0.050960f, 0.148724f, -0.017765f, -0.003633f, -0.047757f, 0.131936f, 0.022191f, 0.084482f, 0.100551f, -0.050888f, -0.021339f, 0.112311f, -0.044030f, 0.094561f, 0.142158f, 0.039697f, 0.077811f, 0.098297f, 0.111165f, -0.033755f, -0.144528f, -0.031448f, 0.055983f, -0.015979f, 0.080210f, -0.046144f, 0.043399f, -0.101026f, 0.080222f, -0.006808f, -0.207842f, -0.227123f, -0.189131f, 0.126156f, 0.175894f, 0.135135f, 0.005927f, 0.176750f, -0.006176f, -0.013224f, 0.110174f, -0.012736f, 0.288420f, -0.274670f, 0.020908f, -0.194595f, -0.295587f, -0.143502f, -0.016505f, 0.199544f, -0.081562f, -0.025017f, 0.239371f, -0.166614f, -0.146864f, 0.340251f, -0.004802f, 0.110317f, -0.086668f, 0.126332f, 0.174065f, -0.036776f, 0.034204f, -0.157622f, -0.468845f, 0.197456f, 1.362946f, -0.399483f, 0.154183f, 0.065842f, 0.150513f, 0.604507f, -0.446059f, 0.047103f, 0.634840f, 0.474420f, -0.096089f, 0.092188f, 0.164956f, 0.112969f, -0.243080f, -0.208972f, 0.063156f, -0.079627f, 0.240818f, -0.492145f, -0.288363f, 0.189660f, 0.410053f, -0.267963f, -0.767602f, -0.675315f, -0.164438f, 0.386877f, 0.132862f, 0.560596f, -0.222452f, 0.131570f, 0.507588f, -0.156886f, -0.154768f, 0.130805f, 0.234688f, 0.428822f, -0.364384f, 0.057104f, 0.048135f, 0.044638f, 0.157419f, 0.827463f, 0.208719f, -0.006865f, -0.281976f, -0.386898f, 0.057582f, -0.006453f, 0.462248f, 0.037601f, -0.195416f, -0.245985f, 0.109535f, -0.577456f, -0.171717f, 0.241103f, 0.635239f, -0.086047f, -0.157951f, -0.327440f, 0.104317f, -0.812504f, 0.151843f, -0.395225f, -0.173751f, -0.457060f, 0.445831f, 0.611718f, -0.127018f, 0.004867f, 0.370552f, 0.271755f, 0.381829f, 0.048476f, -0.053894f, -0.224131f, 0.097061f, -0.554795f, -0.060716f, -0.067272f, 0.765275f, -0.429399f, -0.188400f, -0.082288f, 0.256738f, -0.267759f, 0.069582f, -0.012248f, 0.636167f, -0.850678f, -0.331871f, 0.122544f, -0.257224f, -0.135115f, 0.449022f, -0.241993f, 0.019539f, 0.202044f, 0.352176f, 0.043896f, -0.197693f, -0.136928f, 0.132243f, 0.097267f, -0.036426f, -0.732567f, 0.015796f, 0.099974f, 0.004333f, -0.302658f, 0.148016f, 0.355557f, 0.622655f, 0.193288f, -0.291942f, 0.274542f, 0.185775f, -0.124195f, 0.530266f, 0.230224f, -0.185911f, -0.752686f, 0.267230f, 0.006145f, 0.104264f, 0.024505f, 0.099308f, 0.214853f, -0.047119f, -0.354245f, 0.347437f, -0.010773f, 0.247610f, -0.562798f, 0.438392f, 0.105328f, 0.653341f, -0.492249f, 0.041558f, -0.321458f, 0.884992f, -0.186105f, -0.121623f, 0.219684f, 0.205950f, -0.033309f, 0.190312f, -0.036173f, 0.042365f, -0.178145f, 0.244151f, -0.030900f, 0.465946f, 0.240809f, 0.359500f, 0.154267f, 0.464210f, 0.388868f, -0.239830f, -0.222923f, -0.223388f, -0.088897f, 0.625706f, 0.004166f, 0.304560f, -1.196993f, 0.920860f, 0.153477f, -0.269143f, -0.047922f, -0.130052f, -0.464056f, 0.305366f, -0.480427f, -0.141241f, 0.372089f, 0.237975f, -0.105147f, -0.466764f, 0.201325f, -0.158334f, 0.242617f, -0.124174f, -0.126525f, 0.169571f, 0.081325f, -0.192139f, -0.152111f, -0.007407f, -0.014748f, -0.329381f, -0.257777f, -0.053447f, 0.114584f, 0.640736f, -0.234692f, 0.448005f, -0.815747f, 0.752955f, 0.041936f, 0.003503f, -0.221823f, 0.207788f, -0.246216f, 0.079927f, -0.710341f, -0.029168f, 0.074953f, 0.052221f, -0.121275f, -0.845621f, 0.041074f, -0.207657f, 0.247568f, 0.495955f, -0.302488f, -0.174257f, 0.231034f, -0.167478f, -0.124246f, -0.142289f, -0.443480f, -0.171592f, -0.305715f, 0.060542f, -0.136932f, 0.482107f, -0.097082f, 0.286070f, -1.069056f, 0.511747f, 0.029953f, 0.318962f, -0.230168f, -0.610545f, 0.175324f, -0.142058f, -0.544283f, 0.056201f, 0.004917f, 0.041558f, -0.344792f, -0.537083f, 0.193474f, -0.269476f, -0.246915f, -0.097993f, -0.764060f, -0.121428f, 0.383998f, -0.000262f, 0.553919f, -0.011718f, -0.582625f, -0.221735f, 0.106753f, 0.408471f, -0.075421f, 0.027018f, 0.056145f, 0.159522f, -0.810843f, 0.478294f, 0.049085f, -1.161720f, 0.090253f, -0.378306f, -0.153082f, -0.375401f, 0.666693f, -0.062842f, -0.410506f, 0.324110f, -0.202274f, 0.370449f, 0.160227f, 0.063798f, -0.150822f, 0.051593f, -0.699465f, -0.381463f, -0.166442f, -0.308755f, 0.026034f, -0.028539f, -0.105604f, -0.205050f, 0.066000f, -0.037058f, 0.458780f, 0.054096f, 0.079678f, -0.146423f, -0.799598f, 0.339538f, 0.426901f, -0.040767f, 0.253796f, -0.174867f, -0.023253f, -0.178863f, 0.586781f, -0.157700f, -0.789879f, 0.474430f, -0.175499f, 0.287076f, 0.369566f, 0.058949f, -0.092078f, -0.102875f, -0.807758f, -0.155719f, 0.035367f, -0.418450f, -0.064521f, 0.072430f, 0.287429f, 0.036789f, 0.058146f, 0.165916f, 0.123546f, -0.093940f, 0.227982f, 0.082248f, -0.469897f, -0.172844f, -0.063573f, -0.062553f, 0.101961f, -0.060590f, 0.092402f, -0.292962f, 0.248504f, -0.063407f, -0.350315f, 0.316318f, -0.447542f, 0.002383f, 0.206096f, -0.094967f, 0.334038f, -0.148162f, -0.305949f, -0.118118f, 0.209142f, -0.022625f, -0.164643f, -0.105771f, 0.016902f, 0.095639f, 0.052945f, 0.166586f, -0.069101f, 0.012199f, 0.059739f, -0.026118f, -0.121949f, 0.143931f, 0.107879f, -0.002910f, 0.001926f, -0.079514f, 0.018722f, 0.063874f, 0.000998f, 0.157960f, 0.045419f, -0.053170f, 0.078003f, -0.060274f, -0.057500f, -0.052309f, 0.028626f, 0.072246f, -0.012242f, 0.095644f, 0.024643f, -0.050882f, 0.099869f, -0.084318f, -0.088798f, 0.001451f, -0.077050f, -0.158162f, 0.047778f, 0.003574f, -0.017553f, 0.150448f, 0.022939f, 0.117090f, -0.116162f, 0.022297f, 0.118556f, 0.026775f, 0.070240f, -0.041225f, -0.131305f, -0.013564f, -0.033997f, 0.118259f, -0.082480f, 0.150372f, 0.147603f, -0.081308f, -0.048955f, 0.127440f, 0.150336f, -0.018223f, -0.056642f, 0.008460f, 0.104153f, -0.179441f, 0.185964f, 0.013992f, -0.124506f, -0.056363f, -0.039937f, -0.060611f, 0.018880f, -0.035443f, -0.137085f, -0.131542f, 0.070910f, 0.018987f, -0.091895f, -0.056498f, 0.154050f, -0.142373f, 0.008984f, 0.069657f, 0.049784f, -0.089805f, 0.058101f, -0.158110f, 0.147545f, 0.033875f, -0.085767f, 0.036646f, -0.177923f, 0.099927f, -0.099264f, 0.093783f, 0.047679f, -0.013503f, 0.358614f, 0.825338f, -0.080196f, 0.064565f, -0.142581f, -0.017603f, 0.127624f, 0.054265f, -0.043383f, -0.758988f, -0.056024f, 0.145672f, 0.141240f, 0.217454f, 0.102012f, -0.293671f, -0.326140f, -0.082608f, 0.119459f, 0.127601f, -0.201522f, 0.235796f, 0.009202f, 0.149634f, 0.048093f, -0.195571f, 0.061839f, -0.055812f, 0.023160f, 0.529909f, 0.092289f, -0.159873f, 0.542569f, 0.080378f, -0.236370f, 0.372544f, 0.202192f, 0.228838f, 0.301346f, 0.468986f, -0.097593f, -0.685537f, 0.103357f, 0.072262f, 0.351565f, -0.466892f, -0.119619f, -0.156442f, -0.100598f, -0.068660f, 0.045293f, 1.032281f, -0.238059f, -0.186551f, 0.309940f, 0.238620f, -0.542633f, -0.273445f, 0.224176f, -0.097519f, 0.199392f, -0.163224f, -0.262011f, -0.335841f, 0.794458f, 0.512094f, -0.485923f, 0.593748f, 0.066159f, 0.336289f, 0.008010f, -0.101805f, -0.809692f, -0.159533f, 0.168167f, 0.424888f, 0.673589f, -0.396603f, -0.263779f, -0.011581f, 0.204301f, -0.147972f, 0.617035f, 0.637263f, -0.324880f, 0.506117f, 0.448266f, 0.345831f, -0.237997f, -0.312088f, -0.029607f, 0.014566f, 0.053436f, 0.041593f, 0.042394f, -0.240660f, 0.883327f, -0.419238f, 0.000493f, 0.179445f, 0.257679f, 0.041560f, -0.008055f, -0.261564f, -0.727607f, -0.535833f, -0.232898f, 0.309730f, -0.065640f, -0.072447f, -0.026234f, -0.168936f, -0.193276f, 0.074657f, -0.027327f, 0.331775f, -0.185887f, -0.032784f, 0.444204f, 0.421502f, 0.149068f, -0.662163f, -0.253315f, -0.143716f, 0.195365f, 0.035793f, 0.133249f, -0.638132f, 0.768662f, -0.514183f, -0.266642f, 0.352790f, 0.033194f, 0.248976f, 0.194215f, -0.039168f, -0.798641f, -0.054849f, 0.131661f, 0.134169f, -0.248462f, -0.409602f, -0.463494f, -0.300137f, -0.095332f, 0.050782f, 0.078449f, 0.409073f, -0.300463f, 0.026454f, 0.259896f, 0.489791f, 0.313630f, -0.248562f, -0.225729f, -0.360689f, -0.256822f, 0.076296f, -0.091629f, -0.106866f, 0.067366f, -0.004887f, -0.005000f, 0.397750f, 0.139164f, -0.168072f, 0.232153f, 0.194077f, -0.517133f, -0.109406f, 0.279781f, 0.310187f, -0.145000f, -0.415516f, -0.124341f, 0.285058f, -0.200725f, 0.136531f, -0.224561f, 0.389525f, -0.013342f, -0.051158f, -0.112558f, -0.359650f, 0.098368f, -0.240804f, -0.139278f, -0.263553f, -0.193004f, -0.207744f, -0.167274f, -0.326191f, 0.368059f, -0.336535f, -0.208309f, 0.749178f, 0.161638f, 0.084628f, 0.064094f, 0.469050f, -0.392924f, -0.099443f, 0.415498f, 0.816790f, 0.080177f, -0.351194f, -0.539597f, 0.140490f, -0.506552f, -0.055326f, -0.659383f, 0.102562f, -0.485191f, -0.900802f, 0.145184f, -0.216818f, 0.384187f, -0.215543f, -0.048168f, -0.467302f, 0.362115f, -0.107016f, -0.125665f, 0.322629f, -0.074786f, -0.351901f, 0.109145f, -0.179836f, -0.031600f, 0.012531f, 0.228661f, 0.109901f, -0.814612f, 0.150608f, 0.598025f, -0.111966f, 0.017445f, -0.637425f, -0.218617f, 0.177500f, -0.187089f, 0.079054f, -0.436636f, 0.409431f, -0.536655f, -0.142353f, -0.190140f, -0.180146f, -0.011159f, -0.716614f, -0.037887f, -0.322469f, -0.298745f, -0.588624f, -0.346104f, 0.098110f, 0.135732f, -0.040257f, 0.554178f, -0.182388f, 0.133813f, 0.295919f, 0.254837f, -0.233296f, -0.081030f, 0.112852f, 0.326334f, 0.113288f, 0.141439f, -0.307569f, -0.118433f, -0.130890f, 0.295967f, -0.063520f, -0.166579f, 0.285410f, -0.819386f, 0.140270f, 0.089346f, -0.028598f, -0.156232f, -0.351542f, -0.192446f, -0.213769f, -0.060865f, -0.073633f, -0.272627f, -0.197637f, 0.134204f, -0.092448f, 0.030896f, -0.019478f, 0.092835f, -0.028342f, 0.051971f, -0.158066f, 0.165726f, 0.034488f, 0.053610f, 0.018510f, 0.002781f, 0.019594f, 0.062481f, 0.369889f, 0.324457f, 0.060144f, -0.062428f, 0.060257f, -0.045144f, 0.366483f, 0.291821f, 0.002135f, -0.027294f, -0.054997f, 0.083909f, -0.171039f, 0.128747f, 0.055863f, 0.037383f, -0.201735f, 0.143556f, 0.040989f, -0.142074f, -0.114914f, -0.102534f, 0.154034f, 0.022927f, 0.073801f, -0.003968f, 0.170711f, -0.043221f, -0.052780f, 0.014358f, -0.033093f, 0.154745f, -0.006430f, 0.076025f, -0.030544f, -0.045136f, -0.099518f, -0.121869f, 0.167332f, -0.138707f, 0.112105f, 0.145375f, -0.149106f, -0.067741f, 0.036883f, 0.145396f, 0.135285f, 0.000924f, 0.095006f, -0.120769f, 0.154220f, 0.144941f, -0.105674f, -0.064731f, -0.128822f, -0.076077f, 0.101871f, -0.034705f, -0.124971f, -0.043556f, 0.154984f, 0.046043f, -0.022339f, -0.103096f, 0.160737f, 0.109403f, -0.070404f, -0.144071f, -0.141687f, -0.122481f, 0.021831f, 0.134168f, -0.000773f, 0.107468f, -0.016705f, 0.069449f, 0.070827f, -0.105042f, -0.044713f, 0.044236f, -0.138313f, -0.044609f, 0.011212f, 0.159874f, -0.008205f, 0.101827f, -0.021887f, 0.095491f, 0.030741f, 0.124553f, -0.028693f, 0.033605f, 0.041889f, -0.026618f, -0.114595f, -0.130947f, -0.155719f, 0.120345f, -0.084902f, -0.092947f, 0.076046f, -0.057987f, 0.001947f, -0.108732f, 0.148121f, 0.113272f, 0.117206f, -0.030036f, 0.084527f, -0.114736f, -0.158313f, -0.154655f, 0.027901f, -0.014371f, 0.005804f, -0.158685f, -0.024909f, 0.070257f, -0.018463f, 0.074816f, -0.086016f, 0.100888f, 0.028491f, -0.093186f, -0.084823f, 0.041249f, 0.106300f, -0.027183f, -0.077871f, 0.118244f, 0.054535f, -0.016726f, -0.003898f, -0.095283f, 0.040853f, -0.045510f, 0.159687f, -0.006384f, -0.004547f, 0.021216f, 0.134270f, 0.025250f, -0.028766f, 0.109771f, -0.020210f, -0.144666f, 0.122840f, 0.028337f, -0.102370f, 0.155447f, -0.054083f, 0.194133f, -0.052714f, 0.032572f, 0.054938f, -0.422990f, -0.267219f, -0.090210f, -0.162604f, -0.017108f, 0.145296f, -0.057419f, -0.108070f, -0.150638f, 0.100074f, -0.179847f, -0.052324f, 0.411359f, -0.228647f, 0.151792f, 0.025976f, -0.072876f, 0.105334f, -0.242148f, 0.101922f, 0.066934f, 0.181707f, -0.104551f, 0.287782f, 0.229588f, 0.022652f, 0.018186f, 0.127727f, -0.129906f, -0.106396f, -0.113332f, 0.112155f, -0.184228f, 0.085539f, 0.000226f, -0.165138f, -0.094520f, -0.255033f, -0.014631f, -0.085870f, -0.303750f, 0.148170f, -0.273951f, 0.018192f, 0.363849f, -0.306640f, 0.067488f, 0.042949f, -0.159522f, 0.037613f, 0.073488f, -0.028295f, 0.156865f, 0.335287f, 0.227953f, -0.149185f, 0.291490f, 0.010424f, -0.007249f, 0.178515f, -0.092192f, 0.127882f, -0.016294f, -0.145628f, 0.364804f, 0.426858f, -0.057592f, 0.516302f, 0.048527f, -0.569140f, 0.067668f, 0.111929f, -0.061136f, 0.325344f, -0.364214f, -0.152104f, 0.096848f, -0.204957f, 0.075231f, -0.314293f, -0.060653f, -0.087530f, 0.021693f, 0.100860f, 0.213300f, 0.295861f, 0.458530f, 0.052594f, 0.184391f, -0.134345f, 0.119036f, 0.066453f, -0.122546f, 0.313537f, 0.087305f, -0.211885f, 0.219598f, 0.672879f, -0.305403f, 0.153551f, 0.075329f, -0.371611f, -0.122037f, 0.147673f, 0.052949f, 0.093705f, -0.367506f, -0.166485f, 0.141041f, -0.041377f, 0.430404f, -0.194261f, -0.333860f, 0.244085f, -0.165500f, -0.310746f, 0.041561f, 0.001721f, 0.694703f, 0.120642f, 0.490363f, -0.259049f, -0.046585f, -0.075911f, 0.148482f, 0.036882f, 0.107444f, -0.564261f, 0.452531f, 0.658645f, 0.015671f, -0.362180f, 0.009024f, -0.481616f, 0.004826f, 0.119935f, -0.102731f, 0.395350f, -0.343732f, -0.151940f, -0.222264f, -0.095315f, 0.366879f, -0.180724f, -0.400356f, -0.060711f, -0.137500f, -0.259885f, 0.236335f, 0.589857f, 0.480719f, 0.145782f, 0.575629f, -0.084166f, 0.063944f, -0.032759f, 0.312221f, 0.294339f, -0.045142f, -0.455747f, 0.383622f, 0.504513f, -0.252850f, 0.453215f, 0.055950f, -0.760308f, -0.117344f, -0.084161f, 0.130285f, 0.236149f, -0.452001f, 0.013726f, -0.241284f, -0.190742f, 0.431548f, -0.281271f, -0.467546f, -0.026135f, 0.056755f, -0.346096f, -0.118341f, 0.303226f, 0.403512f, 0.074053f, 0.736708f, -0.224892f, 0.192742f, -0.147577f, 0.073222f, 0.174002f, 0.030439f, -0.202386f, 0.156018f, 0.571188f, -0.217280f, 0.027982f, -0.158054f, -0.314944f, -0.118063f, 0.071744f, 0.003814f, 0.379612f, -0.091075f, -0.088235f, -0.335789f, -0.167823f, 0.384689f, -0.026106f, -0.361066f, 0.187235f, 0.051981f, -0.321364f, -0.200354f, 0.566643f, 0.423299f, -0.012956f, 0.458931f, -0.226791f, -0.063706f, -0.074902f, -0.211638f, 0.111031f, 0.146386f, -0.151089f, 0.198177f, 0.356102f, -0.009457f, -0.110653f, -0.098008f, -0.185766f, 0.015702f, -0.136126f, -0.261288f, -0.028923f, -0.136905f, 0.127009f, -0.306196f, 0.079011f, 0.203238f, -0.101793f, -0.466899f, 0.169228f, -0.290256f, -0.450417f, -0.049166f, 0.376207f, 0.346219f, 0.095073f, 0.424960f, -0.083245f, -0.126696f, -0.108287f, -0.199719f, -0.116691f, 0.109272f, -0.081358f, 0.019772f, 0.218865f, 0.003633f, -0.196260f, -0.082289f, -0.284588f, -0.078898f, -0.003560f, -0.079649f, 0.412852f, -0.291784f, -0.086154f, -0.297256f, 0.040296f, -0.069410f, -0.017152f, -0.207649f, 0.018239f, -0.007950f, -0.151762f, -0.090887f, 0.045235f, 0.062712f, -0.123706f, -0.078291f, 0.110267f, -0.162525f, 0.105784f, 0.080538f, -0.069197f, -0.102973f, -0.169426f, 0.026338f, 0.051843f, 0.154150f, 0.102411f, 0.060966f, -0.147168f, -0.100801f, 0.110248f, -0.096203f, -0.148064f, 0.068701f, -0.030280f, 0.088746f, 0.050041f, -0.099275f, 0.161202f, -0.089781f, -0.051077f, -0.031523f, -0.144586f, -0.001155f, -0.121328f, -0.031938f, -0.047913f, 0.088078f, 0.097502f, -0.111637f, -0.042995f, -0.040799f, -0.112309f, 0.096138f, 0.066831f, -0.100026f, -0.042978f, -0.126906f, 0.041068f, -0.121986f, 0.156558f, 0.090541f, -0.035363f, 0.025131f, 0.132437f, 0.017408f, -0.104879f, -0.038725f, 0.110554f, 0.046535f, 0.048528f, 0.118115f, 0.126930f, 0.135249f, -0.130531f, 0.014217f, 0.077487f, 0.082777f, 0.034382f, -0.107354f, 0.095823f, 0.070915f, -0.133339f, -0.011660f, -0.105038f, -0.052362f, -0.155265f, -0.032112f, 0.016069f, 0.038527f, 0.052673f, 0.108346f, -0.091672f, -0.122273f, 0.113258f, -0.110632f, 0.152958f, 0.110359f, 0.000282f, 0.155104f, -0.129717f, -0.063448f, 0.044533f, -0.048325f, 0.138013f };
static const float mnist_model_layer_1_biases[10] = { -0.087578f, 0.031833f, 0.570871f, -0.108416f, -0.704054f, -0.335478f, 0.665517f, 0.255425f, 0.013743f, 0.066274f };
static const float mnist_model_layer_1_weights[320] = { 0.346028f, -0.782112f, -2.673241f, 0.042894f, 2.110841f, 2.396709f, -0.394598f, 1.101024f, -0.408280f, -1.941975f, 0.093747f, 0.518890f, 0.644450f, 0.443432f, 1.458006f, -2.930553f, -0.228203f, 2.144617f, -0.170313f, -1.807833f, -0.328375f, 1.480689f, 0.544996f, 1.790167f, 1.410359f, -3.757128f, -1.613020f, 0.688645f, -0.935478f, -0.065142f, 0.601915f, 0.329141f, 0.688669f, -1.073083f, 0.733775f, -2.801135f, -1.323347f, 1.583189f, -0.947685f, 1.804129f, 1.968294f, -2.359811f, -0.264673f, 1.025049f, -2.080620f, 1.467500f, -1.860406f, 0.747823f, -0.195685f, 0.939081f, -0.800792f, 0.529728f, -2.584517f, 2.459913f, 0.845632f, 2.076203f, -1.763195f, -0.252962f, -2.846086f, 2.897003f, -1.016889f, -2.182454f, -1.206650f, -0.523957f, -1.036818f, 1.614557f, 1.464412f, -0.038719f, 1.336736f, 2.147284f, -2.543986f, 1.670360f, 0.289700f, -0.465728f, 2.263339f, 0.011972f, -0.483125f, 1.804390f, -1.307341f, -1.179176f, -0.241072f, -0.262861f, 0.551812f, -0.081421f, 0.132526f, 0.635791f, -2.828271f, -0.372409f, 2.180381f, 0.419212f, 0.727165f, 1.204765f, 0.397749f, 0.347538f, -0.757905f, 2.076304f, -0.588545f, -1.017444f, -2.341841f, 0.730893f, -2.856722f, 0.179395f, -0.943846f, 0.743965f, 1.436006f, 1.887710f, -3.015482f, 0.234638f, 1.687475f, 0.419744f, -1.072649f, -0.287738f, -0.593135f, 3.329454f, -1.012494f, 1.656335f, -0.211810f, 0.254237f, -2.725511f, 0.637888f, -0.072690f, -0.551279f, 3.159910f, 0.216509f, -2.281552f, 0.626169f, 2.015168f, -0.280444f, 0.104015f, -2.015476f, 0.785891f, 1.526922f, 1.399026f, -0.893295f, -1.941764f, -0.225388f, 1.655363f, -2.472041f, 0.440140f, -1.246849f, -2.067390f, 1.097402f, 2.283787f, 1.199571f, -2.333508f, -0.231748f, 0.584451f, 1.707364f, -0.252977f, -1.392902f, 1.576690f, -0.404989f, 1.143673f, 1.846973f, -3.948402f, -0.332619f, -0.982874f, 0.306795f, -0.067794f, 0.619008f, 1.637920f, 0.883953f, 0.001542f, -2.874364f, 1.281756f, -2.319744f, 0.868765f, 0.846302f, -0.690458f, 1.320807f, -0.240533f, 1.781779f, 0.579435f, -0.060746f, -0.464305f, -0.670149f, -0.171737f, 3.081394f, -1.444308f, -2.664464f, -0.581072f, 0.458854f, 1.764986f, -1.694689f, 1.054033f, 0.553848f, 0.075006f, -0.206670f, -0.171217f, -1.485342f, 2.053623f, -2.089418f, 0.145695f, -1.772274f, 0.522748f, 1.324259f, 0.378487f, -1.392270f, 0.739303f, -1.214613f, -1.137031f, 1.454788f, 2.762809f, 0.332301f, -0.021566f, 0.726296f, -1.414045f, -1.488397f, -0.864409f, 0.847654f, -0.000489f, -0.209936f, 0.279290f, 0.179610f, 0.359007f, -0.241198f, -0.218136f, -0.220042f, 0.208940f, -0.236704f, -1.628940f, 1.631101f, -1.904433f, 0.227466f, 0.104163f, 1.383610f, -0.170632f, 0.619092f, 1.364496f, -1.232724f, 0.834280f, -0.870577f, 1.624146f, 1.236458f, -4.283953f, 1.083786f, -1.255456f, 1.051478f, 0.971689f, -0.256980f, -0.763715f, -0.059540f, 0.820020f, 1.432057f, 0.122379f, -0.621831f, -0.246478f, 1.631240f, 0.420621f, -3.726031f, 1.084764f, 2.836061f, -2.318936f, -0.477413f, -0.384181f, 1.345578f, -0.197901f, -0.023047f, -2.040459f, 0.121318f, -1.134043f, -0.502722f, -0.492402f, 1.495348f, 1.368657f, -0.562831f, 1.192686f, -3.281512f, 0.392904f, 0.850290f, -1.475025f, 0.116424f, 0.793928f, -1.968779f, 1.169274f, -0.023993f, -0.301319f, 2.145904f, 0.516210f, -0.548791f, -0.113964f, 1.150812f, -2.458856f, -1.270017f, -1.158292f, 1.785609f, 2.162202f, -0.276085f, -0.971613f, 0.831116f, 1.229663f, -1.258838f, -0.564563f, -2.378938f, 1.433099f, -1.149619f, 1.032673f, 1.320815f, 0.428147f, 0.054817f, 2.144407f, -0.602094f, 0.228242f, -0.358588f, 0.765460f, -1.121353f, 1.546450f, 0.897394f, -3.222809f, -0.675955f, -0.331574f, 0.387873f, -2.701907f, -1.566331f, -0.491082f, 2.364438f, -0.229559f, -0.605585f, 0.714539f, 1.839105f };
static float mnist_model_buf1[196];
static float mnist_model_buf2[196];
static const EmlNetLayer mnist_model_layers[2] = { 
{ 32, 196, mnist_model_layer_0_weights, mnist_model_layer_0_biases, EmlNetActivationRelu }, 
{ 10, 32, mnist_model_layer_1_weights, mnist_model_layer_1_biases, EmlNetActivationSoftmax } };
static EmlNet mnist_model = { 2, mnist_model_layers, mnist_model_buf1, mnist_model_buf2, 196 };

    int32_t
    mnist_model_predict(const float *features, int32_t n_features)
    {
        return eml_net_predict(&mnist_model, features, n_features);
    }
    

    int32_t
    mnist_model_regress(const float *features, int32_t n_features, float *out, int32_t out_length)
    {
        return eml_net_regress(&mnist_model, features, n_features, out, out_length);
    }
    

    float
    mnist_model_regress1(const float *features, int32_t n_features)
    {
        return eml_net_regress1(&mnist_model, features, n_features);
    }
    