
#include <eml_net.h>
static const float mnist_model_layer_0_biases[8] = { -0.064264f, 0.541319f, 1.166327f, 0.725030f, 1.193446f, 0.028170f, 0.878812f, 0.877070f };
static const float mnist_model_layer_0_weights[6272] = { -0.021769f, 0.078205f, 0.040254f, 0.017119f, -0.059685f, -0.059690f, -0.076678f, 0.063536f, 0.017545f, 0.036103f, -0.083185f, 0.081536f, 0.057683f, -0.049913f, -0.055208f, -0.054934f, -0.033967f, 0.004296f, -0.011808f, -0.036225f, 0.019408f, -0.062553f, -0.036066f, -0.023188f, -0.007622f, 0.049482f, -0.052111f, 0.002470f, 0.016035f, -0.078697f, 0.018660f, -0.057168f, -0.075469f, 0.077888f, 0.080793f, 0.053511f, -0.033902f, -0.069809f, 0.031967f, -0.010384f, -0.065581f, -0.000837f, -0.080790f, 0.071023f, -0.041855f, 0.028200f, -0.032671f, 0.003482f, 0.008105f, -0.054682f, 0.081479f, 0.047739f, 0.076259f, 0.068508f, 0.016987f, 0.073201f, -0.071402f, -0.052751f, -0.078909f, -0.030308f, -0.019316f, -0.039674f, 0.057040f, -0.024855f, -0.038011f, 0.007408f, -0.062304f, 0.052435f, -0.073821f, 0.084481f, 0.047238f, -0.052277f, -0.085798f, 0.054737f, 0.035892f, 0.039736f, 0.047069f, -0.073909f, -0.024558f, -0.066652f, 0.063003f, 0.021394f, -0.029341f, -0.075728f, -0.032797f, -0.030333f, 0.039840f, 0.023868f, 0.067187f, -0.004821f, -0.066005f, 0.037001f, 0.045250f, 0.010632f, 0.047016f, -0.001077f, 0.003951f, -0.014663f, -0.080171f, -0.067892f, -0.079265f, 0.023231f, -0.033066f, 0.001487f, 0.070868f, -0.048078f, -0.010882f, 0.044657f, -0.042526f, -0.074358f, -0.038117f, -0.058783f, 0.074708f, 0.053465f, 0.023041f, 0.064453f, 0.052767f, -0.054384f, 0.068374f, 0.006826f, 0.053351f, 0.068727f, -0.031583f, -0.067661f, -0.047204f, -0.012648f, 0.055191f, 0.062592f, -0.085550f, 0.001865f, -0.014330f, -0.048218f, -0.065958f, -0.028176f, 0.076851f, -0.030677f, 0.003260f, 0.035226f, -0.023662f, 0.081860f, 0.080241f, -0.043069f, -0.000477f, -0.034550f, -0.037333f, -0.080356f, 0.019011f, 0.000465f, -0.077824f, -0.038408f, 0.070840f, -0.045189f, -0.061615f, -0.001830f, 0.084267f, -0.044757f, 0.029868f, 0.045394f, -0.045523f, 0.039599f, -0.022941f, 0.022957f, 0.023169f, 0.006207f, -0.071090f, 0.058179f, -0.031097f, -0.054393f, -0.079682f, 0.015771f, 0.030810f, -0.083878f, 0.002098f, -0.047457f, 0.025189f, -0.056502f, 0.033130f, -0.019653f, 0.075778f, -0.062895f, -0.027577f, -0.067067f, 0.073690f, 0.065473f, -0.042000f, 0.027759f, 0.055042f, 0.009578f, 0.005145f, -0.044792f, -0.070602f, 0.068922f, 0.069478f, 0.023095f, -0.027930f, -0.026164f, 0.039206f, 0.068904f, 0.067165f, 0.048562f, 0.024644f, -0.072157f, -0.058712f, 0.069154f, 0.018467f, -0.085161f, -0.069150f, 0.028370f, -0.085878f, -0.058854f, 0.008456f, 0.033296f, 0.026367f, -0.047843f, 0.036816f, -0.045591f, -0.030295f, 0.042770f, 0.025963f, 0.060595f, 0.027348f, 0.011852f, -0.070503f, -0.022953f, -0.040740f, -0.044421f, 0.082074f, -0.018549f, 0.068025f, 0.022754f, 0.051154f, 0.000458f, 0.013344f, -0.001298f, -0.052879f, 0.038598f, -0.038039f, -0.082537f, 0.025241f, -0.056026f, 0.076425f, 0.078763f, 0.071984f, -0.022529f, -0.084075f, 0.074319f, -0.012461f, 0.080971f, 0.080444f, 0.061252f, -0.035666f, -0.019937f, 0.060927f, -0.031766f, -0.057347f, 0.009856f, 0.075679f, 0.033979f, 0.012245f, -0.069895f, 0.019964f, 0.085021f, -0.062461f, 0.003180f, 0.065482f, 0.044583f, 0.014265f, 0.053173f, -0.015082f, -0.035828f, 0.079517f, 0.026697f, 0.063712f, 0.029056f, -0.082176f, 0.112638f, 0.159204f, 0.026122f, 0.194285f, -0.117061f, 0.067700f, -0.149957f, -0.005186f, 0.005372f, 0.151617f, -0.080436f, 0.087337f, -0.105338f, -0.037572f, -0.063071f, -0.061909f, 0.031026f, 0.177715f, -0.042099f, -0.016189f, -0.162376f, 0.041231f, -0.127935f, 0.108618f, -0.002469f, 0.003989f, -0.015545f, -0.016076f, -0.078906f, 0.019908f, -0.021616f, 0.188291f, -0.031384f, 0.123718f, -0.043100f, -0.071998f, -0.073149f, -0.099012f, -0.012256f, 0.272315f, -0.015971f, 0.032242f, -0.058374f, -0.206083f, -0.042996f, 0.006580f, -0.075606f, 0.241493f, -0.039811f, 0.155838f, 0.036470f, -0.165056f, 0.026216f, 0.027884f, -0.115738f, 0.126916f, 0.058927f, -0.036260f, -0.074024f, -0.145174f, -0.159652f, 0.143278f, 0.093413f, 0.020467f, 0.017314f, -0.087754f, -0.009949f, 0.128363f, -0.207752f, 0.018855f, -0.077352f, 0.075372f, -0.083118f, 0.110528f, 0.024498f, -0.031989f, -0.030254f, 0.151893f, -0.084574f, -0.176755f, 0.020834f, 0.077352f, -0.016756f, 0.180923f, -0.159520f, 0.067970f, -0.019633f, 0.026857f, -0.003321f, 0.154942f, -0.035226f, 0.005750f, 0.018832f, -0.047319f, -0.095552f, -0.033455f, -0.089507f, -0.050034f, 0.028742f, -0.123735f, -0.018613f, 0.056570f, -0.151763f, 0.083513f, -0.037170f, 0.040005f, 0.030442f, -0.072934f, 0.066652f, 0.032658f, 0.002789f, 0.012891f, -0.055395f, 0.108075f, 0.045994f, -0.017285f, 0.016959f, -0.024938f, 0.043086f, -0.016736f, 0.074912f, 0.067741f, -0.014264f, 0.029053f, 0.049898f, -0.068869f, 0.020240f, 0.014894f, 0.056038f, 0.053982f, 0.068551f, -0.020155f, -0.084512f, 0.070339f, -0.139430f, -0.013285f, 0.077149f, 0.196214f, 0.012742f, 0.022876f, -0.008945f, -0.035881f, -0.029729f, 0.029934f, 0.043790f, 0.050593f, 0.050253f, -0.070931f, -0.000968f, -0.076769f, 0.008594f, -0.010145f, 0.067272f, -0.025868f, -0.066444f, -0.061946f, 0.045376f, 0.020512f, -0.069210f, -0.072163f, 0.034871f, -0.074131f, 0.055847f, 0.035786f, -0.072642f, -0.072036f, 0.084438f, -0.021816f, -0.022445f, 0.054275f, 0.077604f, 0.084328f, 0.043964f, -0.021471f, -0.072268f, 0.048089f, 0.010134f, -0.013148f, 0.070508f, -0.067462f, -0.001280f, -0.084787f, -0.005438f, -0.076987f, -0.066140f, -0.066364f, 0.025890f, 0.042692f, 0.014466f, 0.080193f, -0.021712f, -0.037182f, 0.063957f, -0.047960f, 0.080375f, -0.084648f, 0.081530f, -0.079757f, 0.067876f, 0.005090f, 0.085551f, -0.073700f, 0.009344f, 0.081201f, 0.004407f, 0.022180f, 0.033401f, -0.006564f, 0.022140f, 0.015017f, 0.069402f, -0.079313f, -0.037719f, 0.078946f, 0.068867f, -0.018526f, 0.045533f, -0.031042f, -0.056211f, 0.011585f, -0.060991f, 0.001113f, -0.116523f, 0.096887f, 0.181980f, 0.096011f, 0.000152f, 0.020608f, -0.079231f, 0.040134f, -0.221533f, 0.291350f, 0.097614f, 0.203124f, 0.032023f, -0.026771f, -0.072526f, 0.103035f, -0.116973f, 0.231716f, -0.049185f, 0.185925f, -0.044493f, -0.144352f, -0.114327f, 0.177958f, -0.148665f, 0.306619f, 0.080949f, 0.422673f, -0.246604f, -0.193894f, -0.191155f, 0.111278f, -0.116107f, 0.296071f, 0.051545f, 0.593636f, -0.227272f, 0.070780f, -0.214830f, 0.146290f, -0.112215f, 0.375963f, -0.120129f, 0.751497f, -0.400765f, -0.290034f, -0.183983f, 0.057099f, -0.079524f, 0.429444f, 0.012026f, 0.592319f, -0.295069f, -0.243172f, -0.023030f, -0.429304f, -0.014782f, 0.531391f, -0.037001f, 0.257122f, 0.110215f, 0.036475f, -0.156423f, -0.289484f, 0.312752f, 0.101926f, -0.032693f, 0.348981f, -0.014742f, -0.027858f, -0.466638f, -0.265983f, -0.038710f, 0.253013f, -0.001338f, 0.469932f, 0.257046f, -0.236489f, -0.066761f, -0.107598f, 0.192822f, 0.013463f, -0.077968f, 0.341343f, 0.243646f, 0.038477f, 0.076736f, 0.257348f, 0.159432f, -0.000293f, 0.131299f, 0.158387f, -0.146035f, -0.135276f, 0.091366f, 0.064691f, 0.047960f, 0.289103f, 0.134950f, 0.037591f, 0.109538f, -0.308571f, 0.145738f, -0.203300f, -0.196597f, 0.219119f, -0.268733f, 0.068886f, 0.163726f, -0.493604f, 0.202688f, 0.070670f, -0.095034f, 0.174705f, -0.040258f, 0.044121f, -0.021703f, -0.215779f, 0.290539f, -0.148278f, -0.123361f, 0.213352f, 0.008873f, 0.103553f, -0.080026f, -0.253434f, 0.110092f, -0.074036f, -0.089791f, 0.110698f, 0.038734f, 0.025000f, -0.041137f, -0.046399f, 0.133500f, -0.029659f, -0.060118f, -0.020662f, -0.011114f, 0.100280f, -0.038091f, -0.057976f, 0.019317f, -0.086594f, -0.034015f, -0.047442f, -0.030578f, -0.056966f, 0.063512f, 0.013342f, 0.030700f, 0.050202f, -0.000373f, -0.071646f, 0.006438f, 0.015364f, 0.042377f, -0.011868f, -0.064622f, -0.037518f, -0.023757f, 0.025319f, 0.012281f, -0.024969f, 0.084417f, 0.018353f, -0.045595f, -0.069096f, -0.060234f, -0.044080f, -0.058876f, -0.054385f, -0.037289f, -0.056674f, 0.068844f, -0.072835f, 0.004253f, -0.015547f, 0.083699f, -0.067316f, -0.017723f, 0.081459f, 0.063420f, 0.055016f, -0.042007f, -0.057105f, 0.029262f, 0.074502f, 0.009849f, 0.012426f, -0.038177f, 0.046439f, -0.054579f, -0.030932f, -0.012719f, 0.001623f, -0.044372f, -0.066722f, 0.019095f, -0.040936f, 0.013961f, -0.057689f, -0.003089f, 0.008285f, -0.077663f, -0.029998f, -0.060422f, -0.089944f, 0.080709f, 0.025975f, 0.053276f, -0.030015f, 0.031284f, -0.065536f, 0.022237f, 0.033662f, -0.060655f, 0.076941f, -0.084538f, 0.029417f, 0.172773f, -0.082417f, 0.018829f, 0.170887f, -0.047100f, 0.068116f, -0.037470f, -0.020967f, 0.091144f, -0.109358f, 0.009098f, -0.074648f, -0.058771f, 0.153259f, -0.083411f, 0.082149f, 0.141503f, -0.131260f, 0.033377f, 0.043440f, -0.012995f, 0.199739f, -0.337790f, 0.517508f, 0.264668f, -0.384162f, -0.117796f, 0.489849f, -0.084029f, 0.315021f, -0.262523f, 0.599358f, 0.107768f, -0.349927f, -0.276639f, 0.360395f, -0.014032f, 0.572779f, -0.474285f, 0.148577f, 0.377625f, -0.000560f, -0.217187f, 0.589355f, 0.015882f, 0.522429f, -0.260484f, 0.727653f, 0.076279f, -0.017350f, -0.194608f, 0.629795f, 0.000161f, 0.379948f, -0.222537f, 0.830496f, 0.643712f, 0.180730f, -0.016636f, 0.298603f, -0.063869f, 0.698527f, -0.016731f, 1.007332f, 0.452914f, 0.045768f, -0.264532f, 0.458715f, 0.098472f, 0.764345f, -0.477876f, 0.228457f, 0.216933f, 0.065569f, -0.312656f, 0.216253f, 0.089452f, 0.316350f, -0.040745f, 0.620381f, 0.467077f, 0.111566f, -0.259230f, 0.103944f, 0.060527f, 0.436778f, -0.115211f, 0.344464f, 0.144747f, -0.038467f, -0.009388f, 0.271710f, 0.173602f, 0.079789f, -0.160179f, 0.185552f, 0.370758f, 0.304106f, 0.223332f, 0.463093f, 0.237169f, 0.071738f, -0.330662f, 0.133542f, -0.001695f, 0.078906f, -0.088256f, -0.089759f, 0.064797f, -0.042619f, -0.380286f, 0.024705f, 0.249489f, -0.261240f, -0.016833f, -0.082109f, -0.008328f, 0.010740f, -0.381129f, -0.234502f, 0.624775f, -0.068138f, -0.240758f, -0.020007f, 0.216610f, 0.165533f, -0.027535f, -0.076601f, -0.253951f, -0.379658f, 0.196720f, -0.237337f, 0.253222f, 0.083898f, 0.127264f, 0.129045f, -0.260107f, -0.210753f, 0.045097f, -0.213424f, 0.084656f, 0.230500f, -0.041078f, 0.187151f, -0.279180f, -0.130539f, 0.011374f, 0.084965f, 0.054848f, 0.043926f, -0.065502f, 0.006942f, -0.068071f, -0.090304f, 0.052943f, 0.111264f, 0.006166f, -0.036682f, -0.011609f, -0.118787f, 0.046530f, -0.082073f, 0.051055f, -0.035689f, 0.031701f, -0.090623f, -0.078303f, 0.074293f, -0.078272f, 0.001213f, -0.048050f, -0.069502f, -0.044563f, 0.038566f, 0.061718f, 0.057298f, -0.017840f, 0.029165f, -0.051189f, -0.035892f, 0.068770f, -0.084501f, -0.071920f, -0.050686f, -0.082153f, -0.055275f, 0.014409f, -0.013630f, 0.068086f, 0.055095f, -0.027447f, -0.041806f, -0.020832f, 0.015702f, -0.040230f, 0.020159f, -0.016514f, 0.008361f, -0.010437f, -0.034977f, 0.079004f, 0.046200f, -0.062776f, 0.055064f, -0.021899f, 0.082378f, 0.037614f, -0.037535f, -0.051507f, -0.008873f, 0.004394f, -0.032230f, -0.099491f, 0.050367f, 0.007359f, 0.070302f, 0.083587f, -0.159751f, -0.035640f, -0.213188f, 0.073038f, -0.158730f, -0.245483f, 0.223651f, 0.013357f, -0.280795f, 0.044796f, 0.066572f, -0.156571f, -0.180714f, 0.058538f, 0.325281f, -0.079278f, -0.076024f, -0.085489f, 0.100432f, 0.051419f, 0.332919f, -0.181866f, -0.063624f, -0.095716f, -0.111523f, -0.180019f, 0.174352f, 0.138660f, 0.201363f, -0.313138f, 0.296067f, 0.111916f, 0.363512f, -0.342547f, 0.481521f, 0.091491f, 0.679635f, -0.266425f, 0.395505f, 0.370833f, 0.142663f, -0.639396f, -0.175004f, 0.466377f, 0.586239f, -0.232994f, 0.935668f, 0.461066f, -0.109362f, -0.450228f, 0.625653f, 0.225112f, 0.685080f, -0.250949f, 0.539919f, 0.272125f, 0.280815f, -0.212012f, 0.142308f, 0.247104f, 0.710598f, 0.016544f, 0.721993f, 0.420325f, 0.418512f, 0.058135f, 0.278792f, 0.272384f, 0.453233f, -0.337845f, 0.614971f, 0.057287f, 0.186848f, 0.249168f, 0.109624f, 0.382389f, 0.578156f, 0.097764f, 0.639474f, 0.279749f, 0.154411f, -0.083788f, 0.308792f, 0.076019f, 0.658481f, -0.151559f, 0.408293f, 0.086988f, 0.226904f, 0.012534f, 0.210445f, 0.394971f, 0.356915f, -0.123818f, 0.409791f, 0.426212f, 0.052958f, -0.242196f, 0.071141f, 0.355670f, 0.400262f, 0.065570f, 0.281300f, 0.067306f, 0.020073f, -0.085917f, 0.348958f, 0.149711f, 0.236265f, -0.136109f, 0.121917f, 0.419594f, 0.119041f, -0.064409f, -0.073248f, 0.164706f, 0.053302f, 0.045511f, 0.056042f, 0.002919f, -0.093987f, 0.110998f, -0.028221f, 0.164378f, 0.011068f, -0.109227f, 0.038953f, 0.026562f, 0.103943f, -0.097808f, -0.078176f, 0.070940f, -0.299228f, -0.301753f, -0.181088f, -0.002368f, -0.253824f, -0.027148f, 0.041735f, 0.056356f, -0.277280f, 0.161040f, -0.650700f, 0.104663f, -0.091598f, -0.038640f, -0.094912f, 0.038837f, -0.008803f, 0.112714f, -0.274925f, -0.468693f, -0.479943f, 0.151585f, 0.223422f, 0.200955f, 0.157087f, 0.034149f, -0.640299f, -0.299825f, -0.128473f, 0.145430f, 0.138560f, 0.008649f, 0.212737f, 0.062188f, -0.409321f, 0.017214f, 0.080972f, 0.196225f, 0.117543f, -0.021944f, 0.050490f, 0.074251f, -0.046948f, -0.036262f, 0.106597f, -0.048005f, -0.053123f, 0.006347f, 0.036351f, -0.012503f, -0.064454f, 0.057102f, -0.060416f, -0.058622f, 0.067453f, 0.079062f, 0.062834f, 0.053705f, 0.026937f, 0.008824f, -0.071663f, -0.015885f, -0.022084f, -0.041686f, 0.038765f, -0.000716f, -0.072702f, -0.048548f, 0.031802f, -0.073548f, 0.058751f, -0.002723f, -0.005835f, 0.015837f, 0.061292f, -0.024292f, 0.035581f, 0.011861f, -0.041907f, 0.047530f, 0.010674f, -0.031458f, 0.058598f, 0.172491f, 0.201588f, 0.066341f, -0.052604f, 0.119069f, -0.082248f, -0.095266f, 0.083953f, 0.179474f, 0.295020f, -0.088015f, -0.306893f, -0.230988f, -0.268667f, -0.154004f, -0.053086f, 0.469885f, 0.374883f, -0.052324f, 0.024023f, -0.107250f, 0.121636f, -0.198674f, 0.108737f, 0.032880f, 0.054476f, -0.169486f, 0.278797f, -0.015489f, 0.148395f, 0.003021f, 0.117814f, 0.402975f, 0.398015f, -0.032823f, 0.195728f, -0.066543f, 0.217993f, -0.033494f, 0.300721f, -0.247424f, 0.156768f, -0.112905f, -0.177451f, -0.058513f, 0.118328f, 0.264010f, 0.077948f, 0.424215f, 0.190356f, -0.269015f, 0.100548f, 0.022064f, -0.103312f, -0.075850f, -0.235020f, 0.049569f, -0.050807f, -0.342291f, 0.498674f, 0.407547f, 0.180556f, 0.053810f, -0.205563f, 0.020286f, 0.269973f, -0.174646f, 0.236851f, 0.178684f, 0.134854f, -0.023756f, 0.147004f, -0.013130f, 0.494593f, -0.014405f, 0.183336f, 0.088992f, 0.251814f, 0.181739f, 0.083046f, 0.065897f, 0.323903f, 0.124523f, 0.264495f, 0.111394f, 0.235081f, 0.061343f, 0.008570f, 0.058344f, 0.087093f, -0.122020f, -0.183238f, 0.031076f, 0.137026f, -0.066565f, 0.186030f, 0.247085f, 0.128365f, -0.087743f, 0.380150f, 0.332538f, 0.347943f, 0.056194f, 0.344958f, -0.008407f, 0.186932f, -0.122408f, 0.198260f, 0.419494f, 0.184170f, -0.118838f, 0.097404f, 0.095073f, 0.206428f, 0.211443f, 0.190628f, 0.076124f, 0.086655f, -0.246249f, 0.231368f, 0.045635f, -0.056169f, -0.030035f, 0.148220f, 0.189366f, 0.236137f, -0.040282f, 0.168869f, 0.254807f, 0.076483f, -0.112127f, 0.234501f, 0.392586f, 0.141676f, 0.114884f, 0.060706f, -0.049547f, 0.054803f, 0.140282f, 0.023390f, 0.100977f, 0.022568f, 0.125967f, -0.055133f, 0.067943f, -0.068033f, -0.127180f, -0.169850f, -0.090053f, -0.354449f, -0.010699f, -0.351212f, 0.077645f, -0.135797f, -0.094907f, -0.370959f, 0.340326f, -0.588498f, 0.103204f, 0.022638f, 0.091429f, -0.372481f, -0.006145f, -0.158408f, 0.223362f, -0.087579f, 0.150779f, -0.325876f, -0.097231f, -0.371255f, 0.088246f, 0.233251f, 0.137452f, 0.411032f, -0.095050f, -0.054252f, -0.164579f, -0.073490f, -0.036934f, 0.075504f, 0.003540f, 0.155409f, -0.053973f, -0.069177f, 0.116197f, -0.011208f, 0.060947f, -0.062002f, 0.026790f, -0.054140f, -0.126501f, -0.029432f, -0.018234f, 0.017135f, 0.059874f, 0.042113f, -0.012928f, -0.026732f, -0.022376f, 0.084614f, -0.079797f, 0.063685f, 0.013651f, -0.010094f, 0.038959f, -0.003213f, 0.064787f, 0.070376f, -0.013104f, -0.038592f, 0.015575f, 0.119027f, -0.009091f, 0.007916f, -0.019894f, 0.063512f, 0.018446f, 0.052372f, 0.052374f, 0.151049f, -0.067591f, -0.123294f, -0.088979f, 0.248865f, 0.053844f, 0.270865f, 0.067545f, 0.007730f, 0.183652f, -0.134011f, -0.108724f, -0.002550f, 0.116669f, 0.392890f, -0.042955f, 0.273321f, 0.028049f, -0.049130f, 0.087890f, -0.049604f, 0.169416f, -0.002586f, -0.155088f, -0.003115f, -0.352546f, -0.263947f, 0.050355f, -0.062374f, 0.044008f, 0.238329f, -0.236675f, -0.129084f, 0.116939f, 0.122575f, -0.022420f, 0.272449f, -0.126657f, -0.060428f, -0.199629f, 0.288402f, 0.000681f, 0.147701f, -0.247905f, -0.175998f, -0.239844f, -0.009629f, 0.058747f, 0.012664f, 0.075516f, -0.188099f, -0.260992f, -0.016493f, -0.014019f, 0.184140f, -0.383524f, 0.264172f, -0.049976f, 0.105803f, -0.047199f, 0.051758f, 0.011442f, 0.213394f, 0.006317f, -0.194176f, -0.258894f, 0.148253f, -0.120722f, 0.126978f, 0.132609f, -0.018174f, -0.126781f, 0.227617f, 0.065267f, 0.193900f, 0.178897f, 0.012106f, 0.047174f, 0.182168f, -0.041334f, 0.303880f, -0.054786f, 0.156711f, -0.129338f, 0.142701f, -0.090248f, 0.379388f, -0.009949f, 0.253544f, 0.069870f, 0.081118f, 0.005483f, -0.061474f, 0.206383f, 0.240041f, 0.083151f, 0.326342f, -0.067621f, 0.441342f, -0.170230f, 0.326948f, -0.250436f, 0.232283f, -0.028891f, 0.122505f, -0.090752f, 0.125067f, -0.064362f, -0.001490f, 0.127587f, 0.205039f, -0.098442f, 0.077643f, -0.036671f, 0.101075f, 0.089226f, -0.225335f, -0.058131f, 0.144132f, -0.168516f, 0.168867f, -0.253657f, -0.008834f, -0.135356f, 0.045561f, 0.087532f, 0.143086f, -0.083201f, -0.091831f, -0.023264f, 0.013565f, 0.265056f, -0.242307f, 0.056651f, 0.036856f, 0.148764f, 0.047962f, -0.067835f, -0.079355f, -0.070143f, -0.105276f, -0.123966f, -0.025001f, 0.078893f, 0.091547f, -0.291189f, -0.014444f, 0.027787f, -0.006950f, 0.255245f, 0.222208f, 0.099215f, 0.252472f, -0.179423f, -0.156291f, -0.190598f, -0.005108f, -0.081079f, -0.223308f, 0.187615f, -0.150267f, 0.290381f, -0.077370f, -0.062654f, -0.219321f, -0.036948f, -0.181832f, -0.317389f, 0.227553f, 0.563140f, 0.052479f, 0.234373f, -0.404349f, 0.311472f, -0.226173f, 0.032957f, 0.279718f, 0.429522f, 0.272460f, 0.104845f, -0.216946f, 0.033569f, 0.135220f, -0.001745f, 0.022635f, 0.136943f, -0.064058f, -0.065819f, 0.025924f, 0.009345f, 0.064292f, 0.015336f, -0.035685f, -0.043927f, 0.023032f, -0.082575f, 0.169585f, -0.054996f, -0.048249f, -0.116166f, 0.021491f, -0.008369f, 0.015028f, -0.057604f, 0.041101f, 0.062950f, -0.049149f, -0.070149f, -0.072112f, 0.008591f, -0.016765f, 0.022884f, -0.015908f, -0.017870f, 0.031542f, -0.020281f, 0.189190f, -0.006878f, -0.006729f, -0.026354f, 0.027156f, -0.061358f, 0.094953f, 0.063629f, 0.146865f, -0.214720f, -0.181149f, 0.127377f, 0.180476f, -0.335705f, 0.399159f, 0.061506f, -0.001331f, 0.239144f, -0.244945f, -0.037546f, 0.036105f, 0.005579f, 0.537567f, 0.091290f, 0.413558f, 0.229287f, 0.025168f, -0.145843f, -0.157479f, 0.084585f, -0.101556f, -0.159374f, -0.009128f, -0.064552f, -0.212349f, -0.149078f, -0.154748f, 0.122749f, 0.100888f, -0.412386f, -0.177029f, -0.270670f, -0.494846f, 0.061285f, -0.142121f, 0.137063f, -0.280844f, -0.435051f, 0.235615f, 0.387943f, 0.092393f, 0.101164f, -0.158771f, 0.270832f, 0.000785f, -0.140502f, 0.237791f, -0.126377f, -0.007067f, -0.254923f, -0.213285f, -0.006031f, 0.074179f, -0.131174f, 0.108255f, -0.130933f, 0.071020f, 0.253126f, -0.060706f, 0.057601f, 0.030862f, -0.257277f, 0.321602f, 0.007131f, 0.043475f, -0.247360f, 0.267703f, -0.257708f, 0.077789f, 0.217906f, 0.139895f, -0.099399f, 0.274174f, 0.094500f, 0.195229f, 0.252716f, 0.260127f, 0.234958f, 0.109961f, -0.214107f, 0.246115f, 0.318986f, 0.019514f, -0.108821f, 0.167608f, -0.198614f, 0.199796f, -0.168237f, 0.130891f, -0.155809f, 0.202719f, 0.233699f, 0.077205f, -0.018969f, 0.119484f, 0.064008f, 0.395344f, -0.148162f, 0.148546f, 0.135425f, 0.339614f, -0.120910f, 0.082706f, -0.070502f, 0.078056f, 0.174071f, -0.058305f, 0.137975f, 0.154086f, 0.131731f, 0.079903f, -0.155349f, 0.062635f, -0.058077f, 0.076863f, -0.010863f, 0.082158f, 0.065480f, 0.244175f, 0.001386f, 0.167679f, 0.162942f, -0.226304f, 0.090416f, 0.086020f, -0.145473f, 0.075502f, -0.093232f, -0.096915f, -0.026747f, -0.031301f, -0.120907f, -0.002656f, 0.045164f, 0.040122f, -0.247196f, -0.186068f, -0.082541f, -0.223939f, 0.204549f, 0.112421f, -0.048583f, 0.068979f, 0.338795f, 0.171774f, 0.200726f, -0.178876f, -0.098747f, -0.050545f, -0.109883f, 0.293584f, 0.322391f, 0.176071f, 0.185356f, 0.009240f, 0.235807f, 0.094734f, -0.002622f, -0.005739f, -0.140089f, -0.032832f, -0.144808f, -0.320437f, -0.021728f, 0.083314f, 0.007183f, 0.248091f, 0.450693f, -0.216722f, -0.050328f, -0.241587f, -0.204383f, -0.475537f, -0.059290f, 0.227155f, 0.443496f, 0.176978f, -0.179639f, -0.451712f, 0.218926f, -0.390657f, 0.298805f, 0.013577f, 0.164470f, -0.294245f, -0.013060f, 0.022887f, 0.078206f, 0.019131f, -0.012754f, 0.008840f, 0.092538f, 0.054162f, 0.007343f, -0.037750f, -0.033757f, -0.067414f, -0.012050f, 0.003676f, 0.023607f, -0.054712f, -0.102095f, 0.046940f, -0.074249f, -0.122440f, -0.075994f, 0.125997f, 0.004723f, -0.070112f, -0.000416f, 0.035823f, -0.009336f, 0.060558f, -0.108487f, 0.095652f, -0.053111f, 0.064281f, -0.026145f, -0.069869f, -0.202207f, 0.030546f, 0.105997f, 0.171329f, 0.053603f, -0.141235f, -0.018030f, 0.048268f, -0.101724f, 0.488166f, 0.125049f, 0.084992f, 0.223088f, -0.342625f, 0.443139f, -0.150715f, 0.313161f, 0.770662f, 0.109938f, 0.139928f, 0.234786f, -0.024830f, 0.114804f, -0.392238f, 0.246256f, 0.195558f, -0.103529f, -0.031911f, 0.107874f, -0.067792f, 0.131410f, -0.217591f, 0.031359f, -0.075205f, -0.544127f, -0.073281f, -0.340530f, -0.177599f, 0.097879f, -0.235255f, -0.025360f, 0.155940f, -0.199243f, 0.370876f, -0.183395f, -0.014384f, 0.210350f, -0.232235f, -0.067369f, 0.286347f, -0.238524f, 0.082240f, 0.185252f, -0.274135f, -0.084948f, -0.405446f, -0.159710f, -0.028420f, -0.051152f, 0.194855f, -0.053103f, -0.135028f, 0.222468f, -0.485807f, 0.126672f, -0.003895f, -0.387287f, 0.116168f, -0.073634f, -0.297716f, 0.112490f, -0.143991f, -0.078587f, 0.079905f, 0.465706f, 0.270541f, 0.052611f, 0.047672f, -0.361062f, 0.243134f, -0.037804f, 0.254690f, 0.120668f, 0.066188f, 0.104021f, 0.285945f, 0.196460f, 0.249417f, -0.012212f, 0.206405f, 0.278602f, 0.288946f, -0.157269f, 0.171046f, 0.116221f, 0.144314f, 0.036712f, 0.335902f, -0.005379f, 0.060055f, -0.231101f, 0.272413f, 0.002395f, 0.301893f, -0.028717f, 0.093148f, -0.045498f, 0.452760f, -0.140778f, 0.254311f, -0.034780f, 0.033514f, -0.148223f, 0.270288f, -0.050822f, 0.117501f, -0.076768f, -0.062903f, 0.021028f, 0.028360f, 0.264877f, -0.014337f, 0.024497f, 0.217861f, 0.038141f, -0.006463f, 0.061152f, -0.182500f, 0.101267f, 0.538418f, 0.146765f, 0.136257f, 0.087415f, 0.220061f, 0.203843f, 0.091422f, 0.345156f, 0.155416f, -0.061336f, 0.417954f, 0.104648f, 0.130390f, 0.141425f, -0.009532f, 0.058027f, 0.133467f, 0.198550f, 0.018212f, -0.167593f, 0.109438f, -0.030915f, -0.010727f, 0.022307f, -0.038200f, -0.106058f, 0.168167f, -0.295849f, 0.164122f, 0.167368f, -0.024412f, 0.151244f, 0.129785f, 0.120602f, 0.208177f, 0.102974f, -0.307982f, 0.424089f, -0.260672f, -0.200873f, -0.085043f, 0.152081f, -0.148241f, 0.110661f, 0.060905f, 0.259210f, -1.049318f, 0.039479f, -0.295918f, 0.092221f, -0.072368f, 0.593475f, 0.148601f, 0.093574f, -0.355179f, 0.081071f, -0.426783f, 0.159004f, 0.177204f, 0.121828f, 0.192264f, 0.070930f, -0.206733f, 0.265028f, -0.066024f, 0.147956f, -0.037252f, 0.038670f, -0.088793f, -0.031594f, 0.022393f, -0.002922f, 0.008626f, 0.005316f, -0.027816f, 0.042324f, -0.084046f, 0.073522f, 0.080405f, 0.008925f, 0.093658f, -0.107675f, 0.002693f, -0.038613f, 0.008197f, 0.125922f, -0.032884f, -0.017589f, -0.037755f, -0.012902f, 0.163600f, 0.148006f, -0.053111f, -0.027579f, 0.003259f, -0.050432f, -0.005646f, -0.038753f, 0.216543f, 0.035210f, -0.092517f, -0.162401f, -0.041505f, 0.304817f, 0.500864f, 0.088479f, 0.357299f, -0.055683f, -0.137811f, 0.015503f, -0.232853f, 0.150369f, 0.666185f, 0.087230f, 0.447815f, 0.343522f, -0.197304f, 0.331222f, 0.137134f, -0.239049f, 0.373885f, -0.054852f, -0.180212f, -0.194988f, 0.236900f, -0.102260f, -0.135879f, -0.042085f, 0.277970f, -0.162236f, 0.024557f, 0.253720f, -0.181381f, 0.206464f, -0.175428f, 0.103622f, -0.052845f, -0.059802f, -0.367346f, -0.114645f, 0.094532f, 0.083413f, 0.118123f, 0.087287f, -0.445676f, -0.563619f, -0.125768f, -0.166539f, 0.010187f, 0.269793f, -0.146248f, 0.037246f, -0.094922f, -0.418335f, 0.200802f, -0.056259f, 0.056374f, -0.084332f, -0.242843f, -0.030914f, 0.043696f, 0.051654f, -0.119011f, 0.043808f, 0.072156f, 0.109189f, -0.250182f, -0.033492f, -0.290884f, -0.134223f, 0.037464f, -0.327541f, -0.265189f, 0.240976f, -0.177911f, -0.156401f, 0.032368f, 0.233845f, 0.191270f, -0.032822f, 0.450122f, -0.170781f, 0.360303f, 0.038186f, 0.271276f, 0.390816f, 0.313906f, -0.130696f, 0.071908f, -0.002268f, 0.247759f, -0.284551f, 0.298583f, 0.453767f, 0.033938f, -0.028398f, 0.065710f, -0.013498f, 0.039729f, 0.270947f, 0.388093f, -0.217763f, 0.234624f, 0.046933f, -0.022979f, 0.076792f, -0.010916f, 0.106146f, 0.281727f, -0.205587f, 0.107078f, 0.013251f, -0.059892f, 0.184562f, -0.226904f, -0.090032f, 0.352056f, -0.061854f, 0.303854f, -0.276346f, -0.212505f, -0.092839f, -0.093277f, -0.276023f, -0.046456f, 0.055003f, 0.237285f, 0.095328f, 0.055177f, -0.233281f, 0.044524f, 0.008890f, 0.220681f, -0.042419f, 0.190413f, -0.140640f, -0.038668f, -0.116410f, -0.081267f, 0.095634f, 0.368650f, 0.095375f, 0.076502f, 0.209035f, 0.015604f, -0.159938f, 0.103210f, 0.199116f, 0.142180f, 0.168782f, 0.068628f, 0.447108f, -0.241452f, -0.221782f, 0.268214f, 0.210521f, 0.158721f, 0.483957f, 0.288453f, 0.012250f, 0.213123f, 0.133363f, 0.263216f, 0.106348f, 0.246140f, 0.215711f, 0.169466f, -0.313390f, 0.375276f, 0.534559f, -0.995729f, 0.426079f, -0.527757f, 0.230437f, 0.339280f, 0.387846f, 0.154555f, 0.280847f, -0.534693f, 0.084475f, 0.014026f, -0.014549f, -0.008135f, 0.038377f, 0.095889f, 0.217039f, -0.286817f, 0.176393f, 0.220781f, -0.022751f, 0.084772f, -0.120125f, -0.030163f, 0.036603f, 0.104967f, 0.003209f, 0.106651f, -0.151632f, 0.048901f, -0.113007f, 0.013141f, 0.138513f, 0.061718f, 0.001264f, -0.054021f, 0.022623f, 0.031651f, 0.009308f, -0.107647f, 0.076231f, 0.039912f, 0.031033f, 0.034040f, 0.017805f, 0.053327f, -0.096251f, -0.124371f, 0.018517f, 0.073329f, -0.171593f, 0.283468f, 0.008601f, 0.297960f, 0.110774f, -0.206370f, -0.200510f, -0.240989f, 0.195187f, 0.430546f, -0.036389f, 0.329867f, 0.248030f, 0.224252f, -0.008627f, -0.589668f, 0.041529f, -0.025307f, -0.020930f, 0.422943f, -0.151182f, 0.000007f, 0.356210f, -0.011545f, -0.226567f, 0.021382f, -0.196140f, 0.129038f, -0.111254f, 0.094744f, 0.351493f, -0.145756f, 0.201764f, 0.134621f, -0.169758f, -0.210151f, 0.010933f, -0.082850f, -0.092658f, -0.178814f, -0.144982f, -0.300163f, -0.171650f, 0.014147f, -0.015870f, -0.115899f, 0.159604f, -0.276967f, 0.286802f, -0.006423f, -0.364679f, 0.006835f, 0.098521f, -0.080076f, -0.166911f, -0.482337f, -0.033996f, -0.377076f, -0.525430f, -0.187717f, -0.301625f, -0.174468f, 0.564641f, -0.496207f, -0.118524f, -0.363355f, -0.233661f, -0.130295f, -0.024659f, -0.006586f, 0.157469f, -0.351256f, -0.016776f, -0.351482f, 0.095569f, -0.147100f, 0.156299f, -0.335107f, 0.114766f, -0.297486f, -0.200326f, -0.036791f, 0.424021f, -0.001668f, -0.120960f, -0.072398f, 0.177219f, 0.164365f, 0.050484f, 0.141764f, 0.504615f, 0.126640f, -0.279986f, 0.360619f, 0.228783f, 0.246989f, 0.154922f, 0.171092f, 0.159972f, -0.186578f, -0.350256f, -0.480616f, 0.014592f, -0.229948f, -0.265215f, -0.130515f, 0.420973f, 0.090732f, -0.373315f, 0.100552f, 0.087744f, 0.218644f, 0.030890f, 0.271556f, 0.046655f, -0.041908f, 0.171652f, -0.142553f, -0.187991f, 0.109585f, -0.034389f, 0.227332f, 0.007860f, 0.018073f, 0.095826f, 0.253529f, 0.053093f, 0.116960f, -0.174697f, 0.210354f, -0.045783f, -0.196132f, 0.149103f, -0.155070f, 0.056964f, -0.146576f, -0.242167f, 0.326063f, 0.016340f, 0.035337f, -0.022481f, -0.120219f, -0.054631f, -0.141806f, -0.337672f, -0.027705f, 0.066043f, 0.232612f, 0.069829f, -0.255008f, -0.060762f, -0.313637f, -0.103702f, 0.178736f, -0.028350f, 0.162003f, -0.239223f, 0.223019f, 0.122235f, -0.209812f, -0.606754f, 0.319203f, 0.420582f, 0.048685f, -0.079870f, 0.061199f, 0.140011f, 0.140528f, -0.141926f, 0.504844f, 0.667225f, 0.419852f, -0.098702f, -0.112242f, 0.342497f, -0.507034f, -0.161328f, -0.836041f, 0.614133f, 0.194186f, -0.038526f, -0.225620f, 0.353402f, -0.494640f, 0.130334f, -0.242410f, 0.175107f, 0.140702f, -0.200403f, -0.142978f, 0.389239f, -0.122268f, 0.174002f, -0.035121f, 0.073208f, -0.020455f, -0.012008f, 0.017185f, -0.001308f, 0.060443f, 0.106090f, 0.061461f, -0.022030f, 0.018045f, -0.057824f, -0.017179f, -0.075908f, -0.004243f, 0.006832f, -0.041632f, 0.076767f, 0.074920f, 0.125459f, -0.028121f, 0.096602f, -0.038037f, -0.115059f, -0.079646f, 0.054500f, -0.038117f, -0.092136f, -0.049410f, -0.019923f, -0.054631f, -0.418310f, 0.388514f, 0.101980f, 0.152047f, -0.143784f, -0.486407f, -0.311834f, -0.080577f, -0.205174f, 0.604910f, -0.002835f, 0.381705f, -0.121781f, -0.288770f, 0.124068f, -0.394322f, 0.127817f, 0.078640f, 0.070729f, -0.274013f, -0.097232f, 0.062596f, 0.104364f, -0.113381f, 0.068809f, -0.199132f, -0.069319f, 0.133056f, 0.163329f, -0.097353f, 0.190710f, -0.048918f, -0.164284f, 0.018879f, -0.057620f, 0.143553f, -0.020326f, 0.032579f, 0.376194f, -0.405335f, -0.392796f, 0.215628f, -0.178304f, -0.154960f, -0.123682f, 0.107677f, 0.013905f, -0.200699f, 0.042150f, -0.085394f, -0.525966f, -0.002179f, 0.126746f, 0.142066f, 0.348196f, -0.167158f, -0.254959f, -0.021921f, -0.374560f, -0.171580f, 0.056526f, -0.222026f, -0.005239f, -0.652570f, -0.118089f, -0.143269f, -0.180962f, 0.219090f, -0.306831f, 0.008375f, 0.385715f, -0.691751f, 0.095124f, -0.168370f, -0.668698f, -0.161932f, 0.285946f, -0.181838f, -0.294475f, -0.322056f, -0.025348f, -0.043757f, -0.020890f, -0.008407f, -0.537310f, 0.186836f, -0.192410f, 0.117701f, 0.039089f, 0.110039f, 0.339329f, -0.232253f, -0.228089f, 0.403414f, 0.241976f, 0.332207f, 0.096076f, 0.123205f, 0.219348f, -0.340807f, -0.106148f, -0.503092f, -0.005100f, -0.524690f, 0.327771f, 0.032198f, -0.143614f, -0.316176f, -0.009279f, -0.094113f, 0.016045f, -0.138866f, 0.000350f, -0.117552f, -0.017411f, -0.146741f, -0.174615f, -0.065029f, -0.009524f, -0.162462f, 0.144478f, 0.343313f, -0.017146f, -0.077853f, -0.128954f, -0.287159f, -0.009287f, -0.280430f, -0.024790f, 0.117380f, -0.026809f, -0.004104f, 0.208071f, -0.021322f, -0.040387f, 0.221111f, -0.253818f, 0.243395f, 0.177098f, -0.318444f, -0.277816f, 0.157660f, 0.252225f, 0.176840f, -0.290980f, 0.438537f, -0.092358f, -0.184226f, -0.161092f, 0.243699f, -0.061966f, 0.179940f, -0.585386f, -0.268369f, -0.441241f, -0.348927f, -0.050778f, 0.089850f, 0.571792f, -0.043216f, -0.362656f, 0.435773f, -0.352927f, -0.068297f, -0.115330f, 0.153183f, 0.237396f, 0.138355f, -0.459348f, -0.351265f, 0.546435f, -0.017442f, 0.432347f, 0.663306f, 0.175258f, -0.469398f, -0.188308f, -0.530921f, 0.734744f, 0.013233f, 0.137432f, -0.070852f, 0.391249f, -0.456873f, 0.207756f, -0.180365f, 0.354188f, 0.168801f, 0.067225f, 0.194122f, 0.327728f, -0.592556f, 0.181991f, -0.231311f, 0.221489f, -0.058565f, 0.060019f, -0.016312f, 0.030633f, -0.122430f, -0.029712f, -0.054905f, -0.032157f, -0.003209f, -0.019060f, 0.006119f, 0.015264f, -0.085035f, -0.006450f, 0.082848f, 0.003302f, 0.025016f, 0.096656f, 0.002943f, 0.077499f, 0.014105f, -0.072547f, -0.042022f, -0.084061f, 0.043207f, 0.058455f, -0.170249f, 0.050044f, -0.095513f, -0.425621f, 0.324619f, -0.004627f, -0.091779f, 0.022015f, -0.292199f, -0.078795f, -0.192845f, 0.019549f, 0.388941f, -0.066963f, 0.181082f, -0.185748f, -0.084950f, 0.462035f, -0.123302f, -0.093664f, -0.325130f, -0.076614f, -0.577970f, 0.152931f, 0.091618f, 0.650193f, -0.363075f, 0.073040f, -0.273261f, -0.128410f, 0.055803f, -0.095853f, 0.243773f, 0.001928f, -0.132844f, -0.016795f, -0.254317f, -0.102821f, -0.279548f, -0.027028f, -0.076558f, 0.216895f, -0.247508f, 0.047192f, -0.246298f, -0.075849f, -0.071425f, 0.018125f, -0.210023f, -0.068840f, -0.148017f, -0.194241f, -0.190427f, -0.241996f, -0.370208f, -0.057986f, -0.028793f, 0.224456f, -0.044756f, -0.021438f, -0.299584f, -0.176433f, -0.156942f, 0.049624f, -0.291936f, -0.333615f, -0.348424f, 0.278999f, -0.310960f, -0.469351f, -0.331037f, -0.037269f, -0.254085f, -0.277116f, -0.433435f, -0.035862f, -0.533758f, -0.285321f, -0.143202f, 0.244199f, -0.299771f, -0.084003f, 0.010962f, 0.039679f, -0.068381f, 0.253511f, 0.036726f, 0.179669f, 0.386191f, -0.367959f, 0.547051f, 0.080461f, 0.224503f, 0.307251f, -0.286945f, -0.031919f, 0.256359f, -0.109089f, 0.355003f, 0.238571f, 0.133046f, 0.235917f, -0.025152f, -0.211537f, -0.162872f, -0.040370f, -0.120223f, 0.162038f, 0.149708f, 0.020577f, -0.213689f, -0.023766f, -0.287165f, -0.176248f, 0.002770f, -0.147755f, 0.130233f, 0.201206f, -0.003362f, 0.054316f, 0.034286f, -0.106308f, -0.125285f, -0.037340f, 0.081209f, -0.102571f, -0.104481f, -0.343314f, -0.019810f, -0.177035f, -0.007965f, 0.077702f, 0.075619f, 0.150590f, -0.023029f, 0.145151f, 0.151497f, -0.028503f, -0.055934f, 0.156905f, 0.136720f, -0.146215f, 0.110065f, 0.104749f, -0.011016f, -0.263774f, -0.213872f, 0.215474f, 0.051782f, 0.021821f, -0.208643f, 0.154560f, 0.087413f, 0.135210f, -0.152468f, 0.038278f, 0.023400f, -0.138275f, -0.340515f, 0.113246f, -0.001273f, -0.269243f, -0.043020f, -0.240573f, -0.224027f, -0.452428f, -0.606542f, -0.116632f, 0.817248f, 0.161083f, 0.083744f, -0.494212f, 0.124866f, -0.607396f, -0.063037f, 0.339388f, 0.426088f, -0.067942f, 0.403460f, -1.220633f, 0.133117f, -0.249519f, -0.128359f, 0.198787f, -0.266181f, 0.001049f, -0.042104f, -0.375381f, 0.351296f, -0.128473f, 0.069029f, 0.093138f, -0.149941f, 0.084211f, -0.478845f, 0.112749f, 0.139655f, 0.075821f, -0.015110f, -0.157358f, -0.004330f, -0.002435f, 0.022669f, -0.018902f, 0.020649f, -0.098934f, 0.039789f, 0.080977f, -0.047871f, 0.028365f, 0.042048f, 0.060582f, -0.013479f, -0.034164f, -0.036875f, 0.058957f, 0.045613f, -0.049196f, -0.025029f, 0.016278f, 0.116900f, 0.084104f, 0.040986f, -0.036358f, -0.031247f, 0.082080f, -0.103468f, -0.196893f, 0.193398f, -0.100512f, 0.276716f, 0.175411f, 0.022522f, 0.007513f, -0.112502f, -0.051624f, -0.019346f, 0.128226f, -0.335195f, -0.614548f, 0.173167f, -0.072286f, -0.618223f, -0.037240f, 0.212574f, 0.007688f, -0.357603f, -0.276433f, -0.146106f, 0.259717f, -0.243828f, 0.177030f, -0.233575f, -0.138815f, -0.221941f, -0.233062f, -0.137947f, -0.032406f, -0.157536f, -0.201593f, -0.128055f, -0.135800f, -0.137832f, 0.046321f, -0.038876f, 0.190735f, -0.248534f, -0.071780f, -0.208672f, -0.248209f, -0.085959f, 0.084255f, -0.202551f, 0.213258f, -0.260511f, -0.007539f, 0.132895f, 0.003270f, -0.159360f, 0.159460f, -0.049201f, 0.007047f, -0.185322f, -0.073506f, -0.246340f, -0.170180f, 0.103094f, -0.014338f, -0.199526f, -0.309999f, -0.318237f, -0.266028f, -0.330612f, -0.352579f, -0.128774f, 0.126280f, -0.379498f, -0.414407f, -0.514711f, 0.269892f, -0.288843f, -0.302170f, -0.095445f, 0.182074f, 0.074994f, -0.409375f, 0.139741f, 0.215943f, -0.062726f, 0.203277f, -0.059991f, 0.466477f, 0.429612f, -0.162540f, 0.585464f, 0.291565f, 0.119027f, 0.046431f, 0.123638f, -0.004676f, 0.155088f, 0.052438f, 0.181464f, 0.137200f, 0.281189f, 0.126700f, -0.530998f, 0.238552f, -0.081133f, -0.104625f, -0.210580f, 0.032940f, -0.021039f, 0.095175f, 0.100699f, -0.003754f, -0.015193f, -0.282112f, 0.092838f, 0.051859f, 0.175791f, -0.094727f, -0.171136f, 0.070712f, -0.087493f, 0.049093f, -0.067614f, 0.155744f, 0.016765f, -0.007739f, 0.153351f, 0.248842f, 0.019873f, -0.135900f, 0.037240f, 0.034953f, 0.202685f, -0.125169f, -0.101653f, -0.091679f, 0.172818f, -0.274328f, 0.129590f, 0.171880f, 0.058166f, -0.103276f, -0.453243f, -0.009907f, 0.024043f, -0.077071f, 0.146369f, -0.324231f, 0.078906f, 0.019800f, -0.161223f, 0.036746f, -0.062633f, -0.007359f, 0.095013f, -0.181952f, 0.170756f, -0.424510f, -0.126472f, 0.025834f, 0.313877f, -0.261646f, -0.017117f, -0.506900f, -0.104363f, -0.998789f, -0.235532f, -0.052972f, 0.164595f, 0.087054f, 0.594130f, -0.163822f, -0.403797f, -0.896827f, 0.044046f, -0.053905f, 0.190258f, -0.080013f, 0.377135f, -0.685194f, 0.012990f, -0.536441f, -0.228844f, 0.112083f, -0.257991f, -0.110407f, -0.019056f, -0.548462f, 0.434321f, -0.270291f, -0.037107f, 0.147485f, -0.568835f, 0.236292f, 0.250861f, 0.029833f, 0.383113f, -0.119082f, 0.088590f, 0.044264f, -0.205855f, 0.177556f, 0.320977f, -0.015266f, -0.049678f, -0.013460f, 0.059390f, 0.048062f, 0.004288f, -0.072699f, -0.026797f, 0.083431f, -0.018545f, 0.008239f, -0.045424f, -0.025000f, 0.071509f, 0.019036f, 0.038529f, -0.022809f, 0.066937f, -0.037413f, 0.033795f, -0.033152f, -0.062018f, 0.068394f, 0.068949f, -0.206507f, 0.134829f, -0.038496f, 0.046162f, 0.034224f, -0.015626f, -0.162970f, -0.117660f, -0.072953f, 0.331796f, 0.076886f, 0.146469f, 0.442722f, -0.172049f, -0.438643f, -0.037859f, -0.447725f, 0.112884f, -0.067103f, -0.126129f, 0.089839f, -0.253269f, -0.020964f, -0.169188f, -0.644635f, -0.338312f, -0.162745f, -0.322544f, -0.267165f, -0.086980f, -0.170413f, -0.133353f, 0.314222f, -0.231511f, -0.329372f, 0.240461f, 0.063373f, -0.141420f, -0.524100f, -0.032298f, -0.128410f, -0.075248f, -0.247656f, -0.366334f, -0.324522f, -0.147836f, -0.653388f, -0.202192f, 0.126914f, -0.501821f, -0.394175f, -0.112069f, -0.269272f, -0.258728f, -0.986334f, -0.242396f, 0.167904f, -0.339130f, 0.026319f, -0.111446f, -0.015872f, -0.117352f, -0.390497f, -0.083845f, 0.093496f, -0.284203f, -0.083352f, 0.041009f, 0.307484f, 0.140713f, -0.367690f, 0.227279f, -0.077914f, -0.002669f, 0.230659f, -0.066914f, 0.322520f, 0.162364f, -0.247393f, 0.385849f, -0.181636f, 0.016777f, -0.007468f, 0.028225f, 0.178601f, 0.366374f, -0.002411f, 0.284698f, 0.026540f, 0.229694f, 0.157185f, -0.040377f, 0.272038f, 0.112232f, 0.074331f, 0.327768f, 0.332602f, 0.173504f, 0.201130f, -0.195354f, 0.061263f, 0.041106f, 0.094060f, 0.070732f, 0.023629f, 0.128743f, 0.185119f, -0.435658f, 0.063684f, -0.217262f, -0.143561f, -0.029850f, -0.031196f, -0.080199f, -0.045222f, -0.115428f, 0.152009f, -0.239061f, -0.095830f, -0.404579f, 0.071462f, 0.213175f, -0.052786f, -0.188355f, -0.085818f, -0.143568f, -0.269288f, 0.079942f, -0.084414f, 0.132358f, -0.126369f, -0.040951f, 0.133200f, -0.391890f, 0.071020f, -0.229785f, -0.265727f, 0.202535f, 0.017629f, 0.061036f, -0.272875f, -0.120253f, -0.117121f, -0.100891f, -0.340640f, -0.212628f, 0.329422f, -0.036007f, -0.226602f, -0.183872f, -0.399815f, -0.098799f, -0.124142f, -0.177843f, -0.074326f, -0.241052f, -0.217606f, -0.359034f, -0.120649f, -0.105055f, -0.362114f, -0.648393f, -0.307912f, -0.057232f, -0.146081f, -0.008007f, -0.184822f, -0.191213f, 0.189726f, -0.369702f, -0.293350f, -0.025101f, -0.058527f, 0.388165f, -0.297142f, 0.374328f, -0.011071f, -0.231889f, -0.263546f, -0.287935f, 0.230412f, -0.405708f, -0.198608f, 0.460785f, -0.373965f, 0.356434f, -0.116778f, 0.080771f, 0.045743f, -0.464727f, 0.160836f, 0.320808f, -0.097143f, 0.124736f, -0.041103f, 0.077125f, 0.005905f, -0.085320f, -0.052791f, 0.069010f, -0.038599f, 0.052702f, 0.027143f, 0.056959f, -0.037363f, 0.033573f, -0.040246f, 0.074733f, 0.027048f, -0.041149f, -0.039473f, -0.059905f, 0.022633f, -0.036886f, -0.009499f, -0.062265f, 0.052063f, 0.061759f, 0.062499f, 0.046677f, -0.036351f, -0.104227f, 0.049422f, 0.017068f, 0.041247f, -0.156345f, -0.046801f, -0.233204f, 0.426880f, -0.326631f, -0.289218f, -0.111933f, 0.001032f, 0.280598f, 0.076558f, 0.163616f, 0.301938f, -0.188244f, -0.744001f, -0.026529f, -0.028485f, 0.178406f, 0.156002f, 0.107747f, -0.008996f, -0.015558f, -1.077180f, 0.104575f, -0.453412f, -0.021356f, 0.123092f, -0.440275f, 0.034315f, -0.280462f, -0.861872f, -0.114532f, -0.137879f, -0.211452f, 0.111738f, -0.184018f, 0.193441f, -0.107952f, -1.006669f, -0.202632f, -0.431682f, -0.180803f, -0.324234f, -0.072591f, 0.166327f, -0.239733f, -0.792341f, -0.065935f, 0.068842f, -0.070812f, -0.013256f, 0.170624f, 0.476141f, 0.028071f, -0.236980f, 0.077156f, -0.176324f, 0.078295f, -0.235368f, -0.015893f, 0.047838f, 0.005065f, -0.413875f, 0.018153f, -0.230617f, -0.280764f, -0.248389f, -0.288424f, 0.006411f, -0.057583f, 0.186549f, -0.081174f, 0.025235f, -0.089717f, -0.207128f, -0.138496f, 0.107114f, 0.143369f, 0.068781f, 0.106642f, 0.200955f, -0.209384f, 0.076472f, -0.047811f, 0.161117f, 0.190921f, 0.278730f, 0.157306f, 0.132855f, 0.108025f, -0.050360f, -0.246696f, 0.310736f, 0.321717f, -0.037364f, 0.335497f, 0.177209f, 0.052077f, -0.095621f, -0.144198f, 0.131607f, -0.272815f, -0.130836f, -0.098096f, -0.026335f, 0.355138f, 0.241410f, 0.006941f, 0.052382f, -0.003834f, -0.393162f, 0.065479f, 0.181552f, -0.071449f, -0.140689f, -0.069342f, 0.167326f, -0.136169f, -0.255877f, 0.085348f, -0.329583f, 0.272528f, 0.179592f, 0.086311f, -0.118825f, -0.010292f, 0.018376f, -0.099451f, -0.275988f, -0.159460f, 0.041111f, -0.232808f, -0.123882f, -0.214905f, -0.167917f, -0.182991f, -0.106277f, -0.094555f, -0.056854f, -0.100720f, -0.323507f, -0.234028f, -0.130357f, -0.190049f, 0.028343f, -0.170230f, 0.073237f, 0.106959f, -0.228181f, 0.034391f, -0.059996f, 0.078294f, 0.089682f, -0.044098f, -0.164960f, -0.169957f, 0.139981f, -0.400107f, -0.337571f, -0.361524f, 0.185637f, 0.031687f, -0.066302f, -0.002187f, -0.187429f, -0.033767f, -0.320014f, 0.182209f, 0.005079f, -0.056099f, -0.411618f, 0.409320f, -0.182709f, 0.296010f, -0.163147f, 0.309866f, 0.405797f, -0.118121f, -0.322084f, -0.461588f, 0.538379f, 0.122971f, -0.014495f, 0.002039f, -0.033975f, 0.030888f, 0.049363f, 0.021764f, 0.081907f, -0.390270f, 0.321900f, 0.194371f, 0.097898f, 0.362468f, -0.068421f, -0.042627f, 0.037823f, -0.032905f, 0.075668f, 0.048447f, 0.056452f, 0.021485f, 0.035483f, -0.016688f, -0.029877f, -0.007923f, 0.045414f, -0.064894f, -0.052833f, 0.079307f, -0.056306f, 0.008753f, 0.008279f, 0.003718f, 0.012867f, -0.056835f, 0.020574f, -0.018740f, 0.034768f, -0.107607f, 0.008029f, -0.045845f, -0.056240f, 0.009165f, 0.061233f, -0.021503f, -0.114137f, 0.274775f, 0.411747f, -0.243377f, -0.294993f, 0.073273f, 0.221428f, -0.012736f, 0.064459f, 0.140810f, -0.283285f, -0.016743f, -1.115918f, 0.047522f, 0.324211f, 0.302201f, 0.147120f, -0.073900f, 0.011363f, 0.060456f, -1.005850f, 0.075931f, -0.548224f, 0.087923f, 0.123981f, -0.069722f, 0.101484f, -0.350675f, -0.283441f, -0.090953f, -0.618650f, -0.126800f, 0.140045f, 0.268922f, -0.064743f, -0.120921f, -0.074433f, -0.063404f, -0.474601f, 0.089964f, -0.469444f, 0.342902f, 0.200710f, 0.152476f, -0.401422f, -0.050649f, -0.550588f, -0.017789f, -0.190594f, 0.012528f, 0.113310f, 0.071226f, 0.056680f, 0.226533f, -0.135312f, 0.094615f, -0.154391f, -0.107090f, 0.013077f, -0.025621f, 0.125993f, -0.102200f, -0.023736f, -0.032908f, -0.168248f, 0.037293f, 0.156427f, 0.408160f, 0.083325f, 0.411360f, -0.283980f, -0.167822f, -0.109448f, -0.011954f, 0.297961f, 0.226464f, 0.065661f, -0.074637f, 0.072921f, -0.009891f, -0.278310f, 0.070780f, 0.289577f, 0.068652f, 0.064848f, 0.385614f, -0.004837f, 0.371600f, 0.475036f, -0.071268f, 0.307287f, 0.190349f, 0.242704f, 0.328771f, 0.249267f, 0.180605f, 0.059712f, -0.187199f, 0.190750f, -0.246452f, -0.122841f, -0.147115f, -0.172631f, -0.116404f, 0.033987f, -0.288963f, 0.179508f, -0.107366f, 0.223890f, -0.118363f, -0.131586f, 0.055733f, -0.239398f, 0.492604f, 0.260784f, -0.245277f, -0.032666f, -0.369978f, -0.261710f, 0.385095f, 0.129725f, -0.415626f, 0.003917f, -0.105857f, -0.260060f, 0.167133f, 0.283523f, -0.035231f, -0.129552f, 0.298222f, 0.078144f, -0.286324f, 0.040086f, -0.178496f, 0.073654f, -0.012935f, 0.081725f, -0.484061f, -0.111094f, -0.370088f, 0.065556f, -0.125875f, 0.177592f, 0.064684f, 0.375239f, -0.076895f, 0.049273f, -0.209724f, 0.183211f, -0.178212f, -0.117763f, -0.026567f, -0.153283f, 0.277665f, -0.042641f, -0.051681f, -0.054666f, 0.039752f, -0.052105f, 0.103368f, -0.643931f, -0.106009f, 0.242655f, 0.280259f, 0.021570f, 0.058347f, 0.325083f, -0.072460f, -0.501854f, 0.322066f, -0.079050f, -0.016771f, -0.239243f, 0.343407f, 0.680801f, 0.380965f, -0.220545f, 0.001760f, 0.262084f, -0.028079f, 0.219785f, 0.428844f, -0.083348f, 0.069681f, -0.313756f, 0.058063f, 0.024849f, -0.412771f, 0.249434f, 0.441754f, -0.041151f, 0.234770f, -0.062260f, 0.005420f, 0.100656f, -0.022510f, 0.112707f, -0.021032f, 0.079164f, 0.061100f, -0.053299f, -0.078020f, -0.077601f, 0.033316f, -0.007300f, -0.047452f, 0.019775f, -0.042882f, 0.013470f, -0.025694f, 0.052271f, 0.054665f, -0.007780f, -0.027065f, -0.018083f, 0.056354f, -0.029823f, -0.133321f, 0.150228f, -0.003850f, -0.023889f, 0.142072f, 0.056532f, -0.208387f, -0.156110f, 0.335484f, 0.165766f, -0.120308f, -0.243495f, 0.262488f, 0.372831f, -0.115363f, -0.022129f, 0.414648f, -0.156816f, 0.006631f, -0.560515f, 0.041662f, 0.154736f, 0.524095f, -0.104043f, 0.079586f, 0.128951f, 0.018821f, -0.257920f, 0.010245f, -0.037442f, -0.232201f, 0.047046f, -0.139351f, -0.026420f, -0.043061f, -0.329877f, 0.093041f, -0.005241f, -0.037657f, 0.401451f, -0.501083f, -0.060903f, 0.151020f, -0.034750f, 0.136083f, -0.072640f, -0.024340f, 0.145617f, -0.472828f, 0.147675f, -0.352641f, -0.005606f, -0.069547f, -0.067957f, -0.016029f, 0.121408f, -0.227813f, 0.225604f, 0.165612f, 0.276108f, -0.001774f, -0.483808f, 0.043915f, -0.106557f, -0.024681f, 0.033026f, 0.244924f, 0.064789f, 0.365811f, -0.028553f, -0.217010f, 0.101755f, -0.170370f, 0.157017f, 0.297268f, 0.364605f, 0.118099f, -0.335164f, -0.076845f, -0.049511f, 0.033957f, 0.055813f, 0.279193f, 0.059542f, 0.171824f, 0.025747f, 0.065398f, -0.184767f, -0.358120f, 0.175872f, 0.011244f, 0.092719f, 0.044350f, -0.093975f, 0.109063f, -0.125744f, -0.106563f, 0.073182f, -0.073771f, 0.217448f, -0.012307f, -0.199057f, -0.150043f, -0.263611f, -0.040326f, 0.119976f, -0.140093f, -0.298358f, 0.160389f, 0.017205f, 0.372580f, 0.308580f, -0.059968f, 0.150966f, 0.122185f, -0.085946f, 0.195655f, -0.265118f, -0.133529f, -0.087518f, -0.085816f, 0.037774f, -0.090057f, -0.376759f, 0.056487f, -0.093706f, 0.011020f, 0.191001f, 0.059063f, -0.264938f, -0.366873f, -0.066837f, -0.315813f, 0.080757f, -0.230472f, -0.018878f, -0.062329f, -0.148685f, 0.246962f, -0.156391f, 0.219094f, 0.012551f, -0.074094f, -0.179864f, 0.280855f, -0.042937f, -0.024108f, -0.372176f, 0.108800f, -0.165323f, -0.232856f, 0.248543f, -0.057195f, -0.117490f, -0.134205f, -0.338231f, 0.077235f, 0.136526f, -0.244130f, -0.064029f, -0.016480f, 0.083808f, 0.081903f, -0.139193f, 0.117949f, -0.022877f, 0.047506f, -0.350536f, 0.222667f, 0.095164f, 0.355432f, -0.238903f, 0.445520f, 0.034954f, 0.065853f, -0.615229f, -0.084584f, 0.202919f, 0.267082f, -0.362116f, 0.147295f, -0.067964f, 0.330833f, -0.412543f, -0.036155f, -0.126869f, -0.109136f, 0.250174f, 0.754721f, -0.434852f, 0.081154f, -0.056571f, 0.079130f, -0.011156f, -0.303472f, 0.137748f, 0.379044f, -0.072182f, 0.337448f, 0.000221f, 0.066291f, 0.010902f, -0.114096f, 0.009789f, 0.085642f, -0.029069f, 0.110915f, -0.099154f, -0.065899f, 0.060691f, -0.058414f, 0.084751f, 0.095297f, 0.045322f, 0.043635f, -0.005000f, 0.099687f, 0.003025f, -0.028871f, 0.020679f, 0.032426f, -0.012167f, -0.066023f, 0.003019f, 0.034855f, 0.170376f, 0.079905f, 0.042344f, 0.057586f, 0.088315f, -0.125041f, -0.183461f, -0.081471f, 0.218478f, -0.236123f, -0.116114f, 0.143894f, 0.388936f, -0.109776f, -0.704334f, 0.456627f, 0.192792f, -0.030675f, -0.072304f, 0.362573f, 0.355254f, -0.345100f, 0.114601f, 0.329038f, 0.342556f, -0.172191f, 0.040502f, 0.224712f, 0.243131f, -0.020445f, -0.251060f, 0.108316f, 0.216210f, 0.069309f, 0.028081f, 0.231876f, 0.005468f, 0.191028f, 0.217413f, 0.039281f, 0.355453f, 0.010873f, 0.123811f, 0.138653f, -0.313201f, -0.169094f, 0.165218f, -0.038795f, -0.269677f, 0.108843f, -0.005395f, 0.195649f, -0.277038f, -0.116196f, 0.214056f, -0.320873f, 0.145577f, 0.261839f, 0.182259f, 0.196781f, -0.369550f, -0.194599f, -0.097629f, 0.117951f, -0.032783f, 0.354330f, 0.024853f, 0.147299f, -0.408105f, -0.024540f, -0.013775f, -0.358345f, -0.079390f, 0.177880f, 0.010474f, 0.160405f, -0.379342f, 0.129786f, 0.052400f, -0.446509f, 0.211937f, 0.093695f, 0.263707f, 0.228945f, -0.756353f, -0.414148f, 0.048670f, -0.194168f, 0.110283f, -0.288614f, 0.081000f, -0.236519f, -0.252054f, -0.125761f, 0.145745f, -0.391485f, -0.102966f, -0.196997f, 0.086361f, -0.042265f, -0.107525f, -0.207480f, 0.065998f, -0.063589f, -0.114266f, 0.016527f, 0.023765f, -0.034253f, -0.182638f, -0.116323f, 0.207302f, 0.295131f, 0.259674f, -0.112350f, -0.239171f, -0.023626f, 0.169096f, 0.406647f, 0.174023f, 0.070132f, -0.189989f, 0.112061f, -0.024041f, 0.151008f, 0.312186f, -0.098877f, 0.055727f, -0.088629f, 0.106064f, 0.017875f, 0.062372f, 0.210201f, -0.245044f, 0.122166f, 0.076511f, 0.107367f, 0.408148f, 0.094408f, -0.492394f, 0.286753f, 0.181877f, 0.161129f, -0.009339f, -0.063329f, 0.226417f, -0.002541f, -0.030957f, 0.090846f, 0.166599f, 0.283246f, -0.020667f, 0.166318f, -0.018131f, 0.024575f, 0.050288f, 0.002410f, 0.310938f, -0.074058f, -0.110527f, 0.182084f, -0.189510f, 0.172859f, 0.115530f, 0.353542f, 0.288717f, 0.543516f, -0.241122f, 0.044424f, -0.014854f, 0.168598f, 0.072943f, 0.299758f, 0.020015f, -0.152566f, -0.233196f, -0.130352f, 0.287467f, -0.110542f, -0.012901f, 0.143623f, 0.053090f, -0.234540f, -0.101223f, -0.159246f, -0.096756f, -0.301435f, 0.082351f, 0.584424f, 0.107334f, 0.102857f, 0.071751f, 0.067846f, -0.037298f, -0.137619f, 0.130792f, 0.139657f, -0.004128f, 0.111501f, -0.068239f, 0.024285f, 0.109339f, -0.171603f, 0.008538f, 0.081390f, 0.012952f, 0.044863f, 0.019226f, 0.086308f, -0.008422f, -0.025220f, -0.017222f, -0.066759f, 0.066583f, -0.014782f, -0.019540f, 0.114234f, -0.008842f, -0.018248f, -0.072592f, 0.133056f, 0.068977f, -0.008496f, 0.016585f, -0.127385f, 0.150171f, 0.134635f, 0.035990f, -0.246161f, -0.040056f, -0.313943f, 0.163171f, -0.463660f, 0.113678f, -0.055744f, -0.478157f, -0.495449f, 0.368837f, 0.050805f, -0.405203f, 0.365593f, -0.237189f, 0.037581f, 0.178340f, -0.049523f, 0.426931f, 0.190623f, 0.295661f, 0.353513f, 0.172775f, 0.221517f, -0.391466f, -0.025764f, 0.405436f, 0.571120f, -0.330831f, 0.330814f, 0.030432f, 0.193687f, -0.032958f, -0.121924f, 0.256984f, -0.154180f, -0.070152f, -0.160060f, -0.035642f, 0.152508f, 0.131974f, 0.371457f, -0.128195f, 0.106613f, 0.262925f, 0.284613f, -0.017324f, 0.263971f, 0.038635f, -0.044094f, 0.141082f, -0.096560f, -0.053421f, -0.207226f, -0.207450f, 0.247397f, 0.112099f, 0.225819f, 0.130428f, -0.033134f, -0.050924f, 0.094485f, 0.257485f, 0.569409f, 0.401203f, 0.515133f, 0.023834f, -0.100960f, 0.093062f, 0.033262f, 0.304034f, -0.118990f, 0.064090f, 0.127337f, -0.146985f, -0.092435f, 0.149218f, 0.144782f, -0.404170f, 0.498841f, 0.448527f, 0.092417f, -0.038548f, -0.336480f, -0.047419f, -0.139597f, 0.017339f, -0.203407f, 0.298527f, 0.048228f, 0.093286f, -0.141196f, -0.096623f, -0.079486f, 0.117818f, -0.189630f, -0.072763f, -0.184131f, -0.066252f, 0.020506f, 0.002315f, -0.097046f, -0.023554f, -0.001154f, 0.094651f, 0.171706f, 0.071383f, -0.224783f, -0.212523f, -0.300455f, 0.022642f, 0.081461f, 0.154293f, 0.181122f, -0.043055f, 0.000625f, 0.310492f, 0.264261f, 0.233519f, 0.149005f, -0.160503f, 0.333263f, -0.027057f, 0.102911f, -0.277696f, 0.266795f, -0.048226f, 0.219503f, -0.202763f, 0.066311f, 0.189319f, 0.046524f, 0.066448f, 0.025779f, -0.100657f, 0.064922f, 0.095992f, 0.043551f, 0.034599f, 0.035199f, -0.108588f, 0.156741f, -0.281513f, 0.120214f, 0.115064f, 0.097859f, -0.015932f, -0.279534f, -0.059242f, -0.130216f, 0.226166f, 0.168822f, -0.456906f, 0.324543f, -0.108608f, -0.004187f, -0.088260f, 0.478327f, 0.238413f, 0.521865f, -0.429298f, 0.616570f, 0.037388f, -0.043884f, -0.523728f, 0.023381f, 0.434082f, -0.234215f, -0.003933f, 0.003777f, 0.185190f, 0.124381f, -0.283656f, 0.221324f, 0.158240f, -0.023546f, 0.082111f, -0.287863f, 0.233014f, -0.089552f, -0.058030f, -0.063279f, -0.146122f, -0.377881f, 0.358814f, 0.391338f, 0.138147f, 0.219754f, 0.075798f, 0.125789f, 0.045172f, -0.275808f, 0.074603f, 0.240598f, 0.037105f, 0.190770f, 0.077927f, -0.056021f, -0.026479f, 0.005312f, 0.013616f, 0.001636f, -0.018740f, 0.034906f, 0.010315f, -0.058742f, -0.004904f, 0.009278f, 0.012196f, -0.050300f, 0.042037f, -0.082384f, -0.025189f, 0.093087f, -0.012544f, 0.006378f, 0.033786f, -0.019357f, 0.042241f, 0.026548f, 0.023097f, 0.009186f, -0.008085f, 0.012861f, 0.006102f, -0.114355f, -0.010855f, -0.159262f, 0.020116f, 0.045045f, -0.105731f, -0.091486f, -0.135579f, 0.022729f, 0.036752f, -0.067892f, -0.456736f, 0.297894f, 0.293868f, -0.114913f, 0.104512f, 0.186713f, 0.408055f, 0.185036f, -0.237506f, 1.200635f, 0.132370f, 0.497357f, 0.099190f, 0.314700f, -0.100336f, 0.290087f, 0.179777f, 0.677129f, 0.294937f, 0.126814f, 0.173980f, 0.436615f, 0.448038f, 0.546638f, 0.220433f, 0.644823f, 0.207180f, 0.810463f, 0.138736f, 0.556167f, 0.039587f, 0.213963f, -0.236092f, 0.404113f, -0.024717f, 0.371601f, 0.511886f, 0.224121f, 0.065646f, 0.192671f, 0.064268f, 0.322117f, 0.106165f, 0.304634f, 0.121096f, 0.314015f, 0.191118f, -0.044056f, -0.014488f, -0.071092f, -0.142543f, 0.562484f, 0.185576f, 0.331848f, 0.042184f, -0.152828f, -0.049027f, 0.038464f, 0.056861f, -0.080391f, 0.138641f, 0.166390f, 0.305131f, -0.147763f, 0.093766f, 0.078267f, 0.067841f, 0.262889f, 0.405268f, 0.268541f, -0.259729f, -0.103573f, 0.010167f, 0.257433f, -0.171366f, 0.392557f, 0.154774f, 0.163027f, -0.209475f, -0.048226f, 0.065522f, -0.133238f, -0.030966f, 0.054951f, 0.041550f, 0.281602f, 0.037107f, -0.086652f, 0.021951f, 0.214597f, 0.205347f, 0.101002f, 0.028438f, 0.039999f, 0.015215f, 0.044443f, -0.207013f, -0.151706f, -0.013190f, -0.041150f, 0.058264f, 0.105540f, 0.286609f, -0.097060f, 0.019128f, -0.106787f, 0.016992f, 0.142328f, -0.049464f, 0.210229f, 0.280591f, -0.032347f, 0.400311f, 0.001344f, 0.230897f, 0.087786f, 0.308544f, 0.137724f, 0.319835f, -0.255529f, -0.441499f, 0.022529f, 0.211507f, 0.190374f, 0.253165f, 0.203917f, 0.274123f, 0.207468f, 0.351543f, 0.470713f, 0.165819f, 0.390203f, -0.195818f, 0.545293f, 0.429494f, -0.044226f, -0.041007f, 0.220085f, 0.374771f, 0.372485f, 0.011766f, 0.237116f, 0.090660f, 0.341798f, -0.478443f, 0.244001f, 0.226519f, 0.209822f, -0.033580f, 0.202653f, 0.422122f, 0.006724f, -0.193277f, 0.170543f, -0.021528f, -0.091256f, -0.049479f, -0.035575f, 0.075613f, 0.249778f, 0.022486f, -0.039368f, -0.293610f, -0.116956f, 0.318593f, 0.065840f, -0.014735f, 0.110559f, 0.109738f, -0.057802f, -0.219460f, 0.021943f, 0.089052f, 0.127519f, 0.024397f, -0.091222f, -0.026243f, 0.038764f, 0.056993f, -0.166623f, 0.028137f, 0.154287f, 0.016157f, 0.030514f, 0.077129f, 0.000957f, 0.001072f, -0.062860f, 0.083755f, -0.043342f, -0.073544f, 0.028040f, 0.016797f, -0.015070f, -0.013688f, 0.049300f, -0.052632f, 0.055788f, 0.026062f, -0.014107f, -0.007271f, -0.041139f, 0.043987f, 0.001544f, -0.030943f, 0.017149f, 0.086130f, -0.009636f, 0.071600f, 0.092145f, -0.111741f, -0.158303f, 0.014780f, 0.058328f, -0.066098f, 0.127834f, -0.039727f, 0.285659f, -0.272701f, -0.232265f, 0.174651f, 0.452267f, 0.097615f, -0.183190f, -0.287570f, 0.401135f, -0.333346f, 0.586544f, -0.164190f, -0.097779f, 0.210500f, -0.173280f, -0.223745f, -0.315166f, -0.073721f, 0.435874f, 0.357117f, 0.180199f, 0.193746f, -0.209622f, -0.213216f, -0.130690f, 0.037181f, 0.732643f, 0.267335f, 0.407130f, 0.301602f, 0.125582f, 0.086781f, -0.094881f, -0.177467f, 0.808650f, 0.219529f, 0.503565f, 0.369043f, -0.098522f, -0.178241f, -0.021712f, 0.168978f, 0.069313f, -0.053080f, 0.204721f, 0.374076f, -0.077728f, 0.095615f, -0.009440f, 0.178502f, 0.048201f, 0.251726f, 0.101318f, -0.019871f, -0.004034f, 0.136277f, 0.144714f, -0.117975f, 0.132873f, 0.109349f, 0.238706f, -0.020579f, -0.126463f, 0.139388f, 0.196834f, 0.067267f, 0.213850f, -0.056850f, 0.191050f, -0.060661f, 0.051499f, 0.127738f, 0.030870f, -0.115603f, 0.210152f, -0.050146f, 0.184016f, 0.257815f, -0.204441f, 0.006719f, 0.080872f, 0.184082f, 0.024981f, 0.224326f, 0.103066f, 0.063157f, -0.164959f, -0.127852f, 0.106595f, -0.060438f, 0.211349f, 0.074862f, 0.227671f, 0.061860f, -0.206489f, 0.111704f, -0.084986f, 0.011387f, 0.163395f, 0.006825f, 0.151799f, 0.156977f, -0.154869f, -0.106573f, 0.189295f, -0.004950f, 0.302271f, 0.090032f, -0.033944f, -0.070432f, 0.057656f, -0.328162f, -0.043042f, 0.359533f, -0.000219f, 0.374997f, 0.226737f, 0.027965f, 0.024633f, 0.333403f, -0.125064f, -0.168442f, 0.329793f, -0.227327f, 0.303978f, 0.001867f, -0.300469f, -0.266316f, 0.272164f, 0.258019f, 0.006208f, -0.001993f, 0.237814f, -0.059899f, 0.416038f, 0.173986f, -0.300273f, 0.096403f, 0.312314f, 0.063590f, 0.104286f, 0.107532f, -0.039159f, -0.375846f, 0.214836f, -0.084769f, -0.000923f, 0.461273f, 0.000943f, 0.230109f, 0.194106f, -0.443173f, 0.571417f, 0.165894f, 0.374673f, -0.210444f, 0.295107f, -0.001265f, -0.074801f, -0.279732f, 0.172642f, 0.282677f, 0.046061f, 0.222453f, 0.027247f, -0.206123f, -0.183051f, 0.051893f, -0.199016f, -0.229317f, -0.142079f, 0.537426f, -0.100889f, -0.227126f, -0.135400f, 0.154064f, 0.385174f, -0.114442f, -0.137941f, 0.057110f, 0.137104f, -0.134119f, 0.024791f, -0.038626f, 0.047472f, -0.062518f, -0.126378f, 0.097539f, 0.099208f, -0.062358f, -0.028546f, -0.028991f, 0.078465f, 0.041252f, 0.016916f, 0.066074f, -0.078145f, -0.042206f, -0.006061f, -0.047373f, 0.041985f, 0.072556f, -0.013384f, -0.027231f, 0.080298f, -0.009324f, -0.001946f, -0.025730f, 0.070960f, 0.011906f, 0.045411f, 0.054145f, -0.027343f, -0.011413f, 0.060513f, -0.023779f, 0.130340f, 0.050013f, -0.033182f, -0.002439f, 0.066225f, 0.137269f, 0.028246f, -0.088900f, 0.067186f, 0.087092f, -0.047621f, -0.004108f, 0.065538f, -0.022177f, -0.072297f, -0.230241f, -0.239730f, -0.208324f, 0.217006f, -0.021765f, -0.262283f, 0.228325f, 0.218978f, -0.323694f, -0.293616f, -0.292968f, 0.218194f, 0.815242f, 0.465022f, -0.037922f, -0.232110f, -0.246347f, 0.171409f, -0.262566f, 0.375836f, 0.033697f, 0.270781f, -0.132773f, 0.225109f, 0.174966f, 0.394299f, -0.058898f, 0.120564f, 0.035301f, 0.141476f, 0.053520f, 0.034504f, 0.026585f, 0.109991f, -0.305003f, 0.158621f, 0.148262f, -0.001774f, -0.162338f, -0.085182f, -0.302156f, 0.152333f, -0.218694f, 0.169005f, 0.040140f, 0.127988f, 0.017283f, -0.061245f, 0.028867f, -0.070024f, 0.107530f, 0.066207f, -0.278557f, 0.138294f, 0.034549f, 0.165297f, -0.021396f, 0.124459f, 0.087265f, 0.208772f, 0.362177f, 0.023706f, 0.112496f, -0.053169f, -0.030426f, 0.097802f, 0.122908f, 0.164402f, -0.045043f, 0.145712f, -0.185502f, 0.038360f, 0.052450f, 0.089356f, -0.020640f, 0.183810f, -0.147676f, 0.200465f, -0.288017f, -0.039798f, 0.321008f, 0.054294f, -0.004628f, 0.184703f, 0.441689f, -0.135000f, 0.023192f, 0.055318f, -0.024506f, 0.161528f, -0.042625f, 0.062597f, 0.009359f, 0.113595f, 0.290556f, -0.152779f, 0.050375f, -0.040157f, -0.048970f, 0.042761f, -0.140166f, 0.106237f, -0.142065f, -0.196203f, -0.155831f, 0.145446f, -0.151436f, 0.129639f, 0.124019f, -0.121533f, 0.312326f, 0.095439f, -0.066819f, -0.000108f, 0.179912f, 0.075277f, 0.395817f, -0.052583f, 0.482382f, -0.315410f, -0.290811f, -0.232488f, 0.204925f, -0.141479f, 0.010326f, -0.016090f, 0.011485f, -0.306279f, -0.144743f, 0.031423f, -0.169807f, -0.041126f, 0.184079f, 0.020587f, 0.002253f, -0.173663f, -0.347994f, -0.172975f, 0.384410f, 0.058146f, -0.060268f, 0.182861f, -0.027650f, 0.102588f, -0.184371f, 0.136371f, 0.168961f, 0.391709f, 0.112010f, 0.094267f, 0.239786f, 0.286125f, 0.017108f, 0.196334f, 0.091254f, 0.240225f, 0.464387f, -0.226777f, 0.016255f, -0.181378f, 0.016643f, -0.161880f, -0.029599f, -0.061150f, 0.276767f, -0.144299f, -0.163582f, -0.151480f, -0.026763f, -0.023063f, -0.068251f, 0.083282f, 0.047044f, -0.196928f, -0.242494f, -0.120761f, -0.024343f, 0.050546f, -0.075076f, 0.042360f, 0.074568f, -0.038538f, -0.075997f, -0.030590f, 0.044589f, -0.016190f, 0.065849f, 0.025819f, 0.069245f, 0.021438f, -0.064075f, -0.033011f, -0.051743f, 0.070937f, 0.045183f, 0.030607f, -0.034535f, -0.054822f, 0.044498f, -0.004484f, -0.047579f, 0.020241f, -0.079758f, -0.030163f, -0.005456f, -0.061091f, 0.084098f, -0.050472f, -0.064140f, 0.019899f, 0.055277f, -0.071139f, 0.014970f, -0.048266f, -0.031155f, -0.047709f, 0.033244f, 0.232228f, 0.035090f, 0.187118f, -0.274160f, -0.310685f, 0.115664f, -0.061017f, -0.152339f, 0.474798f, 0.239307f, -0.096545f, -0.223431f, -0.080403f, 0.264828f, -0.194741f, -0.173565f, 0.129987f, -0.253247f, -0.076929f, 0.021967f, -0.081591f, 0.558866f, -0.196288f, 0.061170f, 0.152980f, -0.189027f, 0.027551f, 0.148782f, 0.001176f, 0.106315f, -0.040742f, 0.076970f, 0.198382f, -0.284578f, -0.002247f, -0.006251f, 0.209829f, 0.097123f, 0.318369f, 0.091579f, 0.045614f, 0.292313f, 0.418327f, 0.027584f, 0.207094f, 0.095004f, 0.036014f, 0.125194f, 0.192061f, 0.015715f, 0.026055f, 0.404483f, 0.083491f, 0.065943f, 0.264561f, 0.071944f, 0.336270f, -0.038974f, 0.026731f, -0.003509f, -0.188171f, 0.279372f, 0.011998f, 0.065634f, 0.341151f, 0.187267f, 0.329234f, -0.049026f, 0.425969f, -0.022492f, 0.423673f, 0.006467f, 0.107222f, -0.039761f, 0.253199f, 0.098141f, 0.191578f, 0.074684f, -0.169578f, 0.070068f, 0.155829f, 0.177211f, 0.041926f, 0.174188f, -0.058788f, 0.217372f, 0.286022f, -0.021126f, 0.136955f, -0.072783f, 0.251581f, -0.050526f, 0.051961f, -0.192383f, -0.196015f, -0.079204f, 0.149335f, 0.140628f, 0.032509f, 0.136765f, -0.053387f, 0.170331f, 0.213593f, -0.075900f, 0.008279f, 0.215043f, 0.185149f, 0.232175f, 0.084360f, -0.073025f, -0.139121f, -0.039869f, 0.047099f, 0.035393f, -0.018441f, 0.059217f, -0.183889f, 0.037535f, 0.009811f, -0.219828f, -0.084488f, 0.159221f, 0.052259f, -0.213375f, 0.070472f, -0.102512f, 0.250796f, 0.043592f, 0.204492f, 0.074535f, 0.321955f, 0.042958f, 0.291828f, 0.161557f, -0.119554f, -0.301617f, 0.312743f, 0.296872f, 0.277363f, 0.219201f, 0.107946f, 0.114022f, 0.029711f, -0.010103f, -0.137896f, 0.603841f, 0.137396f, 0.204999f, -0.052521f, -0.176499f, -0.058475f, -0.124044f, 0.643818f, 0.057956f, 0.288235f, 0.389398f, 0.350250f, -0.329665f, 0.046680f, -0.063158f, 0.175749f, 0.002153f, 0.244209f, 0.329294f, 0.165732f, -0.004172f, 0.118748f, -0.101180f, 0.047040f, -0.036531f, -0.244978f, 0.136331f, -0.144698f, 0.050670f, 0.018222f, 0.036625f, -0.023463f, 0.035048f, -0.114669f, 0.018795f, -0.054275f, -0.036749f, -0.061613f, -0.007225f, -0.007649f, -0.088400f, -0.024334f, 0.052043f, 0.002166f, 0.129014f, 0.007717f, -0.038162f, 0.047222f, -0.057179f, -0.020038f, -0.026555f, -0.011832f, 0.048893f, -0.002746f, 0.051015f, 0.013272f, -0.027403f, 0.053785f, -0.045410f, -0.047823f, 0.000781f, -0.041496f, -0.085180f, 0.025732f, 0.001925f, -0.009453f, 0.081025f, 0.012354f, 0.063060f, -0.062560f, 0.012008f, 0.101502f, 0.015720f, -0.006669f, -0.020650f, -0.050007f, 0.028014f, -0.026477f, 0.053910f, 0.059261f, 0.034750f, 0.188740f, -0.339943f, -0.214864f, 0.310574f, 0.060953f, -0.048695f, 0.141983f, -0.173502f, -0.074078f, -0.319078f, -0.140660f, 0.102358f, 0.149507f, -0.108466f, -0.003870f, -0.406832f, -0.223153f, -0.422019f, -0.226244f, -0.153137f, 0.381766f, -0.024873f, 0.218676f, -0.210338f, -0.417967f, -0.209884f, -0.097649f, 0.208197f, 0.086630f, -0.140517f, 0.054767f, 0.251108f, -0.181933f, -0.123951f, -0.214319f, 0.307163f, 0.132887f, 0.004666f, 0.170499f, 0.033695f, -0.039303f, -0.017108f, -0.217503f, 0.098280f, 0.236950f, -0.234694f, 0.083271f, 0.284683f, 0.048273f, -0.147137f, 0.124538f, 0.145780f, -0.048695f, 0.278183f, 0.099020f, -0.093849f, -0.050322f, -0.183753f, -0.022234f, 0.229314f, 0.200738f, 0.019860f, 0.137575f, 0.375553f, -0.029785f, 0.179856f, -0.184273f, 0.149595f, 0.292885f, -0.113669f, 0.401651f, 0.019034f, 0.138788f, 0.193079f, -0.159952f, 0.064056f, -0.068255f, -0.091672f, 0.298376f, 0.246907f, 0.258310f, 0.166715f, -0.214699f, 0.086195f, 0.333105f, -0.093063f, 0.527977f, 0.276357f, -0.071683f, 0.033756f, 0.178366f, 0.237038f, 0.127156f, 0.254981f, 0.132788f, -0.119395f, 0.190970f, 0.101404f, -0.023530f, -0.097862f, 0.122508f, -0.004642f, 0.304347f, 0.358064f, 0.268043f, -0.148573f, -0.029149f, 0.215772f, 0.152925f, -0.083698f, 0.211936f, 0.046583f, -0.126229f, 0.241492f, -0.171583f, 0.304069f, 0.094508f, -0.286747f, 0.613857f, 0.112437f, 0.206412f, 0.478042f, -0.417806f, 0.022341f, 0.202913f, -0.356837f, 0.185134f, 0.177798f, -0.107515f, 0.326697f, -0.005440f, 0.158663f, 0.318626f, -0.243679f, -0.206377f, -0.004305f, 0.232014f, 0.373070f, -0.521454f, 0.127666f, 0.506774f, -0.089315f, -0.151535f, -0.089025f, -0.140487f, 0.219666f, 0.135517f, 0.006626f, 0.170135f, -0.121403f, 0.116024f, 0.001162f, 0.068293f, 0.270224f, 0.103581f, 0.229551f, 0.121991f, -0.094608f, -0.228500f, -0.089627f, 0.378032f, 0.115840f, -0.114837f, 0.127919f, 0.136675f, 0.031309f, 0.128550f, -0.098990f, 0.177547f, 0.127875f, 0.051339f, 0.199684f, -0.016284f, -0.065569f, 0.069363f, 0.103238f, -0.154183f, 0.101808f, 0.128072f, -0.056327f, 0.064820f, 0.007292f, 0.004301f, -0.084761f, -0.058622f, 0.018578f, 0.122633f, 0.018871f, -0.022491f, -0.000356f, -0.075295f, 0.081997f, -0.024281f, -0.003840f, -0.025110f, 0.031668f, 0.028149f, 0.037361f, -0.040230f, -0.031984f, -0.065024f, 0.026983f, -0.079851f, 0.016949f, 0.064147f, 0.067815f, -0.008843f, -0.007061f, -0.073401f, 0.029630f, 0.055743f, -0.044306f, -0.013655f, 0.058793f, 0.068386f, -0.044508f, 0.006641f, -0.054439f, -0.068154f, 0.074277f, 0.054362f, 0.044700f, -0.026139f, 0.087301f, 0.027607f, 0.008848f, 0.017818f, -0.067968f, -0.098837f, 0.006699f, 0.044838f, -0.127456f, -0.189131f, -0.067981f, 0.032992f, 0.076248f, -0.118009f, -0.149847f, -0.206938f, -0.176358f, 0.057959f, -0.361419f, -0.155148f, -0.131237f, 0.335866f, -0.079128f, 0.187512f, -0.190991f, -0.053012f, 0.015262f, -0.010619f, 0.124697f, -0.129501f, -0.424019f, 0.304355f, -0.182562f, -0.078429f, -0.254774f, -0.306543f, 0.259690f, -0.021219f, -0.227519f, 0.281353f, -0.497922f, 0.002978f, -0.142309f, -0.346412f, 0.613500f, 0.274412f, -0.309406f, 0.504337f, -0.133500f, -0.002030f, -0.224631f, -0.111543f, 0.252931f, -0.013414f, -0.239221f, 0.375130f, 0.180851f, 0.058695f, -0.209247f, -0.101715f, 0.193832f, 0.301892f, -0.210332f, 0.324537f, -0.039625f, 0.114737f, -0.063379f, -0.235615f, 0.122855f, 0.185892f, -0.050260f, 0.390253f, -0.328569f, -0.079217f, -0.041935f, -0.089218f, 0.601097f, 0.147019f, -0.374476f, 0.462531f, -0.110435f, 0.161605f, 0.060734f, -0.131388f, 0.176489f, -0.038815f, -0.297127f, 0.091854f, 0.119381f, 0.093734f, 0.175614f, -0.348472f, 0.266264f, 0.520310f, -0.302600f, 0.422524f, 0.113143f, 0.071676f, 0.073780f, -0.167717f, -0.109741f, 0.045545f, -0.388663f, 0.399589f, -0.081489f, 0.089679f, 0.269993f, -0.332173f, 0.080680f, 0.499304f, -0.114750f, 0.468427f, -0.091045f, 0.250591f, 0.110304f, 0.009374f, 0.038608f, 0.171552f, -0.088833f, 0.376254f, 0.167640f, 0.219170f, -0.105661f, -0.447654f, -0.016912f, 0.289603f, -0.049975f, 0.622799f, 0.022392f, 0.402934f, -0.215346f, -0.372439f, 0.185508f, 0.110866f, -0.083342f, 0.000751f, 0.108357f, 0.356129f, 0.009846f, -0.243477f, 0.158189f, -0.023664f, -0.102678f, -0.197738f, -0.181140f, 0.408546f, 0.188474f, -0.399738f, 0.168576f, -0.244133f, -0.059584f, 0.060749f, -0.078086f, 0.328864f, 0.010372f, -0.414209f, 0.422819f, -0.384328f, -0.065397f, -0.251353f, 0.000868f, 0.222116f, 0.079293f, -0.119612f, 0.279735f, -0.293162f, 0.011621f, 0.051329f, 0.044869f, 0.044947f, 0.133989f, -0.116054f, 0.332856f, -0.092860f, -0.063221f, -0.017344f, -0.072562f, -0.073945f, 0.071862f, 0.014601f, -0.079815f, -0.021500f, 0.083526f, 0.043488f, -0.017314f, -0.099852f, 0.105303f, 0.098538f, -0.047963f, -0.068272f, -0.076931f, -0.065869f, 0.014014f, 0.074396f, -0.000565f, 0.059506f, -0.009389f, 0.036192f, 0.040233f, -0.056572f, -0.024081f, 0.023824f, -0.074490f, -0.024025f, 0.006038f, 0.086102f, -0.004419f, 0.054840f, -0.011787f, 0.051428f, 0.016556f, 0.067079f, -0.015453f, 0.018098f, 0.022560f, -0.014335f, -0.061717f, -0.070523f, -0.083864f, 0.064813f, -0.045725f, -0.050057f, 0.040955f, -0.031230f, 0.001049f, -0.058559f, 0.079772f, 0.061004f, 0.063122f, -0.016176f, 0.045523f, -0.104101f, -0.006237f, -0.053391f, -0.038730f, -0.064416f, 0.010277f, -0.133296f, 0.027614f, -0.225196f, 0.050750f, 0.166780f, -0.205867f, -0.076366f, -0.042213f, -0.009888f, 0.016940f, -0.310512f, 0.048197f, 0.113124f, -0.148072f, -0.105759f, -0.020167f, 0.254918f, -0.055957f, -0.282841f, -0.173234f, -0.028054f, 0.149008f, -0.074257f, -0.053333f, 0.551587f, -0.121441f, -0.003521f, -0.031795f, 0.090435f, 0.222212f, -0.161212f, -0.085064f, 0.427089f, -0.293593f, 0.065886f, -0.217836f, 0.155302f, 0.206518f, -0.176032f, 0.180500f, 0.555543f, -0.102736f, 0.110042f, -0.244897f, 0.225865f, 0.260032f, 0.008805f, 0.192250f, 0.520545f, -0.109877f, 0.166005f, -0.289153f, 0.401983f, -0.018421f, 0.162653f, 0.117904f, 0.228712f, -0.074221f, 0.426573f, -0.363300f, 0.413142f, -0.160726f, -0.321790f, 0.032604f, 0.192743f, -0.315644f, 0.371176f, -0.192629f, 0.301877f, -0.004564f, -0.271237f, 0.015755f, 0.373188f, -0.373776f, 0.137446f, -0.301323f, 0.263670f, 0.240372f, -0.154752f, 0.114377f, 0.648629f, -0.052896f, 0.366957f, -0.359829f, 0.143986f, -0.121052f, -0.042163f, 0.273781f, 0.275351f, -0.108875f, 0.433043f, -0.307619f, 0.282067f, -0.249773f, -0.206581f, 0.262918f, 0.291252f, 0.166759f, 0.040655f, -0.185324f, 0.241914f, 0.029578f, -0.164140f, 0.091880f, 0.497892f, 0.008287f, 0.341612f, -0.259646f, 0.418502f, -0.161339f, -0.186536f, -0.152559f, 0.447293f, 0.113340f, 0.392069f, -0.406342f, 0.212663f, 0.093115f, -0.114457f, -0.549058f, 0.380835f, -0.070932f, 0.092140f, -0.309740f, 0.319981f, 0.116939f, -0.168834f, -0.105055f, 0.040796f, 0.005484f, -0.087466f, -0.175759f, 0.167999f, 0.216072f, -0.193326f, 0.054488f, 0.193199f, -0.060201f, -0.034907f, -0.172046f, 0.020822f, 0.227769f, -0.134344f, -0.072267f, 0.221299f, -0.072486f, -0.007714f, -0.050163f, 0.062189f, 0.146873f, 0.071328f, 0.020812f, 0.027443f, 0.044871f, -0.064198f, 0.008253f, 0.008619f, -0.071777f, -0.014231f, 0.061475f, 0.061846f, -0.069538f, -0.071013f, -0.041178f, 0.064990f, -0.064379f, 0.038174f, -0.069206f, 0.021373f, -0.024979f, 0.050130f, -0.046208f, 0.024153f, -0.045863f, 0.037073f, 0.064838f, -0.064755f, 0.063609f, 0.016237f, -0.064701f, -0.012572f, -0.058845f, 0.034763f, 0.044917f, -0.068400f, 0.001065f, 0.054592f, 0.075680f, 0.002346f, 0.078129f, 0.006193f, -0.018359f, 0.060418f, -0.001218f, -0.004875f, -0.001681f, 0.060172f, 0.057596f, -0.016741f, -0.028925f, -0.001401f, 0.012627f, -0.045402f, 0.051005f, -0.002345f, -0.028795f, -0.068222f, -0.045314f, 0.077956f, -0.033818f, -0.057457f, -0.006824f, -0.033473f, -0.080656f, -0.030687f, 0.007653f, 0.008973f, -0.024889f, -0.009165f, 0.080769f, -0.021276f, -0.041958f, -0.044512f, -0.007328f, 0.045069f, -0.051012f, 0.035879f, -0.083214f, -0.014072f, 0.047864f, -0.027982f, 0.011059f, -0.050312f, 0.042046f, -0.078332f, 0.060753f, -0.053497f, 0.065515f, -0.025588f, 0.038429f, -0.028537f, 0.069996f, -0.060807f, -0.061153f, -0.017198f, -0.069475f, -0.048155f, 0.075289f, 0.096307f, -0.031477f, 0.087522f, 0.010812f, -0.072496f, 0.002855f, 0.043116f, 0.104115f, -0.037658f, 0.002265f, -0.072112f, -0.042352f, -0.075272f, 0.030783f, 0.064191f, 0.077714f, -0.012927f, -0.054429f, -0.036149f, -0.079618f, 0.038434f, 0.161500f, 0.057961f, -0.026664f, -0.039367f, -0.094912f, -0.014879f, 0.104907f, 0.096798f, 0.133380f, -0.015902f, 0.123995f, -0.101801f, 0.060318f, 0.146488f, 0.030739f, 0.037422f, 0.002086f, 0.014781f, 0.286373f, -0.180242f, 0.011032f, 0.145104f, -0.181900f, -0.057216f, 0.108828f, -0.032315f, 0.148977f, -0.159703f, 0.057943f, 0.030215f, -0.178484f, 0.056780f, 0.074500f, -0.096133f, -0.022853f, 0.229388f, 0.098745f, -0.078367f, -0.136743f, 0.072585f, -0.075186f, -0.078214f, 0.044384f, 0.218116f, 0.031337f, 0.016146f, -0.174523f, 0.072615f, -0.118519f, 0.015923f, -0.067906f, 0.059663f, 0.124118f, -0.068845f, -0.004094f, -0.019695f, 0.015586f, -0.094351f, -0.098360f, 0.170643f, 0.043370f, 0.026979f, 0.004999f, 0.083233f, -0.057461f, -0.145704f, 0.023209f, 0.088849f, -0.042201f, 0.026424f, -0.199794f, 0.030033f, 0.076109f, -0.072424f, -0.052358f, 0.179542f, -0.027912f, -0.012790f, -0.113597f, -0.046046f, -0.005347f, -0.017229f, -0.066171f, 0.117751f, 0.052604f, -0.061754f, -0.066932f, -0.117638f, 0.036952f, 0.047229f, 0.036534f, -0.033447f, -0.023126f, -0.106287f, 0.013870f, -0.064129f, 0.089816f, -0.014892f, -0.018827f, 0.033254f, 0.071373f, 0.009348f, -0.056594f, -0.023231f, 0.062925f, 0.025023f, 0.026153f, 0.070519f, 0.068360f, 0.072840f, -0.070299f, 0.007656f, 0.041732f, 0.044580f, 0.018517f, -0.057817f, 0.051606f, 0.038192f, -0.071811f, -0.006279f, -0.056569f, -0.028200f, -0.083619f, -0.017294f, 0.008654f, 0.020749f, 0.028368f, 0.058351f, -0.049371f, -0.065851f, 0.060996f, -0.059582f, 0.082377f, 0.059435f, 0.000152f, 0.083533f, -0.069860f, -0.034171f, 0.023984f, -0.026026f, 0.074328f };
static const float mnist_model_layer_1_biases[10] = { 1.043449f, -1.710907f, -1.996814f, -1.339968f, 1.884261f, 0.967310f, 0.854465f, 3.314906f, -4.507578f, 0.490036f };
static const float mnist_model_layer_1_weights[80] = { 1.682045f, -1.746117f, 1.846286f, 0.601432f, -1.459354f, 1.618874f, 0.289635f, 0.377084f, -0.270458f, -1.373795f, -1.325241f, -0.651774f, 0.724602f, -0.219761f, 1.571331f, 0.378746f, 0.554378f, -1.445753f, 0.899610f, -0.460234f, 1.688102f, -0.976504f, -2.172714f, -0.474424f, -0.534114f, 0.760466f, 0.153748f, -1.367376f, 1.539348f, 1.835245f, -2.142594f, 1.995200f, 2.342714f, -0.007440f, -0.929852f, -0.115888f, -0.577025f, 1.080641f, 0.366514f, -1.995158f, -0.758467f, 1.239345f, 2.532004f, 0.478218f, -0.571819f, -1.373840f, 0.996464f, 0.602111f, -1.450653f, -2.629740f, -2.402626f, 1.885156f, -1.088255f, 1.204335f, -0.010761f, 1.292437f, -1.024290f, -1.285842f, 0.292559f, -0.134996f, -0.905338f, 0.411923f, 0.092953f, 0.897432f, 0.283014f, -1.706203f, -2.266602f, 1.769981f, 0.366424f, 1.538265f, 0.722974f, 0.070086f, -2.896397f, -0.725822f, 0.379674f, 2.576324f, 0.530966f, -1.296834f, 0.846091f, 0.528280f };
static float mnist_model_buf1[784];
static float mnist_model_buf2[784];
static const EmlNetLayer mnist_model_layers[2] = { 
{ 8, 784, mnist_model_layer_0_weights, mnist_model_layer_0_biases, EmlNetActivationRelu }, 
{ 10, 8, mnist_model_layer_1_weights, mnist_model_layer_1_biases, EmlNetActivationSoftmax } };
static EmlNet mnist_model = { 2, mnist_model_layers, mnist_model_buf1, mnist_model_buf2, 784 };

    int32_t
    mnist_model_predict(const float *features, int32_t n_features)
    {
        return eml_net_predict(&mnist_model, features, n_features);
    }
    

    int32_t
    mnist_model_regress(const float *features, int32_t n_features, float *out, int32_t out_length)
    {
        return eml_net_regress(&mnist_model, features, n_features, out, out_length);
    }
    

    float
    mnist_model_regress1(const float *features, int32_t n_features)
    {
        return eml_net_regress1(&mnist_model, features, n_features);
    }
    